<?xml version="1.0"?>
<opencv_storage>
<opencv_ml_ann_mlp>
  <format>3</format>
  <layer_sizes>
    64 64 64 10</layer_sizes>
  <activation_function>SIGMOID_SYM</activation_function>
  <f_param1>2.</f_param1>
  <f_param2>1.</f_param2>
  <min_val>-9.4999999999999996e-01</min_val>
  <max_val>9.4999999999999996e-01</max_val>
  <min_val1>-9.7999999999999998e-01</min_val1>
  <max_val1>9.7999999999999998e-01</max_val1>
  <training_params>
    <train_method>RPROP</train_method>
    <dw0>1.0000000000000001e-01</dw0>
    <dw_plus>1.2000000000000000e+00</dw_plus>
    <dw_minus>5.0000000000000000e-01</dw_minus>
    <dw_min>1.1920928955078125e-07</dw_min>
    <dw_max>50.</dw_max>
    <term_criteria>
      <iterations>1400</iterations></term_criteria></training_params>
  <input_scale>
    3.9876121028525829e-01 -3.4221687066680867e-01
    3.6812444239059833e-01 -4.3814171133329011e-01
    3.1794071656494599e-01 -6.5228717410464321e-01
    2.9608321566873552e-01 -8.9215794545303384e-01
    3.0337504827489969e-01 -1.0448236662587544e+00
    3.0579328740368000e-01 -1.0502164662591986e+00
    3.0729364691385358e-01 -9.1278504879291067e-01
    2.7374114301784769e-01 -7.3061511071463547e-01
    3.6072103193803118e-01 -4.5948645048266412e-01
    4.1097090040880807e-01 -5.0894636306626784e-01
    3.9631759386700505e-01 -6.5233875950509024e-01
    3.9727357207403130e-01 -6.7528561781143837e-01
    3.9016824018009161e-01 -6.6430044573062397e-01
    3.8340488421526880e-01 -7.4863637691873386e-01
    3.6887298606561703e-01 -8.5268679458928032e-01
    3.0771530249552304e-01 -7.9033598292950136e-01
    3.4379408561507829e-01 -4.9829514769049449e-01
    3.9673459008180756e-01 -5.4384377608414181e-01
    4.0876918855538263e-01 -5.5241068141374405e-01
    4.1317630276901107e-01 -4.7911924069094525e-01
    4.2286431955725340e-01 -4.6599648015209327e-01
    3.9136090769244725e-01 -6.5185072785254017e-01
    3.8376072700078939e-01 -7.0581272909985182e-01
    3.2699943994022651e-01 -5.9834357520262649e-01
    3.4571355164418105e-01 -5.2403260158224962e-01
    3.9765630482962883e-01 -5.8749742475529365e-01
    3.9477833551625990e-01 -6.3883030253241180e-01
    3.9263891165444265e-01 -6.5209470447569839e-01
    3.7703544850511128e-01 -7.7118830637235458e-01
    3.7478020011783891e-01 -7.2662385198846613e-01
    4.0799847603701594e-01 -5.6989227132850384e-01
    3.5518935623482439e-01 -4.9399735665139377e-01
    3.4077511693503465e-01 -5.3474431349445639e-01
    4.0089805407099877e-01 -5.2573770810870779e-01
    3.9707927256679576e-01 -5.7274714275034622e-01
    3.7905994170511970e-01 -7.1983482929802234e-01
    3.8391749920739526e-01 -7.0986345603447387e-01
    3.8993167058711686e-01 -6.4564886015814804e-01
    3.9855511915903086e-01 -5.9217319604648810e-01
    3.4045692190578486e-01 -5.2695922372577386e-01
    3.1344069541729314e-01 -6.5521642970030947e-01
    4.0101630049033421e-01 -5.3631920027577296e-01
    4.0046473314051895e-01 -5.1892220120348442e-01
    3.9490553465937706e-01 -5.8833026553553991e-01
    3.9819217525797623e-01 -5.5762832223126990e-01
    3.9826988072926350e-01 -5.7494239982076478e-01
    3.8809750311389918e-01 -6.0892498238570780e-01
    3.2415695952170936e-01 -5.4912188942977569e-01
    3.0201323315764272e-01 -8.3923437229845754e-01
    3.6905209948446333e-01 -8.5679135416313013e-01
    3.8713872235455882e-01 -7.8403334051245244e-01
    3.8736709838403055e-01 -7.4761849988117890e-01
    3.9108646019297660e-01 -7.1928621758692257e-01
    3.8970004749846548e-01 -6.6817970144086891e-01
    4.0661556566752372e-01 -5.2607921886064224e-01
    3.6466295978980917e-01 -4.4751438425405382e-01
    3.0574715533027291e-01 -5.8886902116610562e-01
    3.0683054565910622e-01 -8.2064897741984544e-01
    3.0037164883531003e-01 -9.8690108941329469e-01
    2.9888970853279556e-01 -9.4353503189632904e-01
    3.0665111833469805e-01 -7.2234737434921470e-01
    3.4274260706309995e-01 -5.2679538705598461e-01
    3.9468376562748941e-01 -3.8047515006489979e-01
    4.0184514859601894e-01 -3.1319810881573718e-01</input_scale>
  <output_scale>
    5.2631578947368418e-01 4.9999999999999994e-01 5.2631578947368418e-01
    4.9999999999999994e-01 5.2631578947368418e-01 4.9999999999999994e-01
    5.2631578947368418e-01 4.9999999999999994e-01 5.2631578947368418e-01
    4.9999999999999994e-01 5.2631578947368418e-01 4.9999999999999994e-01
    5.2631578947368418e-01 4.9999999999999994e-01 5.2631578947368418e-01
    4.9999999999999994e-01 5.2631578947368418e-01 4.9999999999999994e-01
    5.2631578947368418e-01 4.9999999999999994e-01</output_scale>
  <inv_output_scale>
    1.8999999999999999e+00 -9.4999999999999996e-01
    1.8999999999999999e+00 -9.4999999999999996e-01
    1.8999999999999999e+00 -9.4999999999999996e-01
    1.8999999999999999e+00 -9.4999999999999996e-01
    1.8999999999999999e+00 -9.4999999999999996e-01
    1.8999999999999999e+00 -9.4999999999999996e-01
    1.8999999999999999e+00 -9.4999999999999996e-01
    1.8999999999999999e+00 -9.4999999999999996e-01
    1.8999999999999999e+00 -9.4999999999999996e-01
    1.8999999999999999e+00 -9.4999999999999996e-01</inv_output_scale>
  <weights>
    <_>
      -3.9947211619052397e-01 -9.6441367223273192e-02
      5.7011064880829188e-01 -6.8719959369089889e-01
      6.1678629751879717e-02 2.1796554031792084e-01
      2.5846917110756024e-01 -2.5252246509304793e-01
      -1.7175912062342621e-01 5.1910117586900628e-01
      4.8565402004458247e-01 4.5659013129847864e-01
      1.3539453980480959e-01 -1.1704361308454837e-01
      8.6894989562996672e-01 -4.9928905059802930e-01
      -1.7478948349465728e-01 -1.0534980885718812e-01
      1.6944629809939399e-01 7.1670498680859632e-02
      5.5552737682400943e-01 2.0538505963520801e-01
      -1.4384554713758864e+00 -3.3393003778755120e-01
      -1.9547350828234819e-01 2.4165166590705228e-01
      -6.3968301465815125e-01 3.0469901675714012e-01
      1.0209876732442057e-01 -1.7634866677655889e-01
      -6.3910469032252049e-01 1.3103618750804276e+00
      -5.1158709946047398e-01 -2.2255086776675662e-02
      -4.6176577166612054e-01 9.6516006090686057e-02
      -1.4725083016604323e-01 3.1691816068150797e-01
      -4.6378210122430930e-02 4.0878201159259470e-01
      -2.5093209273491218e-01 -7.2660613105859223e-02
      -3.8580937722802279e-02 1.5915365894526673e-01
      -2.7637440690934728e-01 -5.1826402485810319e-01
      1.3265544534436449e-01 -3.7796396521414588e-02
      -2.1609000260345138e-01 -2.1472490858896071e-01
      -6.6643373836559350e-01 2.5017523087239790e-01
      -1.8121686433644060e-01 -1.1749311807166291e-01
      1.0784009758313688e+00 -1.9970197426587860e-01
      6.1263482104494303e-02 2.7874312300757136e-02
      -6.1345132500834532e-01 -1.1718841320099704e+00
      -1.0231965330148429e-01 4.6233612143124804e-02
      -1.4714116984328168e-01 4.7844301847237053e-01
      -2.8623378258054283e-01 1.0027487334874652e+00
      4.8114553680520328e-01 3.4106487700765192e-01
      2.0191559730911211e-02 4.8367736681484874e-01
      4.4506674677840655e-02 -8.4660820597084363e-01
      -6.7792232333330926e-02 6.9595724474453599e-02
      1.9042964038101598e-01 2.8210762537427214e-01
      1.8668170503173154e-01 -8.6158370779671825e-02
      2.2008983995176024e-01 -2.1963062616845960e-01
      5.2816415350630065e-02 -5.2185358934313331e-01
      2.6098826387876073e-01 -3.8244140908996793e-01
      -2.1352176710892126e-01 1.0304780561503921e-01
      -2.5942546472804107e-01 1.8563699147204803e-02
      -1.6181083750533620e-01 8.7313960490827142e-03
      -5.2585646387498408e-01 -2.3091724200197369e-01
      2.0949775219455785e-01 1.5472296384409545e-01
      -1.0915695288886426e-01 3.7409791988048796e-01
      -3.1571576448352984e-01 1.6122214866919507e-03
      -4.5565403710910690e-01 -4.3041768171631239e-01
      -1.2798131832570339e-01 7.0131076649248913e-01
      1.1423685485217590e-01 -1.0195410397783987e-02
      1.8376957857126561e-01 -9.4330471437429597e-01
      4.7149361955905644e-01 3.9373474073227088e-01
      9.5887438008974341e-02 -4.8044980414399213e-01
      7.0427703283177978e-01 -1.4851843903686068e-01
      1.2764980937267790e-02 1.0315787493249720e-01
      -4.3631161462327528e-01 1.7769746324190447e-01
      -3.3442432743842410e-01 -4.1996744805995752e-02
      6.9807037197206634e-01 -1.5603205402662237e-01
      -9.1806946960229868e-02 -4.1948731957830826e-01
      -4.3886672814158978e-01 -6.5588086729132367e-01
      -2.9954593200161295e-01 2.1236575633550001e-01
      -1.5638359897234833e-01 -9.9112191560874405e-02
      -1.0978367847980028e-01 4.5183893001512321e-01
      2.7209437486071947e-01 3.0390971672262079e-01
      2.9438851040594471e-01 1.2440517068908837e-01
      -1.9731199156242010e-01 2.6391711516609284e-01
      -2.1637706377221073e-02 -5.7674301898757253e-02
      -4.5433187333166380e-01 5.5115952211288066e-01
      -3.0149079285227635e-02 5.8192804666065710e-02
      -4.6292336706715558e-02 -1.7371768391265024e-01
      -9.2217767525877445e-02 9.9826341122737985e-03
      7.9602859498236297e-02 1.0653176097482744e-02
      4.1949083026235467e-01 5.1599172664862636e-01
      -2.3521248482613352e-01 -1.8593862709209411e-01
      2.4849749430501814e-01 3.0111523888779063e-01
      -4.1284629485254909e-02 1.2191592163547246e-01
      1.5024545527645120e-01 2.7306054709834693e-01
      -8.0427862517383597e-02 3.3295792820202297e-01
      2.7584803592365770e-01 -7.8820902755745337e-01
      -7.5211101671245797e-02 -3.8306985934746945e-01
      7.1009832932872746e-02 7.7553672450200206e-01
      -1.1238156576926182e-01 1.6737586381390857e-01
      3.9519674553071510e-01 -7.8127011820041081e-01
      1.5201233735671036e-02 -1.7643769394589118e-01
      -2.4845800849390685e-03 -3.8991271011854661e-01
      6.0018238327884110e-01 -3.1086936008258576e-01
      2.0750123466037629e-01 -4.0029582787165241e-01
      4.5589267505245175e-02 5.3563458046117585e-01
      -7.2891686919515537e-03 1.2492591704415941e-01
      6.8167187577292865e-01 4.7782810682919265e-02
      -1.0586152137662941e+00 -3.9222443313802252e-01
      -1.7383697005887508e-01 -4.6056422751613846e-01
      -3.0130157065145716e-02 -2.5449364604213748e-01
      -2.4975768540873251e-02 1.2761351118565453e-01
      -8.2249243417097911e-02 -4.1506517894080036e-01
      -2.1299294324288057e-01 5.8583483047480933e-01
      -2.9349426550775926e-02 -2.4069753769472554e-01
      -9.6941794917490914e-02 4.6497037532978980e-01
      -3.6851941729966636e-01 -2.7342511625125815e-01
      -3.1795894950254361e-01 1.9363765246667075e-01
      3.7333777944810666e-02 2.6388255292884949e-01
      -8.7825710054569639e-01 -1.5791649037429328e-01
      -3.1134089732865501e-02 -1.8744326651762708e-01
      -5.5187422909867438e-02 -5.8889142411620951e-02
      4.1929015490445309e-01 -1.7777859407052555e-02
      -1.4232371470505278e-01 4.2256858835417760e-01
      3.2606795402391714e-01 -3.2027899353053335e-01
      -1.0108150097394017e-01 4.6766629264811876e-01
      -9.2306179328747379e-02 4.4980995646839622e-01
      -2.2577153145952866e-01 7.2102987069462798e-01
      -7.8420581566374797e-02 -4.7072601933479630e-01
      4.5221598756791259e-01 -6.8085952865620103e-01
      -2.9840515367936216e-01 2.0641126416027841e-01
      -3.7232271770606779e-01 3.2768000724627938e-01
      1.9163217290573509e-01 -1.8801561307127834e-01
      1.8968341327775390e-02 4.2013005074975163e-01
      -3.7002215417786510e-01 -1.5235532235551866e-01
      -3.5087819342228106e-02 2.3814711287379856e-01
      4.2869786388239189e-01 4.8799219683202044e-01
      1.6261114717184549e-01 2.5655947979719634e-01
      -3.3928317936854357e-02 4.8147530317728576e-01
      1.1564517501163282e-01 -3.3898147428100528e-01
      -6.8066580919356398e-02 -7.9241447796331888e-01
      -5.3369600081415070e-01 -5.6376917098003354e-01
      -3.3464707542445549e-01 4.0935948155449897e-01
      2.9278583490009391e-02 4.5428513856825509e-01
      3.0476217945294798e-01 5.8897076192659359e-01
      4.2191538601421474e-01 1.6026190191724181e+00
      -9.7887362677027889e-01 -1.8348231381417174e-01
      -4.5289829497782946e-01 -4.6428448412738510e-01
      1.8451586053136343e-01 -2.3635866591426807e-01
      -2.1280371805997014e-01 3.5895785017221377e-01
      -5.6516777501108409e-02 1.0852025930549580e-01
      -4.4285230815640386e-01 -2.8061334761493339e-01
      -5.4784615678554427e-01 1.2377280812870450e-01
      -1.2431210411458463e-01 6.1835321485677652e-01
      3.6026462565616663e-01 4.3002882297434969e-01
      -4.4899371178685789e-02 -5.9649025525085353e-01
      4.9819992357935483e-01 1.2810191752071245e-01
      1.7024686426160082e-01 2.3374239929702106e-01
      -1.2340863417943975e+00 4.5641093125851828e-01
      -1.9761887257831151e-01 1.1704950361631916e-01
      1.3705258724075289e-01 -7.0038662820692399e-01
      3.9651919146447334e-01 -2.9832697076208442e-01
      -5.3174307686603817e-01 1.8599093309923156e-01
      -3.0063727711482213e-01 -2.4240402490857127e-02
      -5.6064390507114710e-02 3.4350524706087976e-01
      -8.2553717946796234e-03 2.6369786296340858e-01
      -5.8778349626098780e-01 -2.0748994379575114e-01
      1.8506805230324999e-01 -1.9436913953437435e-01
      5.1225398003513345e-01 4.9057945168632522e-01
      2.2942745064548128e-01 1.6198946253079091e-01
      3.7505960868617301e-02 9.3346073409923888e-02
      8.1551627401318971e-01 5.5379369025343705e-01
      -5.2087886938296281e-02 -4.7688676727501894e-01
      9.7826977993862946e-02 -2.2690764377107080e-02
      1.0948497573340497e-01 6.3907785453595517e-02
      4.1799711498880732e-01 5.5064278508924902e-01
      1.0070914439544854e-01 -2.8358286679398026e-01
      5.7969747613016653e-02 2.2808382715716995e+00
      -4.2224515540557450e-01 2.2493358666171795e-01
      -3.8712385073467317e-02 5.6794679437661949e-02
      -1.7048064389804507e-01 3.2284501132908722e-01
      9.6571791514999047e-02 3.3265784088498068e-01
      2.7364811592989865e-02 -2.4831182430357082e-01
      -8.3927148033350774e-01 -1.7829241870286988e-01
      -9.6390056314871408e-02 1.5610788092139882e-01
      -3.6398022539949620e-01 2.4818130585021625e-01
      2.8502863190417987e-01 -5.1093229592479979e-02
      4.5714345598516670e-02 -4.0204527662689243e-01
      -2.9087980753213294e-01 -1.5790320160520691e-01
      -1.1975819108710416e-01 -4.6344833874259729e-02
      -4.7909510297287078e-01 2.7087061124390927e-01
      2.0633838059935042e-01 -6.1044488903528336e-02
      1.7220456619624566e-01 -4.3555972121880604e-01
      4.4390158624207310e-01 4.1576765527567269e-02
      -4.2038210195192810e-01 -6.2565802733697037e-02
      3.5602730053050363e-01 -3.8022722095148342e-01
      3.1439356331288099e-01 5.0043879163536653e-01
      1.7586408933403597e-01 2.5490738696423826e-01
      -5.0021824708978613e-01 3.0286817539004346e-01
      7.0466795434987184e-02 -4.4453866528673064e-01
      2.8925818390143287e-01 8.4571035114443763e-02
      -6.8954698305035084e-03 8.1281361924654322e-02
      9.3731829278427770e-02 -9.0177234150500871e-02
      4.5857571125741951e-02 5.1175842495738599e-01
      1.9083424813214270e-01 -3.8351118723522551e-02
      9.7045785078773761e-02 -4.5893017438894301e-01
      -5.7901381092396165e-01 -3.3985833459315565e-02
      -4.2016373090261949e-01 5.7231016625771880e-01
      -4.9726474517619790e-01 -3.4961409979506608e-01
      2.5233420022095654e-01 4.0299235177735360e-01
      -1.6057168729664539e-01 3.3627470339031185e-02
      -2.4359401312153689e-01 3.5193763166739271e-02
      3.9471451540306185e-01 -2.0246994725131845e-01
      7.2602965450746732e-03 7.7372477506671045e-01
      2.8862953295454508e-02 9.6938937637105899e-02
      1.5759043151840447e-02 -7.7683175111189023e-02
      -2.8538030411138279e-02 3.0124537850644495e-01
      1.3415580992114887e-01 4.1826250213286464e-01
      4.4018033347381205e-02 1.6395832382315328e-01
      1.8392997386273566e-02 1.3214809810806810e-01
      -3.8719305758554723e-01 5.3822207717539639e-01
      -3.2770740382570224e-01 -1.9654950387041670e-01
      -4.2269527373014965e-01 4.0108094201347594e-01
      -4.5509146043341990e-02 -6.0794026046923733e-01
      6.0981239798687727e-02 1.7885970146813812e-02
      1.7431210861776427e-02 1.5177282918463109e-01
      -8.9241959148197811e-02 7.5611647904461871e-02
      3.1569556128824483e-01 1.4370477704298812e-01
      3.3031234785010860e-01 3.5793346219388922e-01
      -4.3362705648320921e-01 -7.2501731754382293e-02
      -8.8706776515788233e-02 5.6988147767705721e-02
      5.4047431997627104e-01 4.4617212610447744e-03
      -3.2516242240576837e-01 2.8143389031373400e-01
      3.4969735712306071e-01 2.4277766910638923e-01
      -1.7227440137809746e-01 4.4307510923270559e-02
      -3.5095568440035024e-01 1.5405343344800040e-01
      1.0772819855698156e-01 -2.6771131509542279e-01
      -2.0698087173380383e-01 4.6172533211711525e-01
      -9.0920106813518098e-01 2.2887505846051970e-01
      1.0115529661531443e-01 3.2341861699681268e-01
      -2.5628876573108389e-01 -2.2286627512384583e-02
      1.4014300185832136e+00 3.5545753701632538e-01
      8.8118496176476546e-02 7.7097361922687596e-02
      -3.4970819769215072e-01 -3.6658110587800286e-01
      4.8443985029407277e-01 2.8715802698492238e-01
      8.4651150465321667e-01 3.1133198218419761e-01
      1.2237944316290905e+00 -2.2401655070024817e-01
      5.1291002977108480e-01 -7.2426879407177527e-02
      -1.0108570458108084e+00 2.1403500669247347e-01
      1.0283881480389914e+00 -1.9547152130680350e-02
      -1.2871077538101899e-01 1.2155436893774095e-02
      -1.9841905184668565e-01 1.6009225400679242e-01
      -3.3184671889499168e-01 -6.6506909677092563e-01
      2.7679686656555264e-01 -5.8323903006685773e-01
      2.4190548159568562e-01 2.1934331380128116e-01
      -1.8482934494597927e-01 -1.7358583911726047e-01
      -5.3425319964170748e-01 -1.7339214397024957e-01
      3.2100882711475508e-02 3.3546949587975189e-01
      -6.1679634012061918e-02 1.5238445709691678e-01
      4.4094646150474419e-02 -7.7508973113541532e-02
      -4.2250396044360256e-01 -3.3052740322268992e-01
      -3.5363124412041758e-01 3.8313494986987412e-01
      3.8650406199483489e-01 3.6561175305416568e-02
      4.1661677161750188e-01 -3.0893153076953561e-01
      -1.7116410490451775e-01 9.1171199219262289e-01
      -5.8458656240861595e-01 -8.8346270414587175e-02
      -2.6147512691486913e-01 5.2101733039124054e-01
      -2.5163618687410377e-01 2.7898116729220607e-01
      -1.4107789148021649e-01 1.1605316428256263e-01
      -5.0488876397243254e-02 6.2507334275573678e-01
      -9.2071107587762602e-01 4.8339723318045458e-01
      1.4636086586143092e-02 2.9923835807050264e-01
      -4.3255365832120268e-01 3.5832473642176405e-01
      1.2991557403870235e-01 9.4246563168995889e-01
      1.5534346842844293e-01 5.8617120358637953e-01
      -1.7314745929648262e-01 -2.8107143830154471e-02
      4.3955108274336532e-02 1.3107042920814313e-01
      1.4756099759841821e-02 -2.9990603509790970e-01
      4.3264161373338002e-02 -1.8361362740167458e-01
      1.9778379845897229e-01 -5.6878135863701884e-02
      -3.1752935903423868e-01 -8.9613985107670508e-03
      3.5400376793867254e-02 -2.6952063910469704e-01
      5.2264807560772208e-01 6.9142278207660265e-02
      2.1241240842454817e-01 -2.4999993971210284e-02
      -5.2971270784299029e-01 -1.7095943254175977e-01
      2.7178944783590198e-01 3.3378515523764851e-01
      -8.9737474672495862e-02 -5.7514919968591170e-02
      3.2697916112174874e-01 3.2535996923176685e-01
      5.2505247481677939e-02 -2.3875960027442530e-01
      2.6935915416440394e-02 -6.9384830949406373e-01
      -3.4275015837412182e-01 -1.4014160188614883e-01
      -1.4467395026591537e-01 1.5320082886037531e-01
      2.3580087684868295e-01 -1.4917961929010284e-01
      1.4502019057058191e-01 7.4930119287827601e-01
      -8.0287428747967696e-02 -9.1214563815139027e-01
      4.8296146337160023e-01 4.6129624548027236e-02
      2.1765213464539901e-01 1.6733304091989612e-01
      -3.3284371893224818e-01 3.1786737949676214e-01
      -2.9435126443295279e-01 3.1541904378818170e-01
      3.3794360108296384e-01 -6.2134771979788439e-01
      -3.4386569551554080e-01 1.8405033140110935e-01
      -8.1362122135233972e-01 3.0917616463591219e-02
      -1.6756022055391595e-01 -1.3564736917674322e-01
      1.2590843176382899e-01 -1.0957775430780270e-02
      1.6429680662991328e-01 8.7726373522767775e-01
      1.0989941591963495e-01 6.9566085931239119e-01
      6.4242801207095260e-02 3.4645009120175102e-01
      5.7967337198484836e-01 -3.2819256392925183e-01
      -2.5869623185626578e-01 2.1628418101631094e-01
      -3.0044626252525602e-01 2.7967581300861399e-01
      4.2715763851767469e-01 9.8051430357308331e-02
      -2.5474581224026344e-01 -2.7938622816444802e-01
      -2.6178196298617551e-01 -1.2155445003901802e-01
      -4.5341887002424981e-02 -2.4301293941279941e-02
      2.6111733454441516e-01 7.2337851404085962e-01
      -2.4303897228000626e-01 -8.4727035710670057e-02
      6.2503723511410795e-03 4.1973841598912487e-01
      -3.2875588807575795e-02 3.1304423882385102e-01
      -1.0356307146479060e-01 2.4519502847437236e-01
      -2.9294269747760903e-02 1.3342520319853829e-01
      1.5680672705052554e-01 -1.1212277071115617e-01
      6.5932583481136762e-03 -1.1185177324994183e-01
      -5.0776343912477739e-01 2.2423584496627502e-01
      -9.9356651154621695e-02 -2.9654171028571708e-01
      -7.7314605906218956e-02 -2.9870825140799490e-01
      -1.1312753218893551e-02 1.1670334301751878e-01
      5.9237192233179671e-02 4.3947776328807642e-01
      -3.7250755901780713e-01 -9.4735083636480907e-02
      -6.2242798282228333e-03 5.6155714683779456e-01
      9.5006714655652594e-02 5.0011146806766688e-02
      -1.1466664440890700e-01 1.5428287553009595e-01
      -1.5350962468549864e-01 -4.4033118859809123e-01
      -5.6478310307677659e-01 8.3286061864152702e-02
      9.3813403957315897e-02 3.0363339170847964e-01
      1.3801820548805863e-01 1.4521143180553731e-01
      -3.8221582849281371e-01 4.9077700629888317e-02
      1.3549463489521946e-01 9.3904558374851765e-01
      8.0071555423123150e-03 4.6226463806992274e-02
      -6.4123347731236746e-01 6.7276791923079826e-01
      -3.5042826614175726e-01 4.6686602684442474e-01
      2.6583597905114477e-02 -2.3515782598849655e-01
      1.4288219257146509e-01 5.6090218721368135e-01
      -3.3011402237413928e-01 -1.0287752276403352e-01
      -8.7537056844027614e-02 3.9883710303009962e-01
      -1.4977409807517117e-01 -2.5317521281521349e-01
      5.0648817709917604e-01 2.7375198022741953e-01
      3.6560048136747714e-01 2.1765460004902057e-01
      -4.3015092787775078e-01 8.9525093899427196e-03
      3.2262669601276156e-01 -1.4093478845200215e-02
      2.3615345613585709e-02 3.3489807015787537e-01
      -3.1608805865880352e-01 1.1042069303604884e+00
      5.2576409291067372e-01 2.3358012113630530e-01
      -5.7565329157177429e-02 -6.0316047213263435e-01
      2.8717469870305479e-01 -1.9609553282331729e-01
      2.9252614902104665e-02 1.2093474098604149e+00
      6.7880591264672399e-02 3.3197140681161941e-01
      1.6746826666944412e-01 2.2834195595499163e-01
      6.3321292705909549e-01 -1.8071443656390176e-01
      5.0462795762074679e-02 1.4025796191329384e-01
      1.8818847462692301e-01 -2.9132799599588566e-01
      -2.8063553791779483e-01 -3.1589256191956544e-01
      -1.6856766376105708e-01 -3.5932197713330216e-01
      2.5202053488668602e-01 5.3155388490777389e-01
      -2.8356202669331781e-01 -1.3215098217210497e+00
      -6.1949411699595591e-01 -6.3770231685858125e-01
      6.6166253805817798e-01 -6.3414149463991029e-02
      4.2328590062966930e-02 -1.6544233349365897e-01
      -9.8993928923584329e-02 -2.9176108894396141e-01
      -1.7376829305846928e-01 -3.4671653367164057e-01
      7.0740979127537421e-02 1.3152550776258221e-01
      -9.3790520067679894e-01 2.1566577224404089e-02
      1.5445279633985207e-01 6.5602707892313594e-02
      7.8561964563180538e-03 -6.3111844255888783e-02
      -6.5264862782232991e-05 6.7877249591204614e-01
      3.9514811394677121e-02 -8.2824751498604438e-02
      -1.0217149110734980e-01 -1.5485465711922061e-01
      3.5726878982629695e-01 -1.0091031351255030e-01
      5.3605683753767019e-01 -4.4256765743503035e-01
      1.3030313727511061e-01 1.5680377912462334e-01
      -3.1995943903217683e-01 3.0831099699888836e-01
      3.8418882288344980e-01 1.6347508419727924e-01
      4.0178649534942257e-01 6.8765167451443299e-01
      6.1968956978530598e-01 3.3133351809156575e-01
      -7.3352610751514460e-02 -1.7816520028762461e-01
      2.6006199983424610e-01 -4.9248252116408359e-01
      4.4315117805296311e-01 -3.1890553278708467e-01
      3.2251463141677011e-01 -1.3080982466735760e-01
      -4.0165651394143681e-01 -2.2491121988389870e-01
      6.8886152955614777e-01 -3.8886972009531556e-01
      -3.2428909136987449e-01 -6.8526115126597675e-01
      -5.3060374209404459e-01 7.1483363301459060e-02
      -3.5323336294889054e-02 -5.6960177293671733e-02
      -1.0656514966644466e-02 2.0390000472065187e-02
      -7.4757891595284121e-02 3.1633983135193722e-01
      3.8529313823603017e-01 2.1050130010715769e-02
      8.9954010033831286e-02 -2.6195606140196764e-01
      -1.2782836267210056e+00 -6.9376787713115240e-01
      6.0820031859291593e-02 4.6595407987800097e-01
      2.2896451672244036e-01 3.9850787865931275e-01
      -5.4062434945711368e-01 -2.2451002773456449e-01
      1.4416143782526555e-01 -4.3623189905087040e-01
      -7.7867642372146634e-02 6.7563540189562218e-02
      8.5524234923133602e-02 1.9575277990473364e-01
      1.9286054722695845e-01 2.9123320519457063e-01
      -1.7602536676840480e-01 5.8285529708628792e-01
      5.3610279843017217e-01 7.6975477676499093e-01
      1.3806790360120366e-01 4.0986067384743785e-01
      -5.0030717758015625e-02 8.3779974178758865e-01
      -1.7789031429055602e-01 4.8515613897643445e-02
      1.2968129172060772e-01 4.3931835985724491e-02
      1.4034915538391038e-01 4.9285589054923712e-01
      -1.6157473865298039e-01 -4.5687895850048357e-02
      1.0709645977601043e+00 4.6660457213619522e-01
      -6.6418857214415095e-02 8.2001182893612315e-02
      5.3962826309192324e-01 7.8941221388335911e-02
      -5.5012495325555621e-01 -7.8505435206291621e-02
      -4.2233904308381454e-01 -3.1670289696184149e-02
      1.1275794879703342e-01 -1.3018822535311450e-01
      -8.8901980612971876e-01 1.3463056413184293e-01
      -5.4096569849775500e-01 1.3569259200053407e-01
      4.1387866842999832e-01 5.1281406328199308e-03
      2.2118153663372803e-01 3.3923535478505823e-01
      -3.0165675188420082e-01 -5.9134949343227668e-02
      -1.9539640219554286e-01 4.5350069318764941e-01
      2.8775161232684787e-01 4.8525869124061960e-01
      3.7701633096062681e-01 -1.1265399752455982e-02
      2.9560737860073993e-01 -3.1730456963046411e-01
      1.2554705008740200e-01 -8.0475415512903370e-01
      -1.1339491033871650e-01 -4.0284838593395478e-01
      4.4331457315946571e-01 -8.5245629630823117e-01
      4.1123774036747635e-01 -3.1748999250733256e-01
      -1.7415316466517650e-01 4.4664353383949938e-02
      -8.0007933815456633e-01 -3.7340908945947887e-01
      -3.1432585960173348e-01 -4.3976213379327764e-02
      -6.8274917801863599e-01 4.8775164634895923e-01
      2.3344522341214757e-01 1.8480786024672674e-01
      7.3371165998688662e-02 -4.8898595773794429e-01
      -3.5823097382865466e-03 1.2860896221228382e-01
      1.3174364125568783e-01 -4.3365694604242194e-01
      1.6191351961406913e-01 5.3348474619259434e-01
      -8.3575442020283619e-01 -3.3936912525189156e-01
      -2.0408618356405180e-02 2.3289199313065412e-01
      1.5064982722635165e-01 7.7791175019356384e-01
      -1.2995834942653800e-01 8.9429228876057074e-02
      -1.5455369695672905e-01 -3.9110498818966999e-01
      -2.8517249374801257e-01 -2.8689533513095872e-01
      4.0503286714969722e-02 5.0793936653577731e-01
      -3.9398457462333769e-01 2.9358935289590521e-01
      -1.1868425574663612e+00 3.3069149385868912e-02
      1.3374916632185485e+00 8.6274590459173428e-01
      -1.5207975324770091e+00 -3.6787228776382852e-02
      4.0136631875276657e-01 -1.4249177575902802e-01
      2.3741487542632927e-01 -2.9415564710690434e-01
      -5.1045115671860808e-01 1.7964510558579860e-01
      -6.9451468716373244e-01 -3.3566700940378935e-01
      8.2738662605228330e-01 -6.5331632917025473e-01
      -3.8824866838600630e-01 2.4962678218889453e-01
      3.6003914533182779e-01 5.5457502112586643e-01
      -6.1074096163535563e-01 1.6632603122110765e-01
      -1.2432093933703466e-01 1.0108930704742733e-02
      2.3490104702536313e-01 -8.3005296354520974e-01
      -3.3780003909415685e-01 1.1293767483373447e+00
      4.5833987850873142e-01 4.6723648235768550e-01
      -1.9680848885706273e-01 3.6011849198126150e-01
      -6.2411629462110652e-01 -8.2583973695303861e-02
      3.9379160303349103e-01 3.3854269922696717e-02
      2.0350304855592932e-01 -2.4836396476661118e-01
      -8.9148027513069095e-01 -6.2205822981343939e-01
      5.8417249720584741e-01 -3.3198097716090408e-01
      -1.8237986933485439e-01 2.6727594233107787e-02
      -1.8364354901584051e-01 8.7448602247846591e-02
      3.0450068390829138e-01 5.1877623902537084e-01
      2.9287679914560397e-02 -1.6428236126465077e-02
      -3.1579526442533995e-01 -6.6464648198965665e-02
      -5.2707083070279981e-01 3.4429992996991815e-01
      2.2063322794628851e-01 5.8676261263530996e-02
      -7.4368305569557269e-01 3.7194860080436271e-01
      -2.2672592148149334e-01 -2.0156349974582422e-02
      6.5062081483259548e-01 3.5097866746332440e-01
      2.4131453738947869e-01 -1.7367565015112552e-01
      -4.3097780671148772e-01 -8.2359740864732384e-02
      1.9092692871893371e-01 2.8204225390044346e-01
      -8.8801324300104595e-02 -3.2038443214975521e-01
      1.2416391098745873e-01 -3.5219001220103102e-01
      8.6610929864163674e-02 3.0523320819440941e-01
      -5.4090195947076362e-02 -6.1354454500171773e-01
      -3.4827863995047198e-01 3.6037810954235228e-01
      5.4702450282406367e-01 -7.7489229209623611e-01
      -4.7913124787575684e-01 1.9263952998698081e-01
      -1.1866582730343962e-01 2.9245729952017374e-01
      3.0409831431200612e-01 2.8289830302208557e-01
      -5.2079221467577530e-01 -4.6232886984120281e-01
      1.0472154806383377e-01 -2.2894307330449168e-01
      -3.8911240188039581e-01 9.1186546375894384e-01
      -1.2885589288978290e+00 -1.1649413241258200e-01
      -6.6934240978944703e-01 -2.4042418517639935e-01
      2.8069832582983380e-02 6.2642936376285568e-02
      2.7072293104957505e-02 3.0132815576513433e-01
      -8.2289189086264825e-01 2.8128189754247152e-01
      -4.4377547256126088e-01 -3.2758451462395660e-01
      7.3365192786024602e-01 -3.6038150586996348e-01
      -8.7873706653493949e-02 5.6276295025447121e-02
      3.6447984976889686e-01 -3.9102535991406548e-02
      8.4088982470791288e-02 -3.6148483870928033e-01
      6.5685031381676015e-02 4.5641207772110215e-01
      -1.4629158686685359e-01 6.6716099132433079e-02
      -1.7110088744213192e-01 2.1376032343840332e-01
      2.6241673950545197e-01 4.2475456959095681e-01
      -4.9416516324285570e-01 -6.6813898307624242e-01
      5.8571786411976072e-02 7.9814166742159590e-02
      -1.4984615568520918e-01 2.7715296759854735e-01
      1.3471265347376532e-01 1.3358633957036724e-02
      6.3895247624135093e-02 -7.7219153191766060e-02
      2.6827077084795342e-01 -4.1072922806672317e-02
      -4.1795152288976450e-01 -5.6753833282933164e-01
      2.5604690943139985e-01 -3.9300715739071324e-01
      1.5968509196653197e-01 1.6874871633505384e-01
      3.2935718239754697e-01 1.0461511511354527e-01
      -1.9871025260264813e-01 6.4382664790152477e-01
      -3.5398653045357525e-02 -6.9504209584365137e-02
      -3.0747126213799514e-01 2.6015259907739130e-01
      2.5320029553065358e-02 -1.8340979988911291e-01
      -8.0924065206139970e-02 1.6520756777063375e-01
      -2.3422344483509799e-01 6.6551592750419908e-03
      -1.5503939412271872e-01 8.8808223683286992e-03
      -1.7359614016941796e-01 6.4978859337290129e-01
      -2.0319356372602915e-01 -4.0996357255385987e-02
      7.8623448350605793e-02 3.0348310585335198e-01
      -5.7067795102913155e-02 6.9174374544724904e-01
      -2.6521971808304146e-01 1.1107716751269309e-01
      -1.2615202824749924e-01 2.5474819935374360e-01
      -6.3114186497813626e-02 -8.1606241572624205e-01
      8.2589138178765897e-02 -2.5008441835506395e-01
      2.8703664653384725e-01 7.7180913502327211e-02
      -2.3640317170554953e-01 1.5539184159597231e-02
      -1.6999431179564584e-01 4.2916057429111060e-02
      -1.0125865978194452e-01 3.5936655410343249e-01
      9.5993583476611721e-01 3.8760911993988256e-01
      7.2744324387485383e-03 4.5396125464963250e-01
      1.7140990378187868e-01 2.2432407086746645e-01
      2.0314487393404540e-01 -2.5142610097888679e-01
      6.9402530107800608e-01 2.6954451600888185e-01
      -2.5156385159244571e-01 5.4148119426452000e-02
      5.4730898196680766e-01 -5.6969342675943102e-01
      -1.2580572081811011e-02 -1.2011931468730301e-01
      2.2676523858403214e-01 1.7446838088926744e-02
      -6.4802248075937626e-04 -1.7988259319235686e-01
      3.9236701647434991e-01 3.4046017569519510e-01
      -1.3060531965211664e-01 7.5391701195170990e-01
      -2.9750027799048850e-01 -1.3531901769525201e-01
      -4.6413821445810866e-01 -2.3946557315940170e-01
      -8.5047473998979814e-02 4.6158902611445879e-01
      1.9840295949981929e-01 -1.7696631203315036e-01
      -5.1238372013803057e-01 7.6320109331537811e-01
      -6.0427560069132691e-01 2.9602903534532349e-01
      -5.3175714385093675e-01 -3.1995470326046316e-01
      -2.6316972171710701e-01 -4.6504130805239396e-01
      -1.7318486424753615e-01 -3.9752630298243741e-01
      1.4004925801483956e-01 -5.2491012128912429e-01
      3.6865753770033538e-01 -1.7963460221519970e-01
      2.4338712462036685e-01 2.1004373436281063e+00
      1.7738970667935808e-01 -3.4086926931703215e-01
      6.1266564879494445e-01 5.7077555472734420e-01
      -1.2691105878714809e-01 1.7916011967762178e-02
      1.0100893624341076e-01 -1.6753804823276531e-02
      2.3012523752809025e-01 2.2195544456804725e-01
      6.3418675260201429e-01 4.6247099904631384e-01
      -3.6339038945580514e-02 -9.3518525542830655e-01
      -3.1128812145702900e-01 1.0398967628816012e+00
      9.5460665192045643e-02 4.0414341311211122e-01
      3.4420180347880708e-01 1.0886633113683032e-01
      1.1465147301015823e-01 -6.4340448996155750e-02
      2.1655122156800269e-01 1.9507937193785527e-01
      5.8823226341212682e-02 6.9028497159479008e-02
      -1.1642737996289776e-01 -4.7208049250865741e-01
      4.1883857876024988e-01 -3.4639251270160071e-01
      -4.2308614956698437e-01 -4.1566172677698632e-01
      7.6488590734487194e-03 4.5876433074092143e-01
      2.5850261037365546e-01 5.0016393775478805e-02
      6.0670971291880138e-01 6.8583991746554573e-01
      -2.5180879641124093e-01 -1.5578134795725007e-01
      1.3138598829764683e-01 1.4243744934951108e-01
      3.4409920481875744e-01 -1.1271851773985864e-01
      -1.8990218052836641e-01 -7.3855921793366419e-02
      7.7987579973211651e-01 4.0256376100335062e-01
      3.7590160020600549e-01 5.3995096580380697e-01
      -1.7929088999338036e+00 -3.6521113579268856e-02
      1.3691567746741876e-01 1.9995675735792359e-02
      -1.8575434230108176e-01 -8.3468186192758032e-02
      2.4191791361824649e-01 -4.1901186303473043e-01
      -3.1390266635468689e-01 2.0303863210635673e-01
      2.2931268698402066e-01 -2.0040680999776797e-01
      -4.8223005136367880e-01 8.2522157436132371e-01
      8.5483524829163146e-02 -3.8485579056356367e-01
      -1.5800161811035973e-01 1.6716428300020156e-01
      -2.8122428423320578e-01 -1.2212927243082301e-01
      -5.2181132098790717e-01 4.0906576486756491e-01
      3.6169207757672600e-02 -3.4261198144734356e-02
      -2.9334088883953041e-03 1.2178903895588393e-01
      -1.2629125074134018e-01 -6.0318896192924421e-01
      -2.4749682822280733e-01 1.6722813030504153e+00
      9.6086141605365916e-01 5.0755976129854352e-01
      5.5368667546040640e-01 2.9602584668247350e-01
      8.1026292791526444e-01 -1.0513555824928414e-01
      -2.4615166456998552e-01 -4.5344090969540818e-01
      3.2855549245022209e-01 -2.9629321067344511e-01
      2.8881774717901740e-02 -3.0215152293318476e-01
      5.4153833682808095e-01 -4.2137746168756202e-01
      4.0870724817010617e-01 2.3056023337879614e-01
      -4.3503120072234541e-01 -2.5487517389048869e-01
      9.3481286347617439e-03 4.9709820022462825e-01
      -2.0118848643246892e-01 3.2093040249924182e-01
      -4.5361469216383621e-01 -4.7189221406099033e-02
      -4.0976971890073899e-01 4.7780532227530897e-01
      1.6926064124863996e-01 -4.8308173620823308e-01
      -1.6820241779313672e-01 -9.8496640030450833e-01
      1.2116019742117788e-01 3.9701232824641797e-01
      4.8783368259629756e-01 2.0931867185067823e-01
      -2.9915166725169602e+00 7.4566588687947841e-02
      -1.5010728142183866e-01 -5.7257807845991171e-01
      2.0628199544199188e-01 -3.7466029711498050e-01
      -5.5135127326048272e-01 -2.7989209010580801e-01
      -5.5049329600702979e-01 4.2211562996227575e-01
      -3.4863039860598111e-01 2.9634552893451027e-01
      -8.8225431115653730e-01 3.3039162578929115e-01
      -2.8789688820114184e-01 -3.1885345798115211e-01
      2.1899747257149413e-01 -2.2634247072917751e-02
      1.0803219901247596e-01 3.4480584213118975e-01
      1.3837958402479327e+00 1.2356466254831844e-01
      1.4029678243158403e-01 -1.4091026301634790e-01
      7.8126329155400152e-03 -3.5967260725651584e-01
      5.1363209175875904e-02 -1.5138052463405294e-01
      -1.3897849475841512e-01 1.0621473150515734e+00
      -9.5317177708286113e-02 -3.6468639650866091e-01
      5.2578724944357280e-01 3.1052539601872337e-01
      -5.8610680898029061e-04 2.0423680190436413e-01
      -5.2322455541804169e-01 7.4116518331851267e-01
      1.1176129395116495e-01 3.6618605641954916e-01
      -7.8428830513679645e-02 -1.1738238886615711e-01
      2.3883756299196848e+00 -1.3998342859026286e-01
      -4.4473746445659923e-01 7.5710405421239954e-02
      -2.3912196673689362e-01 7.3456101438878740e-01
      1.5206633017240712e-01 1.4091697084332963e-01
      2.6102595491419127e-02 7.7097545002213297e-01
      1.3099828575921266e-01 1.4795249613225611e-01
      -1.5114736777781466e+00 8.5281151908529321e-02
      1.1306909530719184e-01 -3.5777866730030167e-01
      -3.1197128884183589e-01 4.0805964695326380e-01
      8.5817886646604835e-01 7.9925990288355564e-01
      1.0935265714673395e-01 6.9165900276409642e-01
      5.9391731461051112e-01 5.8511206961721052e-01
      -1.8522843212914292e-01 -4.5082281556780146e-01
      2.6775630202165018e-01 1.5754193268471697e-01
      -5.0306644267319733e-01 -6.7271421791666419e-01
      -1.1586484491335164e-01 3.0675918267623575e-01
      -1.7713050998983673e-01 5.0338501362036980e-01
      -9.8355736971611774e-01 2.1841844770176472e-01
      2.7613881597992457e-01 -3.7134555909345210e-02
      -6.8383278336946562e-01 -2.6871998615219002e-02
      5.6339407867723457e-01 3.1358215791660088e-01
      2.3106859949750783e-01 5.5868665789594998e-02
      -8.2534928567711274e-02 -7.2872201749281340e-01
      2.6144049517542393e-02 -5.0599459861208373e-01
      -4.4202536932267922e-01 -1.9276198135521938e-01
      -1.1206014819688320e-01 2.6639272388396290e-01
      6.6201463986199294e-01 8.3618697994011004e-02
      4.9539720179592267e-02 -7.2041165050381262e-01
      4.4674391799676305e-02 6.8968327334387056e-02
      -4.4824216704143749e-01 6.7211032090889161e-02
      7.7926839196555608e-01 1.0772764295130455e-01
      -1.9562613486728331e-01 -3.8935171180456335e-01
      -2.9131298705314518e-01 6.4202719277324971e-01
      1.0818492660525956e+00 -6.8288473336152913e-02
      6.2541799675250609e-01 1.9613560678150754e-01
      3.1709995296759397e-01 -6.4573954468749672e-01
      1.2681789660746837e-01 6.2327347325018612e-01
      6.2199687663792591e-01 -5.7376060035791798e-01
      -3.8248011403325177e-01 1.5694732768301439e-01
      -6.4322456708822806e-01 -8.8152271247173575e-01
      3.5794844118947916e-01 3.5465098573785792e-01
      7.2487369902212806e-01 3.9477891778931939e-01
      9.1222844657215793e-02 7.1487173418388372e-01
      1.6228462508569825e+00 7.1863527032061045e-02
      1.2503136285047865e-02 5.9110955405484644e-01
      2.7771952968526908e-01 -2.8160267819715989e-01
      3.2210450715283190e-01 5.9452330233179651e-01
      -7.4885925018808686e-01 3.1288871366440568e-01
      -5.5749021135645926e-01 -4.0473551686964604e-01
      -9.6929987753283120e-01 -1.0532062730653564e-01
      8.5478782110536167e-01 -4.0335522131727926e-02
      -4.4373283326463314e-01 -6.4463552995547624e-02
      -5.3507469069051838e-01 6.0959839313940181e-02
      -8.1600684759582764e-01 -2.0272155180085960e-01
      -6.8203368674658371e-01 -3.1640343986115696e-03
      -1.6202723176233269e-01 1.7816010443793298e-01
      3.1596465940829105e-01 -1.7795528288325024e-01
      -1.7716289877529223e-01 3.1256728274741774e-01
      2.0451399407142839e-02 -1.6923852820370838e-01
      -5.6805239869692323e-04 -4.5069867462840263e-01
      5.9674341769814832e-01 -1.4714120549225343e-01
      -2.2116662719300317e-01 4.3721858709207617e-01
      3.4211092089168157e-02 2.2149902584316947e-01
      7.6402784259871459e-02 2.6505314732332885e-01
      -4.4265266564112898e-01 5.1597029571836395e-01
      6.9135826631402375e-01 -5.7079413413573157e-02
      2.1115344741921596e-01 1.5102586291402706e-01
      -2.1058159334204749e+00 1.3651848175013098e-01
      2.8542522142150822e-01 4.5079950147880066e-01
      2.0924955309373675e-01 1.7167662747214474e-01
      6.4379058337497286e-01 -3.7862977794254937e-01
      -1.3351908769798377e+00 -6.3737959840537284e-01
      9.3193598275096856e-01 1.1521084244827781e-01
      -1.0497572372762404e-01 -4.7028989280440692e-02
      -1.3268216511011371e-01 1.3538848079690488e-01
      -4.0748260392008177e-02 -1.7982648270229973e-01
      2.1157767889920881e-01 -7.1538809459962205e-01
      -7.5767705684296846e-02 -2.1927616789190477e-02
      -1.8933062296313222e-01 6.1336678772164899e-01
      -7.7979164553468194e-01 -1.1758248580336066e-01
      1.8884026656526873e-01 -4.4878889590901583e-01
      9.0696643939793559e-03 2.7886510662497532e-01
      -6.7606674427682967e-01 -1.3509343472904692e-01
      -4.4298150206848247e-01 -2.9509938761457920e-03
      -1.0990567015851367e+00 -2.1370093284728331e-01
      -2.4812834318537000e-01 7.1224355457892019e-02
      1.7102009465561410e-01 -6.9917814063653272e-02
      5.0738915010680252e-01 -6.4722924613625325e-03
      -1.6519899209637881e-01 3.5573736870673239e-01
      -1.4747506393828649e-01 -5.8415942986973235e-01
      1.7252544910246304e-01 -2.8867682099697471e-02
      1.6344440006351316e-01 -1.1111876477259887e-01
      8.6769630295068656e-01 -2.8784354635972642e-01
      -1.4323497952442930e+00 1.0568307595356846e-01
      -1.9902187590108850e-01 4.6268867950649917e-01
      5.1615574000923903e-01 1.9904047334814998e-01
      -1.9915980475881190e-01 1.8101220217200442e+00
      1.9592255793596697e-01 -4.8615446000591411e-01
      6.1958081188185056e-02 -1.8199787833975190e-01
      -5.1863936554293932e-01 4.1389458444190674e-01
      1.3041803629073048e-01 1.0905940605448627e+00
      3.4176596067986731e-01 -1.3242368872884891e-01
      -4.5134193806378364e-01 -1.0883288191574070e+00
      -9.1849281957907392e-01 -2.5038490188379015e-01
      4.2786256829126629e-01 1.7075443008469668e-01
      -1.8883499325373226e-01 -5.4519318845242926e-01
      3.0815740439367312e-01 9.6100622345616074e-02
      4.4132100272462244e-01 -7.7761355660278447e-02
      1.9882928370854655e-01 -7.6672741358636443e-01
      1.2257218993292132e+00 -2.6683806353710854e-01
      -2.2266742745398744e+00 3.8840201980441241e-01
      -5.9161965841815567e-01 2.8416429628314869e-02
      -8.6645856178155367e-01 -2.3623345770118850e-01
      -8.8545778496516864e-03 1.1982859290088461e+00
      2.8420983170409475e-01 -4.7801854293973650e-01
      -4.6184230265371123e-01 -4.7599450003914101e-01
      -8.5364681244501606e-01 -4.0816176408410776e-01
      -1.1136468381099582e-01 -1.1667603506360542e-01
      -1.4466105990198097e-01 -5.0800241902238440e-02
      1.6375124134314673e-01 1.7464967587006550e-01
      -5.2785473606382874e-02 3.4680074992902037e-03
      7.2442204809025676e-02 2.5456345824726589e-01
      1.1176573372025651e+00 3.4445455157464028e-02
      2.9449270413916062e-01 -1.4454092355083600e-01
      7.6497808333483175e-01 3.5446176870266954e-03
      -4.4572566451077150e-01 2.4788428135773838e-01
      -4.0799142084423493e-02 3.3364578605399081e-01
      4.3646972400291216e-02 4.9274092567100969e-02
      -3.6207752836161228e-01 4.7966449374423398e-01
      -2.2171748230680885e-01 4.6151246618060776e-02
      3.4188416775813485e-01 -5.5864966295009720e-02
      -1.0901394888158387e+00 -2.0795673585998421e-02
      -2.0977089133343355e-02 5.9053829779981115e-01
      2.3808471353816632e-01 -1.2570749072758164e-01
      6.9498412964580347e-01 -8.5962133900045556e-01
      -1.3025841082973748e+00 -3.6915142682651014e-01
      7.3245825841151502e-01 -1.8979706862899806e-02
      2.9437032065355656e-01 5.7258089084474528e-01
      -4.5432741349168165e-01 3.3652855352776628e-01
      4.4247130347212610e-01 5.3251448210438812e-02
      -5.2560484540671963e-02 -1.2897691758216503e-01
      7.6527073899374998e-01 -1.3740042061662031e-01
      -1.0726291043642844e+00 4.2694530724493190e-01
      -1.4805883253861193e-01 7.8741100197940103e-03
      -6.4597456966633326e-01 -4.0103812663215516e-01
      3.9125429073672296e-01 6.5859841854733081e-01
      -8.0418468446090449e-02 2.4127119469242303e-01
      2.9570996353050855e-01 2.9972895516492690e-03
      1.6347366023973617e-01 -3.7183689979364005e-02
      -3.3548108712688812e-01 -2.0278754140885222e-01
      4.8414919414340363e-01 2.9473524526649426e-02
      9.5454710229245820e-01 3.1661067538482407e-01
      4.8745606316377826e-01 -1.3601961250821148e+00
      -5.8825230952342189e-01 3.3760727387907324e-01
      2.0132015756880139e-01 -1.7167693914220919e-01
      -1.3087408423222713e-01 -2.5682739274804356e-01
      1.2163835861104919e-01 3.1992108341933478e-01
      -8.1828452554310982e-02 -7.4933090959421156e-01
      -2.6966362607187788e-01 4.7790786917272579e-03
      -1.2578103152590747e-01 -8.5716857245704645e-02
      5.5717281680088948e-01 -1.3243905849067961e+00
      -2.8873338317921404e-01 -3.3286430767839087e-01
      -2.6066923830095584e-01 1.0701378597263354e-01
      2.2885850810121258e-01 -4.3991560542328589e-01
      6.3638086732630750e-01 8.3776559445375631e-01
      -1.3483847951246977e-01 -1.1766881442314872e-01
      -1.9505827645035148e-01 1.9625820915307834e-01
      -9.3283976745993535e-02 2.3308788921360865e-01
      -2.4755174125981258e-02 -9.2242223686891903e-02
      4.1579305835503350e-01 -1.7446514652578158e+00
      7.8528578358643492e-02 6.7071571730099255e-01
      -8.2564397921452037e-02 -3.6179119115549696e-01
      -1.2993326776917152e-01 -5.1117021766011761e-01
      -3.7320201252192947e-01 1.0965307133786788e-01
      -4.9992822408835874e-01 -1.2296775286321802e+00
      -3.1056950812992673e-01 1.7228028902511065e-02
      1.5881684050658845e-03 -8.5253631154575793e-02
      3.5835302013216735e-01 1.0370489699606245e-01
      5.4474610963523434e-03 2.4020680179752402e-01
      2.1432052882689165e-01 3.8073757904177624e-01
      5.7836119980577305e-01 -2.0138824446975692e-01
      -2.7179714309832521e-02 -1.3808606871698728e-01
      4.0545159174757039e-01 1.6699405561538171e-02
      4.1752344629666743e-01 5.1420314747355167e-01
      2.3094280877682002e-01 -1.0752484102140967e+00
      3.2742505759863434e-02 4.2447504765340527e-01
      1.1990802207303532e-01 1.4723080226007210e-01
      2.3896510524244402e-01 1.4539037304807248e-01
      -1.2755078720304169e-01 2.7720848510982138e-01
      -1.8656243907353953e-01 -2.5729032983600875e-01
      -2.5676004963442554e-02 1.2228068026880934e-01
      1.4220731316159724e-01 -4.0883896863084766e-02
      7.6071765876128905e-01 -2.1163001871210138e-01
      -1.2057803221049261e+00 -2.2117247964137077e-01
      -3.0109257951993804e-02 -2.7767541178944466e-01
      -1.2058900835834029e-01 -1.0180060011091745e-01
      1.6074983736154652e-01 1.0707580607006590e+00
      -4.6909597660425018e-01 -1.4306120018159463e-01
      -2.5191219148044054e-02 -5.6676102115359506e-02
      1.1569378075808774e-01 -1.9070785684164221e-01
      -2.6882892425017169e-01 -6.9892140145583481e-01
      -1.6271004079435084e-01 -1.0214020446025675e-01
      2.7908580605556432e-01 4.0868330079655046e-01
      -1.0454564628436949e+00 -4.9769940435111772e-02
      -3.7954768507953635e-01 9.4702704919965949e-02
      3.8745259821375937e-02 -8.7665272890368739e-01
      9.6723796676756943e-02 -4.7478536089228668e-01
      -7.9514021115097769e-02 8.8264599494433293e-01
      1.0361048722538952e+00 -1.5912565553374389e-01
      -1.2683661598174885e+00 -4.0380595643246092e-01
      -7.1923793443595208e-01 -3.4797837923359526e-01
      -1.7434873301408259e-02 5.8351136136935544e-02
      3.8172236238056656e-01 -2.6060584788138902e-01
      -3.7065802834671968e-01 -5.1187809141880633e-02
      1.1557222673718499e+00 3.6907093797237728e-01
      1.3705916371646358e+00 -5.1146939596040074e-02
      -4.8249424559721205e-01 -1.6399137624720153e-01
      2.9010353916711989e-01 4.8373473122980809e-01
      1.1611649179815713e-02 2.7090741617421266e-01
      -1.0859137607617655e+00 -4.1323648852108796e-01
      2.0018511074118869e-01 -8.2254359889373097e-01
      -2.9182644666432389e-01 -8.6042096945055424e-01
      1.9129590616164341e-01 -1.1831136177704862e-01
      -2.8893095683986580e-01 -4.3985110943522671e-01
      9.3859231103218976e-01 3.2584883249725499e-01
      -6.0332528983158593e-02 -1.7649812030957512e-01
      -7.5875158954947022e-02 2.9432447871797257e-01
      1.0969472725858505e-01 -1.5527753316164059e-01
      8.5355289988623864e-02 8.6667414533769216e-01
      -5.1208477626757931e-01 -6.9571484323826815e-02
      8.6210115476864746e-01 1.0118476706292847e+00
      -3.0640220117309963e-01 -1.8395782525910365e-01
      -1.8966962014055211e-01 -8.9247850249899041e-01
      -1.1283334049699070e-01 5.0647568433061307e-01
      2.4371699212937570e-01 -2.1220567388573131e-01
      -5.9502254473192562e-01 2.9326587172308938e-01
      -1.2309581809771641e+00 -8.7365042380719926e-01
      -1.9609780709651614e+00 -2.9384775702770904e-01
      2.5018912340136301e-01 -7.6610483683789465e-01
      -1.2337543390966460e-02 8.2892427085175813e-01
      -6.4190072170743162e-01 -6.0568192550201305e-01
      -4.0006167226385203e-01 -2.4418128203407014e-01
      -3.3383765107274516e-01 -6.1110191221458687e-01
      -2.5124689719330512e-01 2.9628609542063428e-01
      3.5819129765886981e-01 -1.8878086495184740e+00
      4.5963648182600819e-02 -3.1586159690572296e-01
      -2.5555437121390157e-01 2.2102471973871224e-01
      2.7305854274537572e-01 1.5229604022124538e-01
      -1.6539708430012559e-01 -1.5517179255590477e-01
      1.2006770196085810e-01 1.3476133281975047e+00
      -3.3597933647276185e-01 6.7594607959816144e-01
      2.4130257766927447e-02 -1.3175828752874816e-01
      2.2352561270734689e-01 1.0609858868251006e-01
      -1.2703475979703189e-02 -4.3895713507132961e-01
      9.9370267414203206e-01 4.0793041047395528e-01
      8.7284556812091810e-02 -2.0397250227799604e-01
      2.4971210009312200e-01 -9.1751599486879976e-01
      3.0426229967120721e-01 -5.0510859788066587e-01
      3.0387143882334787e-02 -2.0570808024023912e-01
      7.8716857574108379e-01 -3.0632790264961057e-01
      2.7000892881300326e-01 8.5240143818092529e-01
      -8.6358377957877575e-01 4.4266171018019507e-01
      9.2377474261480308e-01 2.6773110429326319e-01
      -1.4612541058418058e-01 -2.7278827669138017e-01
      -7.4810620966645966e-02 -8.9161947821940046e-01
      2.7287399386473993e-01 4.3462217188616270e-01
      1.2294591816492131e-01 7.4538472122184160e-02
      -1.1020655236167540e+00 7.8356057762793241e-01
      3.4470788516496403e-02 -3.1419629580712061e-01
      -6.2979938294208748e-01 3.8656614347656015e-01
      2.6328915988968568e-02 -1.3772358411018903e-01
      -3.2731171128555381e-01 -5.8149923264203984e-01
      -5.9753995929675252e-01 -2.2197505971975665e-01
      -3.3681696275743239e-01 3.0858467460517017e-02
      3.1762335860426810e-01 -1.0564588712560750e-02
      -3.5793257413738178e-01 1.4329072384202873e-01
      -4.3916674795006738e-01 -3.3568731568539861e-01
      -1.1444712489620693e-01 -2.0050153804563003e-01
      -2.5545195203321858e-01 -2.3902348257598713e-01
      8.8060879874035797e-02 2.8401559360830181e-01
      3.3929686251833302e-01 1.5475600869267159e-01
      -1.0768317981458385e-01 5.3492686516728327e-01
      -2.6522516872126856e-01 2.0289887257743797e-01
      -1.3854478036767390e+00 -3.5147353603214371e-01
      -5.8044867219288747e-02 -2.2019299501428075e-01
      -2.1472948757252130e-01 6.8990884366969915e-02
      7.4482078761115200e-01 -8.1911616801165626e-02
      -6.9444806794720537e-02 -1.8889930185010165e-01
      1.8361129113560615e-01 1.2663332137234443e-01
      -4.2695052987685000e-02 -6.2143896753222683e-01
      -6.8116924040795931e-02 -3.8729555300285701e-01
      5.9575923729474001e-01 -3.6933954999375251e-01
      -1.8504969879892585e-01 -1.5188831442415390e-01
      -4.9321979091688595e-01 -1.9784336592521469e-02
      2.8093249599701603e-01 -2.8800850057426421e-02
      -5.0016842730183026e-03 -2.4232455099915824e+00
      8.6182566267317073e-02 -6.7187080354795881e-01
      -9.8718361992058232e-02 5.3561832226971107e-01
      -2.1245724536654559e-01 -3.6981325825284894e-01
      1.2729177286580278e+00 6.8132082698370500e-01
      5.9771436550477786e-01 -2.1092745329256274e-01
      -4.5120922264448904e-01 2.4363233384793698e-01
      3.8796397761344956e-02 9.7059758576277123e-03
      -3.9324623350122562e-01 -8.0078194265402114e-01
      2.0562258621494908e-01 -1.5448097397017135e-01
      -5.5559032095298555e-01 2.7477228092858279e-02
      -4.1986059197073620e-02 5.0720608078771168e-01
      -1.4339403405870729e-01 9.0892014252955433e-01
      -7.2743129320666711e-01 -7.9487891319115078e-01
      -3.5819019369106742e-01 -6.3607318721618256e-01
      -1.6250038140222533e-02 1.4921236079053560e-01
      8.3559018202858257e-02 1.0431262979978397e-01
      -7.5402738313896156e-01 2.9511344576314913e-01
      -1.5802064698395402e-02 1.2949396080121733e+00
      -5.4061904256000137e-01 6.8192727391238120e-02
      -1.4914874529437145e-02 -1.2346041166804442e-01
      -3.0452840901942335e-01 2.1383940675292526e-01
      -7.1348536090219250e-01 8.4219410851828644e-02
      4.0747998048919964e-01 3.0535407882238219e-01
      -3.8053836836484833e-01 1.3317957931381222e-01
      -6.2967180442341930e-01 1.5873800811866068e-01
      4.2550385799495549e-01 -7.3736777571163467e-02
      3.2160701993404422e-01 -1.1038064018214975e-02
      -2.8851351433856087e-02 -1.1745706974229445e-01
      -8.1894268165959835e-02 -1.8482864007089150e-01
      -1.9824053059774871e-01 -3.1172804613743532e-01
      -7.5314286190860558e-01 -2.8209439008536841e-01
      2.1972089260624225e-01 -2.0576502095265342e-01
      1.5955141182674135e+00 -3.1408173114915799e-01
      -9.4906475800288020e-02 -4.6984427402893089e-02
      -1.3306711514897648e-01 3.5287501649547293e-01
      8.5622693923130166e-01 1.2571753311469233e-01
      -4.6928968484880951e-01 3.5334765497699933e-01
      -4.0193291477638365e-01 1.0184454272095615e-01
      -4.6475634151569023e-01 -6.5761122569557462e-01
      -1.4393821592775156e+00 -3.1232450949351859e-01
      -7.6759612479380790e-01 -1.7856275277333822e-01
      1.1759874708253759e-01 1.4112823209371880e-01
      1.4153347510342906e-01 8.7873813286898431e-02
      -1.6591488145831119e-03 3.2291672557847872e-01
      -8.6442765636439023e-01 4.5234607329143267e-01
      5.6797576230155977e-01 9.6027104516561296e-02
      -7.1318913247610549e-01 -3.9361839928883302e-01
      2.0557031374800164e-01 9.9664451188446523e-02
      2.6050780443422139e-01 1.5826483262499882e-01
      -7.7381063118759544e-02 3.7919384730101940e-01
      -7.7599314452769064e-01 -1.4354847256964212e-01
      8.6034138891525364e-02 3.2453432406853283e-01
      6.4133431723658685e-01 3.4653229524426760e-01
      -1.2765654291872261e-01 2.5468031117053724e-01
      -2.5899615552767580e-01 1.7375941140329809e-01
      5.2806346914150248e-01 -2.0861095676278613e-01
      3.7303126769975575e-01 1.5511392094700696e-01
      4.2788315998447812e-01 -1.2168475707064277e-01
      1.9299720825195399e-01 -2.2920160852463659e-01
      -5.2046483704572044e-01 4.2792638206724781e-01
      1.5251881121901972e-01 4.1562918583847841e-01
      -1.5304693369660416e-01 -3.1022351585466051e-01
      -4.4690581383286165e-01 -2.3299739009233497e-01
      3.0725912810187006e-01 -3.3638134733502772e-01
      4.1438089255350433e-02 -1.3272254513274370e-01
      -1.4506838562182656e-01 -1.3796956455867884e-01
      -1.6467590660049730e-01 -3.7131856489330772e-01
      -5.2185838312002886e-01 6.1587766339889480e-02
      -2.0520093698111258e-01 -1.4946228672738182e-02
      1.0160952540396111e+00 5.0053993783356465e-01
      -7.4383087126667902e-01 2.4031823283693390e-01
      3.9651170921060477e-02 -5.5986874661751757e-02
      3.7443490885090880e-01 -3.5076362860495353e-01
      1.4071222149946111e-01 -3.4677970444005674e-01
      3.0280579273100611e-01 1.7330389970296559e-01
      -2.6432969598295175e-01 -6.9168834438410431e-01
      -8.8695617538613025e-01 6.2259270231938446e-01
      -1.4226993149090003e-01 -1.2568714746582219e-01
      -1.6748804464165309e-01 -1.0474379387569968e-01
      -8.7752343905543276e-02 1.9217674265469345e-01
      2.8372664347790616e-01 2.8332696596540097e-01
      -5.5390293092794418e-01 -8.3839593987697814e-01
      -2.0676528551780114e-02 -3.3198361066573084e-01
      1.5095968650797859e-01 1.1979635426292512e-01
      2.1272718934936632e-01 2.1064076315648275e-01
      -9.3715809945189577e-02 2.2475426392577580e-01
      -9.4269226677438900e-01 4.8258297313202810e-02
      3.5595837707224764e-01 2.2651323542593160e-01
      1.4580904631668401e-01 -1.5808009159240022e-01
      -7.6416609099486910e-01 -1.7144165802556947e-02
      6.9581087053908322e-02 -4.3668933587427466e-01
      -8.0240682758620993e-02 -5.4399945490678259e-01
      1.4602136312355671e-01 5.2047881784742100e-01
      -1.3981316375863076e-01 4.0863317247000713e-01
      3.1771602695210877e-01 8.8740367980537249e-02
      -4.7940862898996783e-01 -2.9789933164913013e-01
      1.0269960869885828e+00 9.7374196868392704e-01
      -1.5992080646241516e-01 3.3725967526336531e-01
      -1.8597753875500878e-01 5.1776600599825284e-01
      -4.7744594254353157e-01 -3.7879304806206465e-01
      1.2126954082724442e-01 3.8189628601819632e-02
      7.7787469638181983e-01 1.8711462851826058e-01
      -1.2876460889084904e+00 3.2191853159622319e-01
      4.2643504698480572e-03 2.3353711630428042e-01
      8.2749826362148948e-01 3.4299628212169481e-01
      5.4712336881188939e-01 -8.1858846831949994e-01
      -9.1716308206648361e-02 -1.4177307014966536e-01
      3.1743786039763178e-01 -2.9223085129376519e-01
      6.8729391934423545e-01 1.9431234619013013e-01
      1.0513560537612189e-01 -7.4335915721573798e-01
      2.6426286912386859e-01 1.8048085986599394e-01
      -6.4324921785611067e-01 -7.4745820493822099e-02
      1.3206106267418261e-01 -1.3282436429174385e+00
      2.4557884438698849e-01 -1.7477474967611689e-01
      5.6536614562287857e-01 -3.3218455399512742e-01
      -1.0002232184144433e-01 -1.2365356972893606e-01
      4.8640600614389067e-02 -7.6199830964553267e-02
      -5.4758132722482855e-01 -2.8458271038446548e-01
      -8.4336286502371938e-01 -3.9663755876892681e-01
      5.1081208656126276e-01 -2.4889670196285099e-01
      4.3687763080049923e-02 -3.6901652062172691e-01
      -4.2404196428839758e-01 4.1929380610421833e-02
      -5.8311376147615990e-01 2.0022696013186589e-01
      -2.0307192212462211e-01 -4.5321437843828677e-01
      9.8250251529538057e-01 2.8904651863145642e-01
      -1.7249553469835549e-01 8.7870163710331725e-02
      4.2312474791922135e-02 -5.8158523126051694e-02
      -1.2739256829989254e-01 8.7111253527482502e-01
      -1.4516818756158309e-01 -4.0920873534234248e-01
      -2.1131172008456645e-02 8.8426928618274489e-02
      -7.7652574599718394e-01 4.5056100159603089e-02
      -1.3470377609667017e-01 -2.2772606317214567e-01
      -1.1958565151976711e-01 -1.6441127667022826e-01
      2.4621848905747420e-01 -1.6923543819567657e-01
      -6.5506594073164071e-01 3.4811069879413532e-03
      -8.4999516964182328e-02 1.5427055530650183e-01
      -4.0323143424692343e-01 6.8123357642861690e-02
      6.2022930900966465e-02 2.7978906092221162e-01
      -3.5373832816127720e-01 -2.6817966277806399e-01
      1.6772447122100742e-01 2.5555265398809807e-01
      2.2566082587865144e-01 -8.4316751357749450e-02
      5.2671109574386532e-01 -5.4201113610543250e-01
      -2.8096501068483426e-01 2.4107861809387807e-01
      8.7999605056637148e-02 5.1383966146396230e-03
      -5.4998803306300546e-02 -1.5820137003496407e-01
      5.4074507389540116e-01 4.9265207963532526e-03
      1.0957286728761553e-01 1.4564621875402634e-01
      -1.1019834616938387e+00 2.8587857897704402e-02
      1.5886434345822745e-01 -2.1786789899423684e-01
      -1.8845022515665932e-01 1.3570788803548775e-01
      -5.0469910301754983e-01 9.1533074951409471e-02
      7.0553597420709796e-02 -3.1512243447133903e-01
      2.3561766976562118e-01 9.9912553185607739e-02
      -7.7376436041026353e-01 -1.2786276858786987e-02
      -3.3466667466024791e-01 1.3698272449025006e-01
      -1.7161759661473544e-01 1.2876388128857638e-01
      1.2674979476966473e+00 2.6276164589203893e-01
      -4.3013796575800683e-01 -1.7771672265647920e-01
      2.6005199013247082e-01 -1.2745616110842548e+00
      3.2668613501864768e-03 1.0292064000771742e-01
      -3.8879583754681252e-01 -6.3340447562346816e-02
      -1.8033069615047839e-01 -3.2952721453060019e-01
      -4.6101018722662807e-01 -9.1658305067531878e-03
      -1.1192449916069189e+00 -1.1374671523130306e-01
      -3.7608188482028715e-01 -5.7304843191339727e-01
      3.6700520905486961e-01 -1.2408716830551414e+00
      -9.2130193581401032e-01 -3.6028953044374423e-01
      5.5914467890350164e-02 7.0827672323397067e-02
      -8.0622777352530561e-01 3.8618724361707824e-03
      -6.6080052788532528e-01 9.2633678123848595e-01
      -6.0058942356030882e-02 -1.6227051486667188e-01
      2.5753703987779097e-01 9.6850580719054868e-01
      6.1283890426829912e-01 -1.5900069874172118e-01
      1.0269698266862690e-01 1.2178976459725934e+00
      1.6050507308798662e-01 9.1555544757871518e-02
      2.4651779308473440e-01 -7.1195666215717506e-03
      -1.1720644461999230e+00 -7.5938531359870984e-02
      1.5435899701748454e-01 7.8287988696180488e-01
      8.0283640212063856e-01 -2.5682126001311006e-01
      -1.3191747955125091e-01 -5.4986886258870205e-01
      -9.7079192035275236e-02 -6.3531725901016955e-01
      -1.4993094788920908e-01 -3.8279500420836299e-01
      -1.3028446183094847e-01 -2.2003307796632809e-01
      -2.6536757698139479e-01 -1.4878300323956517e-01
      -2.2056679505098136e-02 1.0290477264390643e-01
      -8.4103579483913546e-02 1.9154780650672806e-01
      -5.8019465382152954e-02 -3.4817573314027983e-01
      4.0348063194277757e-02 2.1784059803741201e-01
      -3.0877782785015223e-01 3.8791167812551974e-01
      -6.3040131415593825e-01 -3.1738985769591882e-01
      6.9089110191046932e-01 -1.7587471393489909e-01
      4.7730796359837269e-01 -2.5510490367518629e-01
      4.9817592692698885e-02 -2.7385044979480369e+00
      1.6957066755568972e-01 -1.2221209378909662e-01
      2.4866472975586215e-01 2.6826856364921681e-01
      1.9769589191885181e-01 -2.6186871482373830e-01
      1.6137700587345091e-01 1.8467847440824291e-03
      -1.2537053307506896e+00 4.7767513121090382e-01
      -9.2349159002465997e-01 4.1745992344749183e-01
      -5.4285813087673584e-01 6.0052428493518828e-01
      8.0831842049898250e-01 -1.9764766771596698e-01
      -2.0895794044991828e-01 -1.6160304394438243e-02
      9.7487119022627133e-01 2.4172012067614845e-01
      3.1905491721164014e-01 3.4263640209493007e-01
      -1.4705093746353812e-01 3.0578663867094275e-01
      -1.6280075443207826e-02 2.8682285716803613e-01
      8.8810244269893049e-02 -1.0245845457801221e-01
      -5.3705207027548844e-04 -1.0125488155480097e-01
      -8.2295993267853440e-01 -3.4706118746401166e-01
      4.0159774709419560e-01 3.2292264123416453e-01
      -2.7875190828714397e-01 2.9783046948679204e-01
      5.8859418698012859e-02 -5.8982270436160145e-01
      -3.6943377951184697e-01 -1.9799480630354765e-01
      1.5007848452475231e-01 -3.0309032555604398e-01
      -1.7627328864029533e-02 1.6457366659731501e-01
      2.3345503534180889e-01 -1.4198653684160309e-01
      -5.9043945031425094e-01 -5.6088664176158876e-02
      1.1548712591839005e-01 7.4347071820353550e-02
      1.1891641714023755e-01 -6.6556543314333105e-01
      -3.3460475380807825e-01 6.4318374506341447e-01
      -7.4161436728176905e-02 -2.3016882865257260e-01
      -3.6801200437652970e-01 7.7999786078654598e-02
      4.7350851757437906e-01 -3.7011968019539251e-02
      2.7640090874848289e-01 -3.7481898578745237e-01
      -4.3945962447977788e-01 -7.0617568090179794e-01
      2.8475948364447445e-01 4.7816084596249708e-01
      -1.0351243675619706e-01 -2.1635724359056235e-01
      -3.5314268569950663e-01 -1.7198268059388025e-01
      -1.7295266581290727e-02 1.1923057547282230e-01
      -1.1643372864172789e-01 1.2118417063433747e-01
      -5.6754914658100460e-02 -2.6179466755412933e-01
      -1.4464638666936929e+00 -4.1532947655389374e-01
      -1.6448633093813417e-01 -2.6921373744168187e-01
      -2.6545560138113827e-01 4.4232919124534192e-01
      1.4462094069759449e-01 -1.3124010618663465e-01
      -1.2313369076080531e-01 4.0385891701729421e-01
      -7.9569729854732568e-02 1.1226427381646061e-01
      4.0881587398439101e-01 -4.5762356654081876e-01
      -6.3278402011657048e-02 2.0968207345642045e-02
      -5.2726866113168819e-02 3.9931676071962985e-01
      -3.4990256740748654e-01 -4.0188602125717582e-01
      8.2275485392599754e-02 1.1455399909424305e-01
      3.9383379815719255e-01 1.1683688150866245e-01
      8.5343569601569558e-01 2.3607675612521328e-01
      1.5410863817563250e-01 -5.0240507558474153e-02
      -3.3133489904757057e-01 1.1527643615709262e+00
      2.2279842367704961e-01 1.7447444073554638e-01
      -7.3193419271457449e-01 -3.3585545702876757e-01
      -3.1149939811383037e-01 9.4288498086695413e-02
      8.4753659922529381e-02 -5.0260999212254701e-02
      -1.4505987554941718e-01 -1.4419599367055782e-02
      -1.7017538241458743e-01 3.0032357181300922e-03
      -1.7687470287580925e-01 4.5341300325443779e-01
      -5.7091228373451874e-01 -8.9914465678559083e-03
      7.5794836458467063e-01 -1.0768386600912175e-01
      5.9678534377839032e-01 -3.3176804821270184e-01
      -5.3699514099330659e-01 -1.2623756102377068e-01
      1.5104262603213614e-01 4.7108725486120290e-01
      9.2919938841016833e-02 -7.5655120992403874e-02
      3.4792035831506196e-01 2.5983654817458890e-01
      1.4411501711167848e-01 -6.0954682062073207e-01
      -1.7195116663684976e-01 4.0803483904049731e-01
      -1.4056610048755618e+00 -1.2581577177648762e-01
      -5.5476489449557964e-01 5.0027616534296426e-01
      8.0537409855522613e-01 -1.0502832342017829e-01
      1.9498019610476094e-01 7.6688926258698653e-01
      -9.8320409228527783e-01 4.6933350984400268e-01
      4.2400411389527926e-01 5.4381364436252499e-01
      1.8630590167071912e-01 -3.4446728196037713e-01
      -4.7384627920775502e-01 -2.4916534940484145e-01
      -1.8364301918177584e-01 8.3975701275426584e-02
      -3.1050975284475080e-01 5.4772338417174449e-01
      -4.3018118551220363e-01 -7.5373134782098272e-01
      5.3946076311409075e-01 -7.3043167210541798e-02
      5.4276053848736516e-01 1.7299772771202468e-01
      9.1663381114339593e-01 -2.7095294849677612e-02
      -7.2527090148354734e-02 1.5369154400268958e-01
      2.2557288020422721e-02 3.1060591636061052e-01
      -1.0410028835061529e-01 -4.1991531352842515e-01
      7.4024806528892872e-01 2.3541680199892515e-01
      -5.8717371885744873e-01 1.0111141009719092e-01
      1.5402792029222612e-01 1.2172179361619129e-01
      -2.0519990946942032e-01 1.9091524557317438e-01
      3.1882781769574919e-01 -3.1727551334353399e-01
      -4.8831296828606030e-01 -3.4865143437418866e-02
      -3.8141839333294270e-01 -1.0724606089632800e+00
      -2.1710177133503549e-02 3.3818588896218104e-03
      3.0320726610998255e-01 -3.1162371734736427e-01
      1.4258577777034145e-01 -5.3958840632205729e-01
      -2.6387467560944833e-01 -7.6942970438761205e-01
      -4.9290205020205008e-02 -9.4341240414892807e-02
      5.0906625588011667e-01 5.3372438224965846e-02
      -4.1858245663909727e-01 1.0222590026061865e-01
      -2.3231908863266576e-01 -2.7266384158439966e-01
      -8.6711473714384624e-01 -1.2583161596200036e-02
      3.5997951243179005e-01 -1.4230304420490672e-01
      9.0501670484045360e-01 -1.1250418410462104e-01
      -7.7901886655911162e-02 -6.3871641804770993e-02
      -3.3245566101036467e-01 3.4196004020406040e-01
      3.5084635361076016e-01 2.8456831799150362e-01
      -1.9264311811183538e-01 -7.1437783318366888e-01
      4.8270780306235528e-01 -1.0220549352125909e-01
      2.8110521607068772e-01 -6.2787182193831503e-02
      1.4860025486252466e-02 2.6325799975692016e-01
      2.0026261384900126e-01 -1.7005874922210873e-01
      -6.6589942417946180e-01 2.3695553023973126e-01
      -8.2437184204673455e-02 -1.1832275304681323e-02
      -1.7751652868741294e-02 -2.9844990031705249e-01
      1.9305198427761780e-01 -1.0281660873873130e-01
      -1.1704854158902964e-02 -3.3503565925386232e-02
      -3.3291363079790898e-01 9.9415185449231776e-03
      4.9549676432576850e-01 4.2465862830504719e-01
      2.4770606040050946e-01 3.7398933332378781e-01
      7.1522987740301625e-01 -3.8813075896839538e-01
      3.3786737314152722e-02 -1.0093140257776093e-01
      7.7043103057375628e-01 -4.7866226608764501e-01
      -8.4101755423803860e-03 -3.5704253778506867e-01
      1.0446308703592705e-01 -6.1284723552493772e-02
      -5.3635701092689565e-02 -6.2528424583889908e-01
      1.6115235351871915e-01 6.9098979471655275e-02
      5.1847490152163855e-01 2.3386732419750981e-02
      7.0710677157041338e-02 -4.5972670287934236e-01
      -2.6817473630237759e-01 1.2561723670923630e-01
      5.1025976371801895e-02 1.7724197810380860e-02
      -3.4638897354510845e-01 -3.4451554324539407e-01
      1.1983012420869368e+00 5.3906202222722299e-02
      -5.9050459803694766e-01 -1.9492472653189152e-02
      1.7823918074140901e-01 8.4253939357227886e-02
      2.4656696327627309e-01 -2.9969743132151166e-01
      -8.3639309300595113e-02 -3.6421755082503926e-01
      -1.4170382441582037e-03 1.0766367105209929e-01
      7.9456696256746173e-01 4.2892456993369416e-01
      2.4828243454348156e-01 2.8309753976308671e-01
      -3.1553345787467535e-01 -9.0206725730000145e-02
      6.0353607469754877e-01 -7.2313740609692173e-02
      -3.2247226434059090e-01 4.0085358881441502e-01
      -2.6082741043141268e-02 -7.9605053112320162e-02
      -5.6649272463161782e-01 3.7937345412131585e-01
      2.0383475265266085e-01 -3.3402808082009455e-01
      1.3880208601625524e-01 -1.5796734211467139e-01
      1.1663996553371779e-01 -5.1948164209214720e-02
      -3.7113048564192050e-02 -1.3023888223319646e-01
      -6.7880995913843623e-01 -8.8683476362771241e-02
      -8.7370839565091271e-02 1.3058574737441986e-01
      -7.3962261664066151e-02 -2.9103669224455603e-01
      6.1450811088449986e-01 1.3280481851942105e-01
      2.2811854101090798e-02 -1.0930549117953925e-01
      1.0267666751953492e-03 -5.1938230677499940e-02
      5.4890151647205943e-01 8.9448658124680308e-02
      -1.3830361519728204e-01 5.2901962350045983e-01
      -3.2934450284812133e-01 -1.6380910013504560e-01
      -1.7777622918983035e-02 2.5524205664314403e-01
      1.6925297193546682e-01 4.1033840905888086e-01
      -1.4362023315240122e-01 -7.8121405502422775e-02
      -4.2504109507708318e-02 -7.4964198614705995e-03
      -3.9530690513097100e-01 -2.2258678901553083e-01
      2.1093286652204959e-01 -7.0695471129548049e-01
      2.1062955654884821e-01 -1.4516251419919929e-01
      3.2765083985280075e-01 5.5579345474448323e-02
      -6.9591528317719376e-01 4.8568315462415851e-01
      -2.7210387709875883e-01 -7.5395567014180834e-02
      -1.2514123300896671e-01 -2.4452032540211214e-03
      -1.0848315105218154e-01 4.8985090269086801e-01
      -9.9766923794927780e-03 1.1183731236599241e-01
      5.0385048872992066e-01 -3.4905354156109275e-01
      7.6759838444180828e-02 2.5359910934889773e-01
      -3.0270299603833911e-01 -3.3607292327287047e-01
      -4.1710722979907899e-01 8.2603436677722866e-02
      1.8283122311235206e-01 5.7991920404752963e-02
      1.7574325186106282e-01 1.2488433384811716e-01
      -6.0402036018791794e-01 -5.4308148792541443e-02
      1.1041971609669682e-01 -2.5605256757706718e-01
      6.1378506999379599e-02 6.7052281629232782e-02
      -2.5874885450480539e-01 1.0882827900911562e-01
      -3.7983642504104725e-01 -1.6195672173787784e-01
      -1.9931098525376909e-01 -2.0274383776390778e-01
      -5.3637298100478624e-03 6.8873434144411994e-02
      -1.2312461435643586e-01 -5.4173715667385242e-02
      -3.3454420709923793e-01 -3.1867139944826173e-01
      -1.4358481235871086e-02 -1.5711344220118859e-01
      2.0270083926825638e-01 1.2020109091674731e-01
      -1.0803571747651942e-01 5.9379491933796391e-01
      1.1408043427805631e-01 -4.2078402946285753e-01
      1.3794120344229333e-01 -5.5940986374084047e-02
      -4.6525686589605479e-02 7.0927787776689499e-01
      -2.5963090900259289e-01 1.0855343363177362e-01
      8.9274280467223716e-02 4.4998269309046261e-02
      -1.6603804837116254e-01 1.9579022874969604e-01
      1.2984847342791914e-01 -3.5703585700420565e-02
      -1.3838956030231320e-01 -2.9596879493072986e-01
      -9.7686158807139087e-02 2.2631921838831651e-01
      3.7120287370982774e-01 5.4740915225177156e-01
      -6.4875377998582295e-01 1.3788042009666984e-01
      -6.1896121000530924e-01 2.7882554939321286e-01
      2.6426111515537298e-01 5.1632253803632155e-01
      2.7921890634938890e-01 1.7097792101195206e-01
      5.5991095752677345e-01 -2.5853397887440364e-02
      -8.4176307809023992e-02 5.4221816396309119e-01
      4.1162929558934569e-01 -1.6522486669506412e-01
      -8.2170881922091854e-01 4.9881673109237426e-02
      5.9221249205948297e-02 -7.5082338198352458e-02
      2.8203912428658329e-01 -7.1503244893027196e-01
      -6.6077222686167325e-01 2.1570068644045759e-02
      -8.7686625094957435e-02 -1.8624255629081755e-02
      -1.1128100757030478e-01 -8.2708713782066545e-01
      -7.6148804158898442e-01 -5.2235200679288697e-02
      -4.4603692736874123e-01 -8.9002462858251488e-02
      -1.2659172894160714e-01 -6.8049638293029679e-02
      8.6801243690667074e-01 -2.1650222860612339e-01
      -1.8253912946063472e-01 -8.9518926251275410e-01
      -2.5096887189257433e-01 -3.3205880533668286e-01
      -3.1494773887020738e-01 4.4820981885564048e-02
      4.3503313595857057e-01 5.3390266054337381e-02
      -2.3786300337429891e-01 -4.7216629184838516e-01
      -2.9962094088805447e-01 -4.6427401191716217e-01
      -3.8364790939217824e-01 5.9768815946839970e-01
      -4.3743377859689864e-01 -3.3494341018351065e-01
      -4.5268952459711009e-01 3.0700818349791235e-02
      8.0966286432948162e-02 3.1317329602665123e-01
      -3.1693048691695848e-02 -9.0511699260044709e-02
      -3.2106925040289597e-01 -1.7200376494610026e+00
      -3.7320328420905297e-01 1.8834960640910250e-02
      -3.3840688715565487e-01 -2.0899029083024462e-01
      -1.5755356827306294e-01 3.2250730378397852e-01
      -7.1921818848055052e-01 1.3966452357673256e-01
      -2.3240057718861901e-01 -7.7180856297387712e-01
      1.0912036112987236e+00 -1.6264299817218042e-01
      -1.2433728138212126e-03 1.3255161312821489e-02
      2.3476577037062030e-01 3.5157517581880751e-02
      3.7519432335860731e-01 8.6122525480846823e-01
      -4.7272541492758430e-01 -2.3452500493881157e-01
      -1.0058303568626639e+00 -9.3401843336783211e-02
      -8.1432143086699837e-01 2.4098993228987345e-01
      2.9205188226067474e-01 -5.1901107748029462e-01
      8.2688495478822310e-01 5.3036895107773008e-01
      3.3037469795226099e-01 -1.4365776446780576e-02
      -3.2404745396065887e-02 -3.8333931553851736e-01
      -7.4130987291812167e-01 -1.0079997567838192e-01
      -9.7349139979010357e-01 -5.1071852543263663e-01
      -1.6906533835498566e-01 -7.3593813716187007e-01
      -3.7711996197700859e-01 -7.1521453434404436e-01
      2.7888033009594282e-01 5.8591168511097233e-02
      -1.0761695520944863e-01 -8.9443972037282460e-01
      -2.6774547843741842e-01 5.3581783308744313e-01
      6.0733405005892682e-01 2.8018480903194914e-01
      -1.6288794385895127e-02 2.7829623038633827e-01
      5.3853121986904162e-01 6.3841972139210001e-01
      -1.2224797373925392e-01 -1.0618011377876226e+00
      -2.6423786028160345e-01 9.9455490064990465e-02
      1.9358532723372041e-02 1.4107392171966564e+00
      6.5676453171082796e-02 2.2309551863346425e-01
      1.0950441580845921e-01 -8.4902253861486732e-01
      -1.0938057361705274e-01 -5.9396893906127879e-01
      -3.1229009232720598e-02 4.9248796395393823e-01
      -1.7063032963012531e-01 -6.2352501753062850e-01
      -6.1666637878717130e-02 7.3580902775090926e-02
      2.8489937742058136e-01 -6.0472674981220376e-01
      -1.6493973818549965e-01 -4.1585648323807944e-01
      -6.9879345011456692e-02 3.3844809809652453e-02
      3.8004543633118143e-01 2.7890116641894919e-02
      -6.1816562565570576e-01 6.6728449669103929e-01
      6.1269379409563263e-01 8.9689148522554329e-01
      -1.4563547273806185e-01 1.6519279345890070e-03
      -1.7340206649668419e+00 -3.3195535228784195e-01
      -5.3895299904398564e-01 3.1992874144435729e-01
      8.5968255371327118e-01 2.3035176660841913e-01
      6.9501448185523673e-01 5.4741799029849358e-01
      4.4942438733135809e-01 -2.7477681582380609e-01
      -5.8909484032552262e-01 -1.7602544464837480e-01
      -1.8318658143213380e-02 7.8515838876739730e-01
      2.1609426365885750e-02 -2.4769395398138802e-01
      -8.6680751621039431e-01 -5.2814498601485182e-01
      -5.6522897744582923e-01 8.2725042950201805e-02
      9.7310562271573930e-01 -2.3061442368538712e-01
      1.6951270077135372e-02 -5.1213402269120534e-01
      -3.6771567554926488e-01 8.2112643654207795e-01
      4.7741717655076138e-01 2.3711013800112959e-01
      8.3521945638703410e-02 7.9517681845483676e-02
      1.3074762678291929e+00 2.2214553971132003e-01
      2.3405608556207480e-01 2.1415909863637905e-01
      -5.2515914788706841e-01 3.2266002143134670e-01
      3.8288253112936232e-01 5.1164906954808886e-01
      -8.0192696472454594e-01 -2.8298432155143993e-01
      4.4754836378707565e-02 -1.6322232225542316e-01
      -2.0373912791415161e-01 8.7805694016751434e-01
      -3.6536399395987634e-01 7.7171800444696692e-01
      -3.1160302723188998e-01 2.4980245694694325e-01
      -7.1850790109425611e-01 1.0418628206434868e+00
      4.2772249582188887e-01 -5.5623172109424779e-01
      -3.5058244623259505e-01 1.5766931714672061e+00
      4.3381189758085503e-01 3.1396866022011938e-01
      -8.8122586491887769e-02 7.9860976861233016e-02
      -6.1988853517907461e-01 -7.6657310677375445e-01
      2.6340885889959509e-01 1.3184175396963516e-01
      -3.7757233789369593e-01 -5.8186422012631731e-02
      -1.7232349694279983e+00 4.6518448062866297e-01
      8.8224566230990620e-02 -5.7375012083582344e-01
      1.2786647317772977e+00 5.0583806836927236e-01
      1.4452802423885186e-01 -4.9914746062162502e-01
      1.2118654833781546e+00 -6.5532399448463718e-01
      -2.1862253358688141e-01 8.2943888912735998e-03
      2.9257908712834774e-01 -1.3163149535416679e-01
      -4.9819337116371715e-01 -2.3432240176722491e-01
      -2.1448781506540504e-01 -4.3465870248367378e-01
      -2.1820044375467793e-02 1.1559320197931101e-01
      6.5605343114621451e-01 2.9269198208170633e-02
      -8.2529148486720194e-01 -2.4951559886188443e-01
      1.5027492656926272e-01 3.2674175769978531e-01
      4.2785209726517837e-01 -7.6675645195796538e-01
      -4.3450464556490925e-01 -4.0091945681518987e-01
      1.2656608855986165e-01 4.4393557943968925e-01
      2.4281083235604553e-01 -2.5193942383974333e-01
      -7.6814187203672696e-02 -2.7008510269488910e-02
      4.6905883981986730e-02 8.6092343367502946e-02
      -9.3314109304134873e-01 4.7971696929527136e-01
      -3.1774065485551473e-01 -4.5768215915474092e-01
      4.2951855773148173e-01 -2.7410810489603893e-01
      -1.3013836793160974e-01 4.1090146219631851e-01
      1.4871918358383973e-01 2.9127596650771798e-01
      3.9840975415140772e-01 4.3044194675379954e-01
      1.3051493299925072e+00 4.0354518983398181e-02
      -2.6677945876967901e-01 -1.0446560155851899e-01
      -9.6529886327019171e-02 -5.8634633151439186e-01
      -2.8764707011397193e-02 7.6017515637824398e-02
      -1.1573425107382140e-02 -3.7831877167617972e-01
      2.1165088665212095e-01 5.8416944929577896e-01
      -2.0386904922065879e-01 1.3275165877174519e-01
      -4.8950495383860837e-01 -2.3324616952719623e-01
      -2.1229383533106844e-01 -6.1447174831316398e-01
      1.9641490146667143e-01 3.3098649925746448e-01
      -9.4945057588201515e-02 -3.2099307597190618e-01
      4.9333538753604966e-01 -6.6464551357676427e-02
      1.6164304818326350e-01 -3.5336588836601973e-01
      2.1199214064039913e-02 -5.6186130810403537e-02
      -7.8313571915363989e-01 -3.1041175677862798e-01
      4.5042568422584706e-01 2.6017421905213667e-01
      2.2471041947886117e-02 3.9463815894343884e-01
      1.8942761817502082e-01 9.0587019457522289e-01
      -6.4448113181537099e-03 1.0022158300313180e-02
      5.4144505920002473e-01 7.0215732112950136e-01
      8.5826556186500513e-01 -2.4441094502563185e-01
      6.1442633285655357e-02 -3.2996466321375212e-01
      8.9089796128660914e-02 -3.8527489090785648e-02
      6.3356629135653222e-02 4.3747032929488289e-01
      -3.4647680453377461e-01 -3.8804676372387253e-01
      1.1633181300109489e-01 7.5171242370115673e-02
      3.2324384641111870e-01 -2.0008003927800888e-01
      3.8642598153917340e-01 2.4907171931305750e-02
      1.3956727642011873e-02 -7.5305763980351770e-01
      5.5364181092863107e-01 1.1545441087612378e-01
      -7.9504849949691203e-01 4.2086253538020507e-01
      -3.8479969774410988e-01 -3.9572591837342824e-02
      6.2583866321669249e-02 1.9133370364885421e-01
      -3.5513344094802030e-01 -2.8630739276734287e-02
      -1.4217648304303740e+00 1.6869530675976019e-01
      2.6792011579920511e-01 7.5030019608428478e-01
      -2.1058626297925856e-01 -1.2792426588628572e+00
      7.1681541192652254e-01 -1.0654694689187157e-01
      2.1907272407426701e-01 -7.8580778787718145e-02
      -1.4629662255608006e-01 1.6804678322952740e-01
      -2.5204735617337465e-01 -6.7580363152099798e-01
      1.6892216478025618e-01 1.1133750523013839e+00
      -5.5487159490278537e-01 2.2367934559791541e-01
      -2.8528301622605357e-01 -5.1112459540871358e-01
      1.7784820840033175e-01 -2.7922992226435195e-01
      4.3964957708377850e-01 -1.0710522484862249e-01
      -7.4685041240839439e-02 1.4829619564188093e-01
      -3.4241125564450847e-01 6.3875159287672900e-01
      -7.8739565986512772e-02 1.6359922667973795e-01
      8.5424670362502086e-01 -2.1386757529857417e-01
      -1.7857665629664918e-01 -6.6534671767001274e-01
      -1.2989844934725808e-01 -4.7052681974366994e-01
      -1.1756480452483908e-01 -1.7580676861551797e-01
      1.5410243361149287e-01 1.1083211345690522e-01
      -3.6926182411832148e-01 -2.2238008460243627e-01
      8.9103590380366651e-02 1.2050135038218515e-01
      4.6590335856447229e-01 -7.6237499483838123e-02
      1.5696117686343791e-01 1.5899831610606141e-01
      2.3762315960450184e-01 -6.3087809887189220e-02
      -9.4739873133190600e-02 4.7430014237279584e-02
      3.0018623335872754e-02 -1.1016762418265012e-01
      9.0535140486502375e-01 7.4526954462300884e-02
      -2.5250237153391281e-01 -4.7869582892869206e-01
      6.2788095418471535e-01 2.1192194815516377e-01
      -4.4429827488981144e-01 -2.3107316044658574e-01
      -1.4792735017299791e-02 -2.0201652564696387e-01
      -8.3097866061876344e-02 3.0144555848863924e-01
      7.0040719427401824e-02 2.1711146100127504e-01
      1.4912791136880607e-01 -3.1831976233573972e-01
      3.6957190600425555e-01 3.3949014894520818e-01
      -3.8795433287430447e-01 2.8468590138826072e-01
      -2.2704781481397382e-01 -6.3420529139223192e-02
      -1.1827921199245568e-01 -3.5721401036112382e-01
      1.3221884114399421e-01 -2.2128573028792484e-01
      -6.5182261101745542e-01 9.1492091943777658e-03
      -1.4429349503530320e-01 -5.4865603303352517e-01
      2.7958533857674533e-01 1.2298179255179981e-01
      -2.0961842403433800e-01 -3.5697276463764516e-01
      -2.7780833449419706e-01 -1.2702028346575536e-01
      1.6854936352528507e-01 -1.1399083622654753e-01
      1.0671188812702598e-01 -1.3521398076526098e-01
      5.3970898093257480e-01 5.1405173739117418e-02
      2.4716775061158675e-01 -1.8302039161006262e-01
      7.0975658372617306e-03 -5.0510471594074835e-01
      3.2457130432809578e-01 1.0986881163195046e-01
      9.4593042345737441e-03 1.4395496681687855e-01
      1.2281964538618784e-02 4.1614823772549864e-01
      -1.9680045975555205e-01 5.5295752353692822e-02
      -8.8287482211282988e-03 -6.0772917752278111e-01
      1.5023049634355107e-02 8.8810937697286707e-02
      3.5226384184381027e-01 -8.5360159611634207e-02
      3.0649938797434106e-01 2.4153298460050859e-02
      3.0622078453888896e-02 1.9459632370622795e-01
      -1.5123262377886013e-01 4.1184362063776425e-01
      3.1046886858077709e-02 3.1353928079623206e-01
      4.9536909974485577e-01 7.7486630143146051e-02
      1.1523341749301619e-01 1.4415069041199993e-01
      -8.1909520568363148e-02 -1.1211531001671636e-01
      5.6201833083645714e-01 -2.0830384579819733e-01
      2.4965710839060981e-01 3.7658572840475596e-01
      2.1297587395721024e-01 -5.4270166530822017e-01
      4.7896423288720956e-03 3.4316891844540970e-01
      3.4109844203310563e-01 -7.6522240003477948e-01
      -3.6946485712085253e-01 -1.0256947272989163e-01
      3.9840233691101068e-01 3.8466827365015654e-01
      3.3432732921570252e-01 -2.1493121641031923e-01
      -5.0257350378896759e-01 1.8388650183248024e-02
      6.1434791039623030e-02 -1.7170746582873021e-02
      -5.4351389439641196e-01 -2.3413087774406002e-01
      -2.2866125030936513e-01 -7.7385585581521643e-02
      -2.3416398360884491e-01 2.2331951859615878e-01
      6.9521989919189051e-02 -4.7793656328309608e-01
      -1.1927741838779968e-01 7.6044579564220394e-02
      4.4614947587569520e-01 9.1326489714270348e-02
      -2.1313106618287624e-02 -8.6713333683097937e-01
      1.4092610710502115e-01 1.5804618222312247e-01
      -1.8602520618756210e-01 -1.9677122585869009e-01
      7.7098194817095442e-02 5.5096517905724573e-03
      -4.8546832485733532e-01 -1.2807031394670517e-02
      3.2791224382252260e-01 1.0462338437246703e-01
      -2.5913014816175084e-01 4.0395408310007358e-01
      -1.9475649188533894e-01 1.5092104396583694e-01
      -4.9871750173285219e-02 -1.5747618251302795e-01
      -1.4161462160008253e-02 1.0723214533685672e-01
      7.2971556231557377e-02 5.6019878296073700e-01
      -1.7232491629145408e-01 9.6103187848093852e-02
      1.3424639137480887e-01 2.2824071387526738e-02
      -6.2293079797956237e-02 -7.3249193831960224e-01
      -6.5129955800764061e-01 1.9127217075041089e-01
      6.8179139858710225e-01 5.7886895342639522e-01
      2.7852347819824702e-01 5.2022459895926809e-01
      -1.1564824347173323e-02 -9.1686413191458621e-02
      7.4313584760078999e-01 -3.8901152097747527e-01
      1.3447965918427496e-01 3.8950061496047744e-01
      1.4689269418632727e-02 2.2590031981418060e-01
      -5.0101659920404740e-01 2.4334203302290186e-01
      -6.6199790409207385e-02 1.8409710330362733e-01
      1.4027516407044156e-02 -6.4996168149244082e-01
      -2.6197462340719591e-01 -1.7918123758028831e-01
      2.6621279548789267e-01 5.8208136834233239e-02
      -1.0608917171712526e-01 -3.7285397303035117e-01
      4.2090088635505701e-02 -1.9032870673371802e-01
      -1.1359940422882593e+00 2.1706424241469160e-01
      1.2208497041395654e-01 2.7153385902274119e-01
      -2.1451344347200019e-01 2.5860190424312729e-02
      3.1704144813567775e-01 1.9123250906453149e-01
      -1.1275487528111798e-01 3.5106154949582524e-02
      1.9038824087433656e-01 3.7060023888839322e-01
      8.7681921299703106e-02 -2.1620072559280216e-02
      1.6739506656378778e-01 -2.2810087882977326e-01
      -5.6484546106266398e-01 -1.9140971743880078e-01
      9.2438184864809467e-02 -1.2213920336745386e-02
      -4.4253887479284887e-01 4.6845108630963872e-01
      -8.2218407254023684e-02 1.2913480850137182e-01
      6.9926342552358889e-01 2.1665427646334873e-01
      -2.3863707605620219e-01 8.5629347353386537e-02
      -6.6241064853482273e-02 1.1914874112870484e+00
      -5.7123327124379931e-02 3.9783484764272414e-01
      4.5412163446749260e-01 5.8174171116481377e-01
      -7.1093182191622417e-02 3.1575439411113104e-01
      -1.5092521107513084e+00 2.9019444192045535e-01
      4.1878472975212577e-01 -7.2020545103456249e-02
      -2.8519047689287041e-01 3.2806078565289382e-01
      -3.5251773079733673e-01 2.2476042419009598e-01
      1.3811215602588103e-01 -5.1125126264615706e-01
      6.4287802199430744e-01 3.4500344737847533e-01
      -1.7628718738227170e-01 1.5279130956882513e-02
      8.9114205051882989e-01 -7.0956723239767350e-01
      -3.4870111281622584e-01 1.7225143258299769e-01
      -8.7526080994124608e-02 2.6495416033684305e-01
      -1.0846489207888719e+00 4.6570075483932194e-01
      1.1561198894427727e+00 -6.1171383747106034e-01
      -1.1719547241673216e-01 -1.3083226470023279e-01
      7.5691674314993196e-01 1.7437033091372015e-01
      -8.7557498242238282e-02 -3.1076292038930697e-01
      -2.0481116201283522e-01 -5.6178373704948226e-01
      -5.6128883769963578e-01 -1.6966693081648876e-01
      4.5695344213492345e-01 -6.2032924407953383e-01
      -1.1977591080907951e-01 -1.1023900470721625e-02
      2.8293779916368073e-02 2.5612789601234232e-01
      4.0087082158124454e-02 1.0298086321517502e-02
      -1.6082898182108576e-01 -2.5178689616940481e-01
      -5.0532008203975194e-02 7.9266372755551595e-02
      1.7943174403581094e-01 1.8096075690122532e-01
      -3.6397719210009388e-01 1.0446845955763135e+00
      -7.5193976270135343e-01 -9.6454001380685845e-03
      2.1010490854604607e+00 -2.9474148366796443e-01
      4.5454049333116836e-01 -2.8606015607947594e-01
      -1.0993432361566885e-01 -2.3823293518271890e-01
      -2.5723075243035287e-01 5.4523624486900724e-01
      -2.0232494178669846e-01 6.4441899613302156e-01
      -4.0989876031410166e-01 3.2234752678494605e-01
      -8.5272202413616327e-01 1.3837772689344324e-01
      4.2211981467666047e-03 2.7095640699195583e-01
      -5.3488435037387771e-01 -2.0050252992720149e-01
      1.3771820989474975e-01 5.4632924005549727e-02
      7.9591568687475156e-01 -9.6574394372947958e-01
      2.7964565898280380e-01 4.5891765203252588e-01
      3.7633554816014697e-01 -1.9328010185688660e-01
      -9.6001873023417686e-02 -3.6549981090248179e-02
      -2.1615830609176395e-01 2.0362884783396840e-01
      2.2326702436563306e-01 -6.8364265994818507e-01
      -1.3793072454928421e+00 1.1349437082461333e-01
      8.5731920043373155e-01 1.9330280932464847e-01
      -1.1149098323874797e-01 1.4825166233826964e-01
      5.5435904531228886e-01 -5.1509285795179505e-01
      2.4946938774767419e-01 1.6393468175827663e-01
      -1.3312448447046324e-01 -1.0142440678021328e-01
      -5.3897505434481341e-01 8.8631782558189431e-02
      2.9035398539318084e-02 -1.6994037695802067e-01
      -1.8221316307549992e-01 -7.0923722839153780e-01
      -1.1953900699002711e-01 2.6905586179476393e-01
      -3.3694431379026907e-01 -3.8970026253573042e-01
      -2.5142272409425723e-03 -2.5407877094508968e-01
      -4.9001219724045086e-01 -3.5529017286888737e-01
      -1.9532964587490664e-01 -2.3470053912659012e-02
      -1.4800013138630555e-01 1.6177452447717633e+00
      2.6142952717587137e-01 3.5962790818959800e-01
      2.3580707568663875e-01 4.6485640799474420e-01
      -2.3854696695280081e-01 2.7878508649862122e-01
      -4.2446226939152815e-01 -2.1531167886507364e-02
      -3.8827785117324493e-01 8.3364450678067026e-02
      -3.2182872271263052e-01 -2.9174453258056805e-03
      -3.1003480788228499e-01 6.7382762939159083e-02
      3.0232440003642495e-02 1.3881139429588607e-01
      -3.5072294465024484e-01 -4.3944405466342307e-01
      -2.9992168656644447e-01 -3.5708766008529658e-01
      2.8505086163173169e-03 1.6975379948981156e-01
      1.8266102047155033e-01 -5.4696889541010629e-01
      4.5108595824027781e-01 -5.7213597045607656e-01
      -1.7030826892944426e-01 -1.7413435597569651e-01
      -1.6321768716348464e-01 2.1520034382184669e-01
      2.8645530096443561e-01 -5.2386536616518486e-01
      6.8324582912523399e-02 -6.5765139414647744e-01
      -9.6443484761237944e-02 -1.3248818931634959e-02
      -3.2052120361236541e-01 8.8247373289833356e-02
      -3.0759573982983873e-02 5.3337331021151187e-03
      1.1527898245215697e-01 -4.2398023432828608e-01
      -2.7862113474193539e-01 2.1054403303173289e-01
      3.9564846067305703e-01 4.7622874510498175e-01
      -6.4934396520114956e-01 -5.4826523982608821e-01
      1.6700865320463072e+00 -4.6194829472814031e-02
      1.0224567463762557e-01 -5.6456057925145364e-01
      -4.4229375682588314e-02 5.9343037585247498e-02
      2.2535357953109444e-01 -2.3425800854803389e-01
      1.6237973172509848e-01 9.8505350838997918e-02
      -2.9865921333521800e-01 -4.1321671172514507e-01
      4.5370562532777346e-02 3.7539523861411228e-01
      -2.5027647384194418e-01 -2.5691319483577024e-01
      -4.2023103858001748e-01 2.2318099736454045e-01
      5.2104143535863534e-01 6.0076943303497121e-01
      -1.7973356179001265e-01 1.6306283052541803e-01
      -8.3832758688493636e-01 4.6584017820568246e-01
      8.7106658931356551e-02 2.8139084661420855e-01
      -3.5568193106912549e-01 9.9931468082360631e-01
      -2.0926752365086565e-01 -4.1905937394675291e-03
      -7.0371042793489813e-01 1.2384570721764400e-01
      -1.6229903606929857e-02 2.3592192658356309e-01
      1.0055087218777391e-01 1.8644418699272863e-01
      2.5629198534200853e-01 1.6844587255016921e-01
      -4.5679659738596307e-02 -5.7003014824120868e-01
      6.9836319415391923e-02 -1.8532298648878545e-01
      -3.1797858243838667e-01 -2.7180083307469316e-01
      -9.8746088386484543e-01 -3.9946139114183082e-01
      7.0058825245864681e-02 -3.3363883339978878e-01
      5.5897125909450107e-01 -3.6487521919227700e-01
      -5.7272305596097584e-01 1.3705896752308913e-01
      -1.6799192203090862e-01 -1.0156429740600732e-01
      -5.2181230074320392e-02 6.0781256558070940e-01
      1.0678621307484535e+00 -1.9322960101064038e-01
      -1.9943790942106740e-01 3.0538590272272953e-01
      8.4803812951317101e-02 -9.2305765923108712e-02
      -3.2765397954589603e-01 2.6690050376850177e-01
      5.2911429264049437e-01 -1.0516446842103656e-01
      -2.1710928356278686e-01 -2.5228948213022129e-01
      2.4424901601648635e-01 6.5613618713120569e-01
      7.8220650504763928e-02 -2.7949142278359185e-01
      7.7583121860865814e-02 -1.0345827495661106e-01
      -2.3603592583158972e-02 -1.8420596995957142e-01
      -1.0384358681206279e-01 2.8604850672822613e-01
      -2.9769096959789976e-01 7.6942426331271019e-01
      -2.9773668394139280e-01 -2.2531227279526191e-02
      -4.4530014661210123e-03 5.4438123085454670e-01
      1.1091133293018644e-01 7.4618941706667219e-01
      -4.8003595489442101e-02 2.5401083130895313e-01
      2.6585012636078381e-01 2.4169148098399659e-01
      2.3145459456196105e-01 4.3712678919982961e-01
      1.6943131478558257e-01 -1.2281845516701231e-01
      -2.6474757865699622e-01 2.6150887799123024e-01
      1.2417921303475721e-01 5.6188333621657005e-01
      -8.2022860901128902e-01 1.5418893225432297e-02
      8.7367276341538513e-02 -8.6568147411797677e-02
      8.7954666261966108e-01 -3.3647865087421180e-01
      1.9088013002662413e-01 -5.9132603928450411e-01
      -2.7098528468724944e-03 1.1547786083528552e-01
      -8.6765573620031144e-01 6.8729744867869818e-03
      -4.1920808776101759e-01 -2.3315937393065759e-02
      6.4720494059304823e-01 3.1672338742214123e-01
      -2.3515032763506807e-01 -5.5460211988581776e-01
      -2.3719208572059494e-01 -1.6363402957235962e-01
      1.0291179515009456e-01 -5.3112835199449793e-01
      4.8071115440126144e-01 6.1917028292612676e-02
      8.7836232358303266e-03 -8.5069277534121079e-02
      1.2732365092504352e-01 1.0917235267412510e-01
      -5.8174445143868714e-01 -6.0993203775527242e-02
      8.5212093476650219e-01 -7.6737809713123228e-01
      1.6785314174632426e-01 -3.4438321060376054e-01
      1.1552445815979934e-02 1.3465167625957420e-02
      -1.1774661854098627e+00 1.1858059822489364e-01
      -4.8870737311548756e-02 5.3675819712458613e-02
      -1.7589464124458823e-01 -6.7050508718102447e-02
      -9.0941430251676614e-02 -4.2675053042645086e-02
      1.0884453413231455e-01 -2.6830335472634279e-02
      -3.9675714879734653e-01 -2.7361259098345603e-01
      8.7834445511634229e-01 -5.7948187546145280e-01
      3.1550899406011768e-01 -1.3731762047074613e-02
      -1.5774924763494053e-01 -5.5912499936776619e-02
      -2.6937716115817617e-01 3.9434617909362790e-01
      4.0143410981552541e-01 7.7739112175576919e-01
      3.4745158533388526e-01 1.9153557912987487e-01
      -5.6540671930708365e-02 -1.8031313138893060e-01
      5.6704791926389567e-02 -2.9751799158724351e-01
      -8.2510961715097253e-02 -1.0771694779998377e-02
      7.3986180122518438e-02 -1.7934830056515480e-01
      2.7139298043220755e-01 -5.5391533270279270e-01
      1.0872445465588858e-01 -4.8244536443163108e-02
      -1.0699620285333435e-01 1.0219774557778094e-01
      -1.1421914179018500e+00 -1.7969454850504718e-01
      -2.3972897044077771e-01 -7.6756384874487160e-02
      4.3754550517260782e-01 1.1671239071842995e-01
      1.5865789615504058e-01 1.0991501971687803e-01
      -2.1511011862151877e-01 -1.6010378427838803e-01
      -1.1027429727346831e-01 -1.4274986969334974e-01
      -1.0337842271699014e-02 -5.0798311076964642e-01
      1.8981894981212413e-01 -6.5047791197397495e-02
      -6.0033774921783534e-01 4.9161575889687982e-02
      -7.4092801320313995e-01 7.0733995129077437e-02
      6.7133749569312784e-01 -1.1753139368827177e+00
      -5.8609638742553496e-02 -5.2908636858018399e-01
      -1.3238275692185708e-01 -3.8355889681236621e-01
      -7.5483930066949134e-01 -2.2391438223250870e-01
      2.1295957969745810e-01 2.7292685413323869e-01
      -6.3430286542332170e-01 -4.6971501356659548e-03
      3.1808544762302229e-02 -5.1298783503431844e-01
      3.2734184325901566e-01 -4.8339864091704587e-01
      -1.1390327976696185e-01 1.7744497882223778e-01
      1.8936740335771329e-01 -5.3296335928237305e-03
      -1.5647899966878879e-02 1.4239478337603556e-01
      6.1476738487724225e-01 5.8730972218691890e-01
      -9.1769936347304049e-01 -1.0204610664860622e-01
