<?xml version="1.0"?>
<opencv_storage>
<opencv_ml_nbayes>
  <format>3</format>
  <var_count>64</var_count>
  <var_all>64</var_all>
  <cls_labels type_id="opencv-matrix">
    <rows>10</rows>
    <cols>1</cols>
    <dt>i</dt>
    <data>
      0 1 2 3 4 5 6 7 8 9</data></cls_labels>
  <count>
    <_ type_id="opencv-matrix">
      <rows>1</rows>
      <cols>64</cols>
      <dt>i</dt>
      <data>
        500 500 500 500 500 500 500 500 500 500 500 500 500 500 500 500
        500 500 500 500 500 500 500 500 500 500 500 500 500 500 500 500
        500 500 500 500 500 500 500 500 500 500 500 500 500 500 500 500
        500 500 500 500 500 500 500 500 500 500 500 500 500 500 500 500</data></_>
    <_ type_id="opencv-matrix">
      <rows>1</rows>
      <cols>64</cols>
      <dt>i</dt>
      <data>
        500 500 500 500 500 500 500 500 500 500 500 500 500 500 500 500
        500 500 500 500 500 500 500 500 500 500 500 500 500 500 500 500
        500 500 500 500 500 500 500 500 500 500 500 500 500 500 500 500
        500 500 500 500 500 500 500 500 500 500 500 500 500 500 500 500</data></_>
    <_ type_id="opencv-matrix">
      <rows>1</rows>
      <cols>64</cols>
      <dt>i</dt>
      <data>
        500 500 500 500 500 500 500 500 500 500 500 500 500 500 500 500
        500 500 500 500 500 500 500 500 500 500 500 500 500 500 500 500
        500 500 500 500 500 500 500 500 500 500 500 500 500 500 500 500
        500 500 500 500 500 500 500 500 500 500 500 500 500 500 500 500</data></_>
    <_ type_id="opencv-matrix">
      <rows>1</rows>
      <cols>64</cols>
      <dt>i</dt>
      <data>
        500 500 500 500 500 500 500 500 500 500 500 500 500 500 500 500
        500 500 500 500 500 500 500 500 500 500 500 500 500 500 500 500
        500 500 500 500 500 500 500 500 500 500 500 500 500 500 500 500
        500 500 500 500 500 500 500 500 500 500 500 500 500 500 500 500</data></_>
    <_ type_id="opencv-matrix">
      <rows>1</rows>
      <cols>64</cols>
      <dt>i</dt>
      <data>
        500 500 500 500 500 500 500 500 500 500 500 500 500 500 500 500
        500 500 500 500 500 500 500 500 500 500 500 500 500 500 500 500
        500 500 500 500 500 500 500 500 500 500 500 500 500 500 500 500
        500 500 500 500 500 500 500 500 500 500 500 500 500 500 500 500</data></_>
    <_ type_id="opencv-matrix">
      <rows>1</rows>
      <cols>64</cols>
      <dt>i</dt>
      <data>
        500 500 500 500 500 500 500 500 500 500 500 500 500 500 500 500
        500 500 500 500 500 500 500 500 500 500 500 500 500 500 500 500
        500 500 500 500 500 500 500 500 500 500 500 500 500 500 500 500
        500 500 500 500 500 500 500 500 500 500 500 500 500 500 500 500</data></_>
    <_ type_id="opencv-matrix">
      <rows>1</rows>
      <cols>64</cols>
      <dt>i</dt>
      <data>
        500 500 500 500 500 500 500 500 500 500 500 500 500 500 500 500
        500 500 500 500 500 500 500 500 500 500 500 500 500 500 500 500
        500 500 500 500 500 500 500 500 500 500 500 500 500 500 500 500
        500 500 500 500 500 500 500 500 500 500 500 500 500 500 500 500</data></_>
    <_ type_id="opencv-matrix">
      <rows>1</rows>
      <cols>64</cols>
      <dt>i</dt>
      <data>
        500 500 500 500 500 500 500 500 500 500 500 500 500 500 500 500
        500 500 500 500 500 500 500 500 500 500 500 500 500 500 500 500
        500 500 500 500 500 500 500 500 500 500 500 500 500 500 500 500
        500 500 500 500 500 500 500 500 500 500 500 500 500 500 500 500</data></_>
    <_ type_id="opencv-matrix">
      <rows>1</rows>
      <cols>64</cols>
      <dt>i</dt>
      <data>
        500 500 500 500 500 500 500 500 500 500 500 500 500 500 500 500
        500 500 500 500 500 500 500 500 500 500 500 500 500 500 500 500
        500 500 500 500 500 500 500 500 500 500 500 500 500 500 500 500
        500 500 500 500 500 500 500 500 500 500 500 500 500 500 500 500</data></_>
    <_ type_id="opencv-matrix">
      <rows>1</rows>
      <cols>64</cols>
      <dt>i</dt>
      <data>
        500 500 500 500 500 500 500 500 500 500 500 500 500 500 500 500
        500 500 500 500 500 500 500 500 500 500 500 500 500 500 500 500
        500 500 500 500 500 500 500 500 500 500 500 500 500 500 500 500
        500 500 500 500 500 500 500 500 500 500 500 500 500 500 500 500</data></_></count>
  <sum>
    <_ type_id="opencv-matrix">
      <rows>1</rows>
      <cols>64</cols>
      <dt>d</dt>
      <data>
        31. 96. 463. 1270. 1719. 1596. 860. 317. 60. 224. 752. 1218.
        1470. 1510. 1196. 815. 248. 724. 1075. 855. 367. 499. 1432.
        1625. 988. 1241. 819. 204. 32. 101. 1336. 2328. 1993. 1401. 244.
        35. 34. 189. 1437. 2032. 2631. 1288. 110. 49. 186. 964. 1372.
        835. 1602. 1771. 1265. 1249. 1545. 1316. 463. 129. 356. 1223.
        2374. 2252. 1292. 462. 81. 20.</data></_>
    <_ type_id="opencv-matrix">
      <rows>1</rows>
      <cols>64</cols>
      <dt>d</dt>
      <data>
        770. 649. 826. 950. 1109. 1502. 2132. 2565. 660. 396. 509. 544.
        652. 1276. 1473. 1755. 649. 400. 445. 672. 1171. 1496. 570. 989.
        703. 424. 485. 1033. 1721. 719. 444. 750. 757. 431. 709. 1758.
        975. 463. 371. 625. 958. 582. 1390. 1261. 619. 424. 348. 594.
        1887. 1438. 1258. 640. 584. 539. 466. 740. 2323. 2103. 1535.
        1178. 1055. 902. 647. 816.</data></_>
    <_ type_id="opencv-matrix">
      <rows>1</rows>
      <cols>64</cols>
      <dt>d</dt>
      <data>
        418. 783. 1301. 1773. 1812. 1428. 763. 277. 638. 518. 693. 863.
        1014. 877. 809. 725. 329. 158. 191. 316. 579. 662. 770. 852. 98.
        78. 138. 387. 633. 673. 762. 467. 188. 269. 534. 917. 902. 946.
        588. 343. 956. 756. 1008. 1386. 1382. 1074. 707. 855. 2141.
        1579. 1279. 1216. 942. 1021. 1102. 1424. 1395. 1954. 1590. 1046.
        643. 585. 717. 880.</data></_>
    <_ type_id="opencv-matrix">
      <rows>1</rows>
      <cols>64</cols>
      <dt>d</dt>
      <data>
        569. 781. 1418. 1975. 2147. 1949. 1216. 664. 803. 597. 622. 844.
        993. 1111. 1367. 1576. 292. 195. 265. 399. 748. 1131. 1025. 750.
        241. 267. 560. 1125. 1678. 1819. 787. 408. 228. 223. 352. 441.
        633. 1091. 1294. 1099. 779. 235. 154. 159. 333. 770. 1435. 1723.
        1844. 1311. 1016. 1069. 1357. 1520. 1086. 919. 880. 1294. 2030.
        2212. 1698. 1007. 434. 194.</data></_>
    <_ type_id="opencv-matrix">
      <rows>1</rows>
      <cols>64</cols>
      <dt>d</dt>
      <data>
        283. 568. 699. 604. 334. 512. 1224. 2076. 490. 579. 671. 413.
        216. 411. 1275. 1194. 884. 1009. 894. 332. 344. 864. 1165. 700.
        1686. 1556. 1025. 701. 887. 1400. 997. 771. 1671. 1375. 1366.
        1414. 1609. 1433. 844. 783. 562. 334. 499. 812. 839. 703. 497.
        446. 174. 218. 362. 670. 608. 453. 447. 329. 240. 404. 706. 974.
        894. 775. 802. 637.</data></_>
    <_ type_id="opencv-matrix">
      <rows>1</rows>
      <cols>64</cols>
      <dt>d</dt>
      <data>
        150. 313. 681. 1238. 1550. 1865. 2083. 2497. 369. 543. 920.
        1228. 1246. 864. 550. 919. 595. 731. 1005. 851. 294. 146. 96.
        115. 705. 792. 1275. 1186. 874. 585. 283. 166. 371. 368. 596.
        761. 737. 613. 544. 505. 829. 249. 200. 489. 621. 616. 664. 773.
        1861. 1214. 1131. 1190. 1063. 849. 471. 342. 1026. 1705. 2207.
        1966. 1180. 540. 182. 93.</data></_>
    <_ type_id="opencv-matrix">
      <rows>1</rows>
      <cols>64</cols>
      <dt>d</dt>
      <data>
        104. 252. 467. 879. 1362. 1522. 1144. 775. 117. 277. 532. 868.
        1023. 648. 265. 178. 269. 503. 894. 1000. 526. 172. 92. 96. 762.
        883. 1100. 629. 320. 285. 245. 313. 1743. 1335. 947. 749. 939.
        963. 987. 1350. 2411. 1643. 959. 901. 841. 984. 1436. 1995.
        1754. 1431. 1425. 1207. 1148. 1230. 1092. 944. 567. 1140. 2215.
        2478. 2151. 1173. 380. 156.</data></_>
    <_ type_id="opencv-matrix">
      <rows>1</rows>
      <cols>64</cols>
      <dt>d</dt>
      <data>
        1550. 1695. 1938. 1983. 2033. 2157. 2166. 2089. 1491. 1035. 841.
        637. 617. 1066. 1605. 1824. 657. 348. 201. 177. 277. 1055. 1250.
        1132. 326. 196. 185. 242. 899. 1201. 833. 702. 220. 168. 256.
        784. 994. 912. 476. 327. 145. 183. 623. 777. 748. 559. 276. 207.
        367. 603. 682. 630. 581. 424. 232. 177. 922. 978. 791. 898. 799.
        629. 329. 181.</data></_>
    <_ type_id="opencv-matrix">
      <rows>1</rows>
      <cols>64</cols>
      <dt>d</dt>
      <data>
        174. 324. 975. 1862. 2441. 2222. 1319. 851. 728. 826. 1099.
        1091. 775. 1073. 1459. 1935. 1047. 958. 949. 656. 535. 1097.
        1235. 1308. 488. 623. 1270. 1497. 1608. 1253. 452. 302. 219.
        526. 1568. 1664. 1265. 715. 303. 207. 963. 1188. 982. 857. 645.
        557. 555. 574. 1938. 1485. 1037. 1084. 824. 690. 555. 544. 1023.
        1727. 2117. 1856. 1288. 782. 421. 198.</data></_>
    <_ type_id="opencv-matrix">
      <rows>1</rows>
      <cols>64</cols>
      <dt>d</dt>
      <data>
        242. 490. 1490. 2532. 2713. 2419. 1945. 1234. 1013. 1197. 1591.
        793. 507. 927. 1559. 1921. 2277. 1828. 838. 540. 669. 1206.
        1561. 1582. 1582. 1327. 1234. 1300. 1575. 1658. 845. 747. 456.
        461. 640. 972. 1157. 954. 585. 468. 218. 229. 554. 758. 788.
        567. 555. 468. 326. 558. 671. 695. 544. 531. 555. 588. 898. 845.
        863. 924. 778. 830. 827. 722.</data></_></sum>
  <productsum>
    <_ type_id="opencv-matrix">
      <rows>64</rows>
      <cols>64</cols>
      <dt>d</dt>
      <data>
        345. 336. 326. 316. 304. 286. 284. 305. 296. 264. 286. 256. 274.
        280. 266. 284. 284. 276. 274. 256. 256. 262. 286. 296. 338. 276.
        256. 256. 256. 256. 268. 328. 308. 264. 256. 256. 256. 256. 262.
        358. 326. 264. 256. 256. 256. 256. 300. 275. 320. 290. 274. 268.
        280. 286. 266. 256. 305. 288. 316. 333. 266. 266. 256. 256. 336.
        662. 741. 669. 523. 310. 272. 284. 402. 509. 347. 340. 488. 445.
        326. 280. 591. 427. 307. 267. 274. 416. 454. 388. 666. 373. 266.
        256. 256. 256. 438. 586. 625. 379. 267. 256. 256. 256. 334. 855.
        530. 447. 297. 276. 256. 272. 535. 570. 343. 487. 446. 336. 395.
        490. 427. 336. 284. 332. 564. 670. 601. 511. 291. 256. 326. 741.
        2953. 2632. 1762. 860. 363. 284. 485. 1371. 1451. 1017. 1361.
        1520. 837. 400. 1335. 1643. 580. 329. 350. 904. 1656. 1005.
        2475. 1236. 337. 266. 257. 318. 1230. 2422. 2445. 997. 305. 256.
        256. 311. 1105. 2749. 2094. 1316. 423. 298. 280. 618. 1688.
        1757. 809. 1616. 1578. 1139. 1290. 1664. 1113. 500. 309. 656.
        1830. 2372. 2100. 1213. 381. 278. 316. 669. 2632. 8172. 5517.
        2733. 1112. 397. 506. 1300. 3838. 3615. 3149. 3552. 2344. 1117.
        1452. 3494. 2630. 694. 732. 1744. 4233. 2759. 4673. 3973. 809.
        370. 272. 389. 3633. 6289. 6978. 2825. 367. 256. 256. 447. 3277.
        6518. 6339. 3099. 454. 295. 419. 1700. 4054. 3549. 2914. 4358.
        3391. 2661. 3499. 4122. 2194. 823. 601. 2183. 5439. 6664. 4761.
        2366. 637. 272. 304. 523. 1762. 5517. 11037. 5968. 2033. 653.
        397. 991. 3466. 5353. 4712. 4779. 4081. 2341. 1177. 3458. 4576.
        1886. 710. 1454. 5151. 5677. 4541. 5358. 2027. 383. 318. 434.
        4436. 8920. 8544. 4687. 494. 273. 312. 721. 4947. 7828. 9020.
        4040. 423. 334. 603. 2931. 5504. 2862. 5133. 6161. 4111. 3635.
        5412. 5341. 1857. 553. 1044. 4138. 8140. 9200. 5712. 1777. 449.
        257. 286. 310. 860. 2733. 5968. 9890. 3553. 1105. 321. 627.
        1886. 3920. 4715. 4783. 5035. 3565. 652. 1864. 4174. 3608. 1038.
        910. 4391. 7103. 2496. 4281. 3361. 631. 316. 552. 4051. 7978.
        6299. 5158. 898. 349. 305. 961. 5168. 5711. 9101. 4063. 505.
        376. 981. 3936. 4311. 1632. 6053. 5787. 3973. 4239. 5326. 4174.
        1063. 328. 1526. 4973. 8379. 7054. 4089. 1067. 325. 256. 284.
        272. 363. 1112. 2033. 3553. 4972. 1844. 286. 331. 768. 1620.
        2375. 2341. 3322. 3492. 402. 746. 1815. 2594. 1200. 767. 2122.
        4065. 922. 1607. 2380. 1030. 267. 464. 2439. 3624. 2346. 2917.
        1081. 349. 297. 842. 2843. 2380. 4507. 2597. 506. 356. 861.
        2515. 1932. 813. 3711. 3285. 2247. 2687. 2948. 1883. 610. 302.
        1368. 3065. 4632. 3481. 1614. 599. 274. 256. 305. 284. 284. 397.
        653. 1105. 1844. 1947. 284. 259. 309. 570. 985. 1097. 1209.
        1715. 302. 300. 666. 1165. 711. 530. 746. 1634. 341. 558. 1112.
        726. 268. 355. 1078. 1363. 704. 1203. 699. 288. 277. 602. 1085.
        736. 1621. 1113. 368. 297. 608. 1141. 666. 392. 1738. 1375. 897.
        1230. 1146. 590. 332. 277. 1073. 1633. 1926. 1067. 525. 345.
        261. 256. 296. 402. 485. 506. 397. 321. 286. 284. 448. 400. 313.
        325. 367. 375. 308. 272. 472. 292. 286. 274. 256. 296. 374. 364.
        444. 280. 280. 256. 256. 256. 321. 485. 432. 330. 280. 256. 256.
        256. 292. 582. 352. 374. 284. 272. 256. 260. 411. 406. 298. 344.
        350. 317. 334. 350. 347. 293. 284. 293. 407. 461. 420. 399. 277.
        256. 264. 509. 1371. 1300. 991. 627. 331. 259. 400. 1010. 756.
        594. 743. 776. 580. 319. 949. 923. 286. 277. 315. 563. 862. 614.
        1443. 583. 287. 262. 257. 300. 704. 1251. 1175. 582. 284. 256.
        256. 270. 613. 1452. 1038. 778. 348. 284. 259. 421. 895. 1058.
        468. 855. 850. 665. 724. 901. 727. 379. 259. 429. 947. 1213.
        1203. 778. 301. 257. 286. 347. 1451. 3838. 3466. 1886. 768. 309.
        313. 756. 3264. 2459. 1941. 2157. 1562. 837. 860. 2722. 1380.
        311. 444. 1076. 2467. 1968. 3305. 2486. 421. 306. 267. 337.
        2058. 3858. 4537. 1456. 278. 256. 256. 335. 1960. 4098. 3723.
        1852. 318. 259. 295. 1023. 2608. 2153. 1794. 2768. 2196. 1699.
        2228. 2664. 1414. 537. 390. 1262. 3150. 4103. 2840. 1357. 468.
        279. 256. 340. 1017. 3615. 5353. 3920. 1620. 570. 325. 594.
        2459. 5314. 4114. 3434. 2721. 1754. 662. 2270. 3918. 1246. 599.
        1483. 3661. 3873. 2791. 4144. 1417. 314. 270. 378. 3450. 5932.
        6125. 3558. 395. 256. 267. 586. 3557. 5562. 6865. 2916. 386.
        285. 570. 2144. 3794. 2601. 3784. 4487. 3187. 2906. 3785. 3713.
        1546. 583. 847. 3101. 5783. 6104. 3873. 1533. 481. 274. 274.
        488. 1361. 3149. 4712. 4715. 2375. 985. 367. 743. 1941. 4114.
        6530. 4995. 3091. 2274. 772. 2032. 3781. 3058. 836. 1617. 4539.
        4675. 2714. 4064. 2789. 544. 300. 482. 4354. 6837. 5848. 4686.
        775. 306. 320. 761. 4541. 6057. 8109. 3993. 526. 357. 783. 3022.
        4184. 2774. 4929. 5272. 4049. 3953. 4796. 4036. 1514. 590. 1209.
        3948. 7150. 6724. 3865. 1524. 458. 268. 280. 445. 1520. 3552.
        4779. 4783. 2341. 1097. 375. 776. 2157. 3434. 4995. 6608. 3797.
        2316. 839. 2098. 3331. 3255. 1290. 1235. 5104. 4968. 2974. 3836.
        3053. 858. 299. 439. 4201. 7473. 5852. 4492. 1021. 311. 275.
        774. 4647. 6161. 8161. 4193. 572. 324. 763. 3245. 4373. 2504.
        5335. 5630. 4044. 4064. 5044. 4135. 1473. 560. 1298. 3976. 7574.
        6869. 3861. 1441. 368. 259. 266. 326. 837. 2344. 4081. 5035.
        3322. 1209. 308. 580. 1562. 2721. 3091. 3797. 5202. 3246. 555.
        1484. 2656. 2815. 1227. 713. 3412. 5473. 1958. 2757. 2746. 969.
        298. 444. 3056. 5788. 4228. 3784. 1004. 299. 300. 857. 3800.
        4041. 6600. 3467. 434. 332. 869. 3228. 3112. 1282. 4550. 4742.
        3211. 3513. 4078. 2913. 884. 346. 1140. 3505. 6389. 5074. 2532.
        855. 300. 256. 284. 280. 400. 1117. 2341. 3565. 3492. 1715. 272.
        319. 837. 1754. 2274. 2316. 3246. 4591. 384. 763. 1937. 2304.
        1010. 691. 1412. 4509. 1003. 1658. 2248. 819. 281. 442. 2151.
        3562. 2431. 2908. 839. 332. 287. 858. 2753. 2115. 4628. 2408.
        452. 317. 836. 2659. 1730. 766. 3400. 3188. 2278. 2684. 2959.
        1676. 504. 293. 1200. 2874. 4468. 3283. 1324. 495. 260. 256.
        284. 591. 1335. 1452. 1177. 652. 402. 302. 472. 949. 860. 662.
        772. 839. 555. 384. 1458. 958. 319. 282. 329. 605. 882. 650.
        1585. 516. 305. 274. 259. 293. 748. 1281. 1374. 580. 261. 256.
        256. 269. 650. 1618. 1031. 895. 355. 284. 259. 391. 918. 1227.
        529. 794. 946. 733. 709. 931. 818. 436. 303. 464. 970. 1280.
        1314. 955. 333. 259. 276. 427. 1643. 3494. 3458. 1864. 746. 300.
        292. 923. 2722. 2270. 2032. 2098. 1484. 763. 958. 3090. 1117.
        384. 425. 1114. 2347. 1864. 3589. 2354. 340. 286. 266. 354.
        1919. 3530. 4383. 1235. 261. 256. 256. 332. 1881. 4062. 3380.
        1764. 345. 258. 283. 910. 2575. 2037. 1644. 2621. 2120. 1584.
        2104. 2618. 1375. 537. 367. 1219. 3038. 3931. 2958. 1390. 446.
        276. 274. 307. 580. 2630. 4576. 4174. 1815. 666. 286. 286. 1380.
        3918. 3781. 3331. 2656. 1937. 319. 1117. 4547. 1681. 638. 1162.
        3288. 3733. 1448. 3937. 1598. 280. 278. 414. 3177. 5254. 5152.
        3760. 376. 264. 264. 651. 3446. 4479. 6597. 2641. 355. 281. 648.
        2283. 3317. 1760. 3710. 4065. 2813. 2834. 3665. 3162. 1061. 429.
        821. 3002. 5483. 5264. 2964. 974. 335. 256. 256. 267. 329. 694.
        1886. 3608. 2594. 1165. 274. 277. 311. 1246. 3058. 3255. 2815.
        2304. 282. 384. 1681. 3799. 1305. 844. 2507. 3709. 554. 1450.
        3230. 802. 290. 428. 2610. 3905. 2072. 3389. 1011. 314. 276.
        752. 3087. 2771. 4954. 2842. 430. 321. 783. 2578. 2091. 916.
        3936. 3295. 2389. 2813. 3191. 1910. 537. 347. 1158. 3016. 4669.
        3326. 1587. 555. 308. 261. 256. 274. 350. 732. 710. 1038. 1200.
        711. 256. 315. 444. 599. 836. 1290. 1227. 1010. 329. 425. 638.
        1305. 1539. 1109. 1179. 1372. 540. 713. 1240. 898. 297. 453.
        1389. 1462. 1045. 1245. 851. 309. 284. 432. 1353. 1464. 1851.
        1401. 424. 315. 393. 1150. 1089. 837. 1668. 1478. 1038. 1281.
        1443. 1023. 507. 342. 761. 1269. 2051. 1652. 949. 551. 297. 260.
        262. 416. 904. 1744. 1454. 910. 767. 530. 296. 563. 1076. 1483.
        1617. 1235. 713. 691. 605. 1114. 1162. 844. 1109. 2141. 1397.
        925. 1374. 1464. 862. 620. 281. 478. 1832. 1802. 2283. 1459.
        587. 274. 256. 391. 1585. 2755. 2573. 1577. 436. 277. 322. 893.
        1744. 1778. 1515. 1916. 1451. 1410. 1627. 1676. 1001. 510. 513.
        1103. 2308. 2551. 1812. 1018. 402. 269. 286. 454. 1656. 4233.
        5151. 4391. 2122. 746. 374. 862. 2467. 3661. 4539. 5104. 3412.
        1412. 882. 2347. 3288. 2507. 1179. 1397. 6048. 3886. 3134. 3959.
        2365. 767. 300. 414. 4435. 6887. 6078. 4133. 872. 291. 300. 847.
        4093. 5920. 7522. 4051. 465. 341. 760. 2922. 4091. 2569. 4470.
        5243. 3987. 3712. 4571. 4005. 1556. 605. 1041. 3348. 6950. 6766.
        4055. 1554. 467. 270. 296. 388. 1005. 2759. 5677. 7103. 4065.
        1634. 364. 614. 1968. 3873. 4675. 4968. 5473. 4509. 650. 1864.
        3733. 3709. 1372. 925. 3886. 9955. 2455. 3911. 3588. 1108. 320.
        393. 3821. 8223. 5748. 5104. 1278. 349. 296. 984. 5204. 5162.
        9135. 4333. 545. 365. 1104. 4546. 3936. 1567. 6294. 6101. 4216.
        4842. 5705. 3745. 930. 342. 1826. 5076. 8616. 6811. 3170. 848.
        285. 256. 338. 666. 2475. 4673. 4541. 2496. 922. 341. 444. 1443.
        3305. 2791. 2714. 2974. 1958. 1003. 1585. 3589. 1448. 554. 540.
        1374. 3134. 2455. 6246. 2591. 474. 302. 269. 423. 2383. 5016.
        5840. 1361. 261. 256. 256. 408. 2310. 5603. 4383. 2250. 457.
        287. 306. 1132. 3375. 2883. 2167. 3320. 2892. 2188. 2818. 3366.
        1766. 756. 430. 1463. 3930. 5295. 4081. 1897. 590. 285. 276.
        373. 1236. 3973. 5358. 4281. 1607. 558. 280. 583. 2486. 4144.
        4064. 3836. 2757. 1658. 516. 2354. 3937. 1450. 713. 1464. 3959.
        3911. 2591. 5195. 1161. 334. 293. 418. 3568. 6050. 6577. 3727.
        296. 268. 264. 579. 3656. 5625. 6979. 2902. 410. 272. 565. 2117.
        4073. 2421. 3717. 4500. 3327. 2999. 3989. 4013. 1456. 523. 749.
        2975. 5859. 6251. 3946. 1357. 401. 271. 256. 266. 337. 809.
        2027. 3361. 2380. 1112. 280. 287. 421. 1417. 2789. 3053. 2746.
        2248. 305. 340. 1598. 3230. 1240. 862. 2365. 3588. 474. 1161.
        3511. 779. 278. 390. 2517. 3809. 1658. 3396. 1036. 292. 279.
        730. 3033. 2674. 4709. 2939. 384. 309. 767. 2623. 1995. 903.
        3766. 3174. 2317. 2761. 3093. 1788. 536. 305. 1111. 2801. 4522.
        3246. 1367. 471. 266. 256. 256. 256. 266. 370. 383. 631. 1030.
        726. 256. 262. 306. 314. 544. 858. 969. 819. 274. 286. 280. 802.
        898. 620. 767. 1108. 302. 334. 779. 992. 265. 290. 833. 1002.
        378. 618. 866. 308. 262. 357. 887. 718. 877. 960. 412. 292. 359.
        876. 619. 364. 1177. 1046. 681. 876. 932. 560. 313. 280. 705.
        965. 1318. 866. 417. 364. 277. 258. 256. 256. 257. 272. 318.
        316. 267. 268. 256. 257. 267. 270. 300. 299. 298. 281. 259. 266.
        278. 290. 297. 281. 300. 320. 269. 293. 278. 265. 296. 292. 297.
        330. 321. 316. 268. 261. 292. 270. 289. 298. 335. 274. 269. 284.
        268. 305. 303. 293. 303. 309. 276. 314. 300. 281. 259. 256. 257.
        288. 334. 333. 264. 257. 256. 256. 256. 256. 318. 389. 434. 552.
        464. 355. 256. 300. 337. 378. 482. 439. 444. 442. 293. 354. 414.
        428. 453. 478. 414. 393. 423. 418. 390. 290. 292. 547. 473. 369.
        599. 489. 301. 278. 329. 396. 471. 442. 660. 500. 339. 314. 351.
        468. 386. 417. 539. 516. 489. 532. 485. 391. 309. 278. 315. 436.
        665. 525. 411. 309. 259. 256. 268. 438. 1230. 3633. 4436. 4051.
        2439. 1078. 321. 704. 2058. 3450. 4354. 4201. 3056. 2151. 748.
        1919. 3177. 2610. 1389. 1832. 4435. 3821. 2383. 3568. 2517. 833.
        297. 473. 5548. 5151. 5149. 4198. 923. 315. 327. 892. 4653.
        4301. 6962. 3869. 490. 349. 873. 3292. 3307. 2094. 4598. 4907.
        3651. 3739. 4363. 3242. 1287. 552. 1221. 3521. 6491. 5958. 3262.
        1367. 418. 267. 328. 586. 2422. 6289. 8920. 7978. 3624. 1363.
        485. 1251. 3858. 5932. 6837. 7473. 5788. 3562. 1281. 3530. 5254.
        3905. 1462. 1802. 6887. 8223. 5016. 6050. 3809. 1002. 330. 369.
        5151. 15300. 9928. 6660. 1283. 344. 319. 567. 6957. 10160.
        12937. 5843. 657. 403. 698. 4580. 7102. 3624. 7598. 8515. 5841.
        5807. 7655. 6664. 2036. 654. 1612. 5764. 11424. 11026. 6302.
        1973. 484. 268. 308. 625. 2445. 6978. 8544. 6299. 2346. 704.
        432. 1175. 4537. 6125. 5848. 5852. 4228. 2431. 1374. 4383. 5152.
        2072. 1045. 2283. 6078. 5748. 5840. 6577. 1658. 378. 321. 599.
        5149. 9928. 13051. 4441. 378. 274. 311. 724. 5338. 9587. 10624.
        4137. 502. 318. 663. 2914. 6304. 4480. 5457. 6884. 5316. 4562.
        5935. 6199. 2636. 835. 942. 3947. 8996. 10163. 6463. 2725. 619.
        269. 264. 379. 997. 2825. 4687. 5158. 2917. 1203. 330. 582.
        1456. 3558. 4686. 4492. 3784. 2908. 580. 1235. 3760. 3389. 1245.
        1459. 4133. 5104. 1361. 3727. 3396. 618. 316. 489. 4198. 6660.
        4441. 6173. 720. 312. 306. 888. 4602. 5230. 7939. 4348. 517.
        380. 923. 3420. 3812. 2079. 4838. 4963. 3926. 4133. 4733. 3570.
        1151. 517. 1300. 3850. 6928. 6051. 3372. 1135. 344. 269. 256.
        267. 305. 367. 494. 898. 1081. 699. 280. 284. 278. 395. 775.
        1021. 1004. 839. 261. 261. 376. 1011. 851. 587. 872. 1278. 261.
        296. 1036. 866. 268. 301. 923. 1283. 378. 720. 1086. 308. 272.
        368. 1105. 842. 1079. 1115. 447. 299. 374. 1003. 749. 367. 1312.
        1140. 766. 964. 1110. 672. 289. 266. 724. 1094. 1538. 1098. 500.
        310. 260. 256. 256. 256. 256. 256. 273. 349. 349. 288. 256. 256.
        256. 256. 306. 311. 299. 332. 256. 256. 264. 314. 309. 274. 291.
        349. 256. 268. 292. 308. 261. 278. 315. 344. 274. 312. 308. 301.
        271. 268. 313. 281. 344. 287. 310. 295. 266. 306. 281. 265. 328.
        322. 310. 297. 315. 274. 256. 256. 302. 333. 361. 318. 256. 256.
        256. 256. 256. 256. 256. 256. 312. 305. 297. 277. 256. 256. 256.
        267. 320. 275. 300. 287. 256. 256. 264. 276. 284. 256. 300. 296.
        256. 264. 279. 262. 292. 329. 327. 319. 311. 306. 272. 271. 346.
        283. 272. 272. 295. 300. 297. 320. 285. 290. 288. 299. 295. 282.
        292. 309. 264. 256. 256. 256. 277. 291. 325. 317. 256. 256. 256.
        256. 256. 256. 311. 447. 721. 961. 842. 602. 256. 270. 335. 586.
        761. 774. 857. 858. 269. 332. 651. 752. 432. 391. 847. 984. 408.
        579. 730. 357. 270. 396. 892. 567. 724. 888. 368. 268. 283. 857.
        542. 291. 1170. 798. 293. 316. 696. 863. 264. 268. 999. 922.
        871. 934. 683. 300. 256. 256. 483. 910. 1116. 645. 337. 265.
        256. 256. 262. 334. 1105. 3277. 4947. 5168. 2843. 1085. 292.
        613. 1960. 3557. 4541. 4647. 3800. 2753. 650. 1881. 3446. 3087.
        1353. 1585. 4093. 5204. 2310. 3656. 3033. 887. 289. 471. 4653.
        6957. 5338. 4602. 1105. 313. 272. 542. 6031. 4644. 7824. 4029.
        541. 299. 678. 3864. 3956. 1431. 5269. 5359. 3773. 4142. 5183.
        3720. 874. 379. 1259. 4023. 7232. 6361. 3281. 922. 299. 257.
        358. 855. 2749. 6518. 7828. 5711. 2380. 736. 582. 1452. 4098.
        5562. 6057. 6161. 4041. 2115. 1618. 4062. 4479. 2771. 1464.
        2755. 5920. 5162. 5603. 5625. 2674. 718. 298. 442. 4301. 10160.
        9587. 5230. 842. 281. 272. 291. 4644. 14018. 10885. 5309. 681.
        306. 313. 1934. 7784. 5277. 5326. 7164. 5336. 4324. 5999. 7250.
        3040. 899. 1081. 3708. 8925. 10682. 7131. 2938. 660. 281. 326.
        530. 2094. 6339. 9020. 9101. 4507. 1621. 352. 1038. 3723. 6865.
        8109. 8161. 6600. 4628. 1031. 3380. 6597. 4954. 1851. 2573.
        7522. 9135. 4383. 6979. 4709. 877. 335. 660. 6962. 12937. 10624.
        7939. 1079. 344. 295. 1170. 7824. 10885. 17963. 5880. 525. 364.
        1218. 5362. 7392. 4306. 8991. 9891. 6740. 6813. 8504. 7101.
        2335. 739. 1897. 6881. 13154. 11831. 6233. 2072. 516. 258. 264.
        447. 1316. 3099. 4040. 4063. 2597. 1113. 374. 778. 1852. 2916.
        3993. 4193. 3467. 2408. 895. 1764. 2641. 2842. 1401. 1577. 4051.
        4333. 2250. 2902. 2939. 960. 274. 500. 3869. 5843. 4137. 4348.
        1115. 287. 300. 798. 4029. 5309. 5880. 5566. 492. 318. 748.
        2952. 3575. 2240. 3248. 4571. 4078. 3670. 4247. 3450. 1335. 532.
        865. 2682. 5924. 6000. 3553. 1432. 412. 278. 256. 297. 423. 454.
        423. 505. 506. 368. 284. 348. 318. 386. 526. 572. 434. 452. 355.
        345. 355. 430. 424. 436. 465. 545. 457. 410. 384. 412. 269. 339.
        490. 657. 502. 517. 447. 310. 297. 293. 541. 681. 525. 492. 604.
        337. 283. 406. 542. 520. 423. 409. 497. 556. 559. 459. 353. 317.
        392. 418. 492. 586. 480. 396. 279. 258. 256. 276. 298. 295. 334.
        376. 356. 297. 272. 284. 259. 285. 357. 324. 332. 317. 284. 258.
        281. 321. 315. 277. 341. 365. 287. 272. 309. 292. 284. 314. 349.
        403. 318. 380. 299. 295. 320. 316. 299. 306. 364. 318. 337. 383.
        306. 309. 325. 321. 357. 334. 353. 342. 316. 282. 256. 256. 286.
        333. 350. 316. 280. 256. 256. 256. 256. 256. 280. 419. 603. 981.
        861. 608. 256. 259. 295. 570. 783. 763. 869. 836. 259. 283. 648.
        783. 393. 322. 760. 1104. 306. 565. 767. 359. 268. 351. 873.
        698. 663. 923. 374. 266. 285. 696. 678. 313. 1218. 748. 283.
        306. 818. 829. 288. 256. 1063. 910. 876. 978. 588. 256. 256.
        256. 548. 1037. 1114. 475. 262. 256. 256. 256. 256. 272. 618.
        1700. 2931. 3936. 2515. 1141. 260. 421. 1023. 2144. 3022. 3245.
        3228. 2659. 391. 910. 2283. 2578. 1150. 893. 2922. 4546. 1132.
        2117. 2623. 876. 305. 468. 3292. 4580. 2914. 3420. 1003. 306.
        290. 863. 3864. 1934. 5362. 2952. 406. 309. 829. 4266. 1586.
        465. 4110. 3844. 2822. 3578. 3921. 1327. 256. 267. 1193. 3235.
        5399. 3496. 1055. 309. 256. 256. 300. 535. 1688. 4054. 5504.
        4311. 1932. 666. 411. 895. 2608. 3794. 4184. 4373. 3112. 1730.
        918. 2575. 3317. 2091. 1089. 1744. 4091. 3936. 3375. 4073. 1995.
        619. 303. 386. 3307. 7102. 6304. 3812. 749. 281. 288. 264. 3956.
        7784. 7392. 3575. 542. 325. 288. 1586. 5922. 2603. 4033. 4992.
        3477. 3104. 4549. 5288. 1556. 415. 849. 2956. 6301. 7251. 4607.
        1402. 301. 256. 275. 570. 1757. 3549. 2862. 1632. 813. 392. 406.
        1058. 2153. 2601. 2774. 2504. 1282. 766. 1227. 2037. 1760. 916.
        837. 1778. 2569. 1567. 2883. 2421. 903. 364. 293. 417. 2094.
        3624. 4480. 2079. 367. 265. 299. 268. 1431. 5277. 4306. 2240.
        520. 321. 256. 465. 2603. 4983. 1891. 2800. 2377. 1687. 1873.
        2852. 2530. 966. 484. 1405. 3323. 4341. 3895. 2532. 638. 272.
        320. 343. 809. 2914. 5133. 6053. 3711. 1738. 298. 468. 1794.
        3784. 4929. 5335. 4550. 3400. 529. 1644. 3710. 3936. 1668. 1515.
        4470. 6294. 2167. 3717. 3766. 1177. 303. 539. 4598. 7598. 5457.
        4838. 1312. 328. 295. 999. 5269. 5326. 8991. 3248. 423. 357.
        1063. 4110. 4033. 1891. 9112. 6152. 3358. 4519. 5495. 3727.
        1074. 414. 2339. 6510. 8834. 6196. 2984. 942. 351. 256. 290.
        487. 1616. 4358. 6161. 5787. 3285. 1375. 344. 855. 2768. 4487.
        5272. 5630. 4742. 3188. 794. 2621. 4065. 3295. 1478. 1916. 5243.
        6101. 3320. 4500. 3174. 1046. 309. 516. 4907. 8515. 6884. 4963.
        1140. 322. 282. 922. 5359. 7164. 9891. 4571. 409. 334. 910.
        3844. 4992. 2800. 6152. 8021. 4557. 4576. 5735. 4824. 1693. 560.
        1153. 4534. 9348. 7832. 4309. 1508. 427. 259. 274. 446. 1578.
        3391. 4111. 3973. 2247. 897. 350. 850. 2196. 3187. 4049. 4044.
        3211. 2278. 946. 2120. 2813. 2389. 1038. 1451. 3987. 4216. 2892.
        3327. 2317. 681. 276. 489. 3651. 5841. 5316. 3926. 766. 310.
        292. 871. 3773. 5336. 6740. 4078. 497. 353. 876. 2822. 3477.
        2377. 3358. 4557. 5281. 4233. 4210. 3285. 1362. 554. 671. 1914.
        5000. 5107. 2800. 1298. 396. 280. 268. 336. 1139. 2661. 3635.
        4239. 2687. 1230. 317. 665. 1699. 2906. 3953. 4064. 3513. 2684.
        733. 1584. 2834. 2813. 1281. 1410. 3712. 4842. 2188. 2999. 2761.
        876. 314. 532. 3739. 5807. 4562. 4133. 964. 297. 309. 934. 4142.
        4324. 6813. 3670. 556. 342. 978. 3578. 3104. 1687. 4519. 4576.
        4233. 5331. 4821. 2672. 821. 415. 1110. 3164. 5819. 4238. 1332.
        626. 312. 263. 280. 395. 1290. 3499. 5412. 5326. 2948. 1146.
        334. 724. 2228. 3785. 4796. 5044. 4078. 2959. 709. 2104. 3665.
        3191. 1443. 1627. 4571. 5705. 2818. 3989. 3093. 932. 300. 485.
        4363. 7655. 5935. 4733. 1110. 315. 264. 683. 5183. 5999. 8504.
        4247. 559. 316. 588. 3921. 4549. 1873. 5495. 5735. 4210. 4821.
        6475. 4209. 913. 358. 1225. 4021. 7683. 7314. 2704. 519. 285.
        260. 286. 490. 1664. 4122. 5341. 4174. 1883. 590. 350. 901.
        2664. 3713. 4036. 4135. 2913. 1676. 931. 2618. 3162. 1910. 1023.
        1676. 4005. 3745. 3366. 4013. 1788. 560. 281. 391. 3242. 6664.
        6199. 3570. 672. 274. 256. 300. 3720. 7250. 7101. 3450. 459.
        282. 256. 1327. 5288. 2852. 3727. 4824. 3285. 2672. 4209. 5624.
        1673. 448. 783. 2647. 5961. 7385. 4986. 1287. 275. 256. 266.
        427. 1113. 2194. 1857. 1063. 610. 332. 347. 727. 1414. 1546.
        1514. 1473. 884. 504. 818. 1375. 1061. 537. 507. 1001. 1556.
        930. 1766. 1456. 536. 313. 259. 309. 1287. 2036. 2636. 1151.
        289. 256. 256. 256. 874. 3040. 2335. 1335. 353. 256. 256. 256.
        1556. 2530. 1074. 1693. 1362. 821. 913. 1673. 1801. 671. 373.
        837. 1964. 2518. 2489. 1723. 487. 269. 256. 336. 500. 823. 553.
        328. 302. 277. 293. 379. 537. 583. 590. 560. 346. 293. 436. 537.
        429. 347. 342. 510. 605. 342. 756. 523. 305. 280. 256. 278. 552.
        654. 835. 517. 266. 256. 256. 256. 379. 899. 739. 532. 317. 256.
        256. 267. 415. 966. 414. 560. 554. 415. 358. 448. 671. 709. 301.
        381. 617. 741. 844. 775. 544. 284. 305. 284. 309. 601. 1044.
        1526. 1368. 1073. 284. 259. 390. 847. 1209. 1298. 1140. 1200.
        303. 367. 821. 1158. 761. 513. 1041. 1826. 430. 749. 1111. 705.
        257. 315. 1221. 1612. 942. 1300. 724. 302. 277. 483. 1259. 1081.
        1897. 865. 392. 286. 548. 1193. 849. 484. 2339. 1153. 671. 1110.
        1225. 783. 373. 301. 1870. 2190. 1960. 1510. 744. 448. 288. 256.
        288. 332. 656. 2183. 4138. 4973. 3065. 1633. 293. 429. 1262.
        3101. 3948. 3976. 3505. 2874. 464. 1219. 3002. 3016. 1269. 1103.
        3348. 5076. 1463. 2975. 2801. 965. 288. 436. 3521. 5764. 3947.
        3850. 1094. 333. 291. 910. 4023. 3708. 6881. 2682. 418. 333.
        1037. 3235. 2956. 1405. 6510. 4534. 1914. 3164. 4021. 2647. 837.
        381. 2190. 6893. 6926. 4966. 2729. 904. 400. 256. 316. 564.
        1830. 5439. 8140. 8379. 4632. 1926. 407. 947. 3150. 5783. 7150.
        7574. 6389. 4468. 970. 3038. 5483. 4669. 2051. 2308. 6950. 8616.
        3930. 5859. 4522. 1318. 334. 665. 6491. 11424. 8996. 6928. 1538.
        361. 325. 1116. 7232. 8925. 13154. 5924. 492. 350. 1114. 5399.
        6301. 3323. 8834. 9348. 5000. 5819. 7683. 5961. 1964. 617. 1960.
        6926. 15402. 10153. 5712. 2027. 480. 262. 333. 670. 2372. 6664.
        9200. 7054. 3481. 1067. 461. 1213. 4103. 6104. 6724. 6869. 5074.
        3283. 1280. 3931. 5264. 3326. 1652. 2551. 6766. 6811. 5295.
        6251. 3246. 866. 333. 525. 5958. 11026. 10163. 6051. 1098. 318.
        317. 645. 6361. 10682. 11831. 6000. 586. 316. 475. 3496. 7251.
        4341. 6196. 7832. 5107. 4238. 7314. 7385. 2518. 741. 1510. 4966.
        10153. 14906. 7209. 2336. 519. 277. 266. 601. 2100. 4761. 5712.
        4089. 1614. 525. 420. 1203. 2840. 3873. 3865. 3861. 2532. 1324.
        1314. 2958. 2964. 1587. 949. 1812. 4055. 3170. 4081. 3946. 1367.
        417. 264. 411. 3262. 6302. 6463. 3372. 500. 256. 256. 337. 3281.
        7131. 6233. 3553. 480. 280. 262. 1055. 4607. 3895. 2984. 4309.
        2800. 1332. 2704. 4986. 2489. 844. 744. 2729. 5712. 7209. 8272.
        2797. 505. 272. 266. 511. 1213. 2366. 1777. 1067. 599. 345. 399.
        778. 1357. 1533. 1524. 1441. 855. 495. 955. 1390. 974. 555. 551.
        1018. 1554. 848. 1897. 1357. 471. 364. 257. 309. 1367. 1973.
        2725. 1135. 310. 256. 256. 265. 922. 2938. 2072. 1432. 396. 256.
        256. 309. 1402. 2532. 942. 1508. 1298. 626. 519. 1287. 1723.
        775. 448. 904. 2027. 2336. 2797. 2724. 614. 276. 256. 291. 381.
        637. 449. 325. 274. 261. 277. 301. 468. 481. 458. 368. 300. 260.
        333. 446. 335. 308. 297. 402. 467. 285. 590. 401. 266. 277. 256.
        259. 418. 484. 619. 344. 260. 256. 256. 256. 299. 660. 516. 412.
        279. 256. 256. 256. 301. 638. 351. 427. 396. 312. 285. 275. 487.
        544. 288. 400. 480. 519. 505. 614. 631. 286. 256. 256. 278. 272.
        257. 256. 256. 256. 256. 257. 279. 274. 268. 259. 256. 256. 259.
        276. 256. 261. 260. 269. 270. 256. 285. 271. 256. 258. 256. 256.
        267. 268. 269. 269. 256. 256. 256. 256. 257. 281. 258. 278. 258.
        256. 256. 256. 256. 272. 256. 259. 280. 263. 260. 256. 269. 284.
        256. 256. 262. 277. 272. 276. 286. 266.</data></_>
    <_ type_id="opencv-matrix">
      <rows>64</rows>
      <cols>64</cols>
      <dt>d</dt>
      <data>
        7758. 6863. 7019. 6562. 5886. 5458. 5107. 5379. 6380. 5144.
        5586. 5355. 5098. 4968. 4920. 5523. 6019. 5111. 5281. 5787.
        5288. 5011. 4940. 5705. 5937. 5175. 5215. 5885. 5601. 5227.
        5234. 5976. 5784. 4989. 5127. 5662. 5647. 5374. 5112. 5870.
        5675. 4940. 4966. 5475. 5672. 5310. 5053. 5972. 5517. 4877.
        4932. 5222. 5385. 5564. 5312. 6416. 5419. 5188. 5652. 6148.
        6562. 6805. 6125. 6946. 6863. 6503. 6550. 6020. 5524. 5226.
        5011. 5144. 5854. 5105. 5534. 5199. 5037. 4930. 4912. 5284.
        5595. 5042. 5156. 5598. 5188. 4961. 4912. 5384. 5495. 5036.
        5081. 5614. 5443. 5093. 5120. 5557. 5446. 4942. 5042. 5464.
        5497. 5229. 5016. 5494. 5379. 4948. 4968. 5348. 5502. 5238.
        4984. 5536. 5253. 4876. 4920. 5110. 5312. 5495. 5315. 6062.
        5194. 5088. 5375. 5687. 6075. 6342. 5775. 6288. 7019. 6550.
        7588. 6965. 6096. 5625. 5273. 5531. 6239. 5200. 5815. 5575.
        5250. 5049. 4983. 5599. 5948. 5138. 5322. 5973. 5464. 5079.
        5034. 5800. 5870. 5176. 5238. 6076. 5736. 5266. 5263. 5936.
        5782. 4999. 5154. 5866. 5739. 5316. 5101. 5849. 5840. 5130.
        5188. 5756. 5814. 5224. 5063. 5926. 5702. 5021. 5063. 5406.
        5691. 5714. 5427. 6412. 5666. 5403. 5848. 6384. 6821. 7029.
        6133. 6744. 6562. 6020. 6965. 8188. 7494. 6588. 5874. 6362.
        6141. 5119. 5368. 6089. 5765. 5330. 5261. 6243. 6100. 5146.
        5247. 6099. 6000. 5350. 5168. 6347. 6241. 5292. 5364. 6090.
        6127. 5453. 5371. 6366. 6306. 5218. 5400. 6277. 5833. 5309.
        5126. 6117. 6461. 5325. 5408. 6287. 5751. 5132. 5046. 6003.
        6598. 5359. 5511. 5867. 5778. 5531. 5323. 6281. 6423. 5958.
        6650. 7235. 7315. 6878. 6119. 6689. 5886. 5524. 6096. 7494.
        9081. 8249. 6819. 7472. 5812. 5071. 5177. 5646. 6636. 6321.
        5897. 7460. 5886. 5111. 5115. 5740. 6977. 5937. 5369. 6887.
        6350. 5285. 5479. 6349. 6709. 5655. 5356. 6472. 6506. 5301.
        5615. 6809. 6000. 5286. 5080. 6060. 7039. 5548. 5924. 6815.
        5652. 5116. 5007. 5896. 7820. 5959. 6289. 6078. 5672. 5387.
        5203. 6092. 7521. 6837. 7717. 7698. 7228. 6533. 5792. 6215.
        5458. 5226. 5625. 6588. 8249. 11256. 9627. 9877. 5430. 4978.
        5054. 5435. 6331. 8663. 7103. 8984. 5608. 5075. 5122. 5727.
        7814. 7265. 5565. 7226. 6040. 5207. 5498. 6855. 8164. 5796.
        5247. 6225. 6424. 5359. 6063. 8169. 6432. 5231. 4957. 5710.
        7423. 5791. 7249. 7711. 5559. 5096. 4945. 5531. 9643. 7288.
        7790. 6150. 5522. 5257. 5056. 5623. 9889. 8926. 9419. 7973.
        6892. 6198. 5576. 5835. 5107. 5011. 5273. 5874. 6819. 9627.
        15900. 15900. 5150. 4903. 4948. 5210. 5805. 9719. 10173. 10380.
        5400. 5010. 5110. 5637. 8652. 10263. 5625. 6855. 5731. 5036.
        5366. 7342. 10950. 6141. 5143. 5849. 6187. 5397. 6743. 10985.
        7010. 5167. 4910. 5490. 7209. 6095. 10082. 8256. 5400. 5000.
        4908. 5272. 11687. 10247. 9032. 5814. 5333. 5081. 4984. 5343.
        14361. 13575. 9781. 7512. 6429. 5676. 5288. 5492. 5379. 5144.
        5531. 6362. 7472. 9877. 15900. 21509. 5342. 4905. 4978. 5333.
        6032. 9420. 11805. 11892. 5673. 5018. 5145. 5721. 8838. 12023.
        6100. 7585. 6057. 5094. 5414. 7733. 12421. 6755. 5297. 6472.
        6564. 5461. 7030. 12639. 7544. 5277. 4964. 5946. 7624. 6291.
        11353. 8977. 5452. 5053. 4924. 5625. 12827. 11367. 9688. 5926.
        5376. 5117. 5020. 5680. 17103. 15560. 10442. 8079. 6899. 5999.
        5446. 5881. 6380. 5854. 6239. 6141. 5812. 5430. 5150. 5342.
        6460. 5297. 5586. 5321. 5150. 5011. 4947. 5380. 6060. 5186.
        5282. 5569. 5222. 4991. 4933. 5450. 5974. 5261. 5372. 5788.
        5312. 5142. 5075. 5611. 5692. 4999. 5127. 5436. 5368. 5126.
        5048. 5525. 5585. 4941. 4974. 5378. 5506. 5110. 4985. 5701.
        5499. 4940. 4978. 5209. 5435. 5394. 5232. 6002. 5299. 5082.
        5407. 5909. 6304. 6272. 5833. 6410. 5144. 5105. 5200. 5119.
        5071. 4978. 4903. 4905. 5297. 5162. 5224. 5024. 4976. 4928.
        4888. 4928. 5062. 4906. 4952. 5081. 4969. 4884. 4876. 4930.
        4999. 4904. 4925. 5160. 4993. 4887. 4876. 4931. 4952. 4864.
        4896. 5041. 5037. 4907. 4897. 4936. 4940. 4880. 4880. 5011.
        5099. 4937. 4880. 5006. 4974. 4904. 4937. 4966. 5100. 5047.
        5027. 5169. 4933. 4918. 4962. 5090. 5275. 5202. 5093. 5201.
        5586. 5534. 5815. 5368. 5177. 5054. 4948. 4978. 5586. 5224.
        5777. 5186. 5058. 4977. 4924. 5017. 5250. 4995. 5107. 5366.
        5083. 4912. 4892. 5043. 5140. 4961. 4964. 5432. 5195. 4942.
        4944. 5061. 5037. 4881. 4927. 5207. 5272. 5000. 4943. 5055.
        5010. 4880. 4937. 5172. 5363. 5107. 4917. 5156. 5045. 4923.
        4985. 5031. 5286. 5325. 5215. 5533. 5003. 5010. 5085. 5348.
        5690. 5732. 5425. 5650. 5355. 5199. 5575. 6089. 5646. 5435.
        5210. 5333. 5321. 5024. 5186. 5836. 5164. 5073. 4998. 5199.
        5295. 5005. 5054. 5600. 5161. 5040. 4956. 5267. 5289. 4998.
        5019. 5365. 5274. 5007. 4999. 5282. 5267. 5018. 5032. 5397.
        5216. 5021. 5004. 5234. 5316. 4972. 5060. 5319. 5264. 5017.
        4938. 5202. 5390. 5098. 5088. 5226. 5293. 5207. 5102. 5394.
        5382. 5271. 5433. 5689. 5838. 5580. 5288. 5459. 5098. 5037.
        5250. 5765. 6636. 6331. 5805. 6032. 5150. 4976. 5058. 5164.
        6342. 5646. 5338. 5913. 5166. 4932. 4971. 5278. 6045. 5147.
        5010. 5526. 5341. 4974. 5113. 5574. 5659. 5154. 5015. 5319.
        5531. 5124. 5311. 5762. 5344. 5001. 4984. 5219. 5802. 5229.
        5364. 5587. 5170. 4965. 4908. 5142. 6232. 5459. 5558. 5400.
        5258. 5086. 5011. 5232. 6085. 5795. 6243. 6075. 5881. 5455.
        5131. 5212. 4968. 4930. 5049. 5330. 6321. 8663. 9719. 9420.
        5011. 4928. 4977. 5073. 5646. 9308. 7516. 8083. 5067. 4922.
        4966. 5280. 7658. 7205. 5042. 5902. 5214. 4942. 5112. 6636.
        8047. 5329. 4925. 5192. 5516. 5106. 5956. 8161. 5839. 4957.
        4916. 5004. 6334. 5643. 7569. 6898. 5169. 4972. 4883. 4922.
        8940. 7709. 7355. 5480. 5162. 5017. 4956. 5027. 9351. 8887.
        8132. 6633. 5928. 5396. 5106. 5064. 4920. 4912. 4983. 5261.
        5897. 7103. 10173. 11805. 4947. 4888. 4924. 4998. 5338. 7516.
        10169. 9702. 4978. 4910. 4937. 5068. 6591. 9240. 5386. 5945.
        5173. 4922. 4966. 6012. 9259. 6032. 4944. 5237. 5342. 5057.
        5672. 9262. 6471. 4988. 4908. 5078. 5819. 5450. 8432. 7395.
        5094. 4936. 4868. 4921. 8956. 8699. 7763. 5294. 5095. 5001.
        4928. 4983. 11017. 10595. 7602. 6033. 5556. 5291. 5045. 5060.
        5523. 5284. 5599. 6243. 7460. 8984. 10380. 11892. 5380. 4928.
        5017. 5199. 5913. 8083. 9702. 12589. 5490. 5018. 5037. 5351.
        7242. 9292. 6097. 7974. 5870. 5119. 5196. 6400. 9505. 6783.
        5366. 6466. 6045. 5152. 5751. 9266. 7278. 5375. 5020. 5844.
        6958. 5642. 8276. 8556. 5507. 5067. 4913. 5597. 10397. 8653.
        8538. 5952. 5408. 5191. 5020. 5642. 11527. 11017. 9279. 7564.
        6799. 6187. 5433. 5733. 6019. 5595. 5948. 6100. 5886. 5608.
        5400. 5673. 6060. 5062. 5250. 5295. 5166. 5067. 4978. 5490.
        6483. 5429. 5422. 5510. 5238. 5086. 4995. 5538. 6186. 5302.
        5417. 5638. 5256. 5190. 5114. 5631. 5896. 5093. 5255. 5481.
        5221. 5106. 4978. 5484. 5700. 4986. 5027. 5364. 5404. 5067.
        4987. 5619. 5650. 4996. 4946. 5242. 5439. 5322. 5229. 5935.
        5483. 5188. 5565. 6036. 6214. 6128. 5698. 6209. 5111. 5042.
        5138. 5146. 5111. 5075. 5010. 5018. 5186. 4906. 4995. 5005.
        4932. 4922. 4910. 5018. 5429. 5272. 5159. 5023. 4964. 4948.
        4920. 5009. 5217. 4968. 4986. 5020. 4936. 4932. 4916. 4992.
        5113. 4898. 4946. 4998. 4948. 4926. 4880. 4960. 5011. 4880.
        4965. 5038. 5041. 4920. 4904. 5002. 5003. 4922. 4902. 5021.
        5104. 5042. 5004. 5156. 4938. 4917. 5045. 5165. 5178. 5194.
        5107. 5238. 5281. 5156. 5322. 5247. 5115. 5122. 5110. 5145.
        5282. 4952. 5107. 5054. 4971. 4966. 4937. 5037. 5422. 5159.
        5387. 5218. 4986. 4986. 4934. 5018. 5265. 4992. 5025. 5166.
        5038. 4927. 4912. 5002. 5131. 4922. 4923. 5101. 5064. 4948.
        4881. 4992. 5047. 4882. 4962. 5048. 5164. 4994. 4920. 5067.
        5067. 4959. 4929. 4999. 5141. 5117. 5067. 5291. 5040. 4996.
        5152. 5250. 5338. 5344. 5213. 5372. 5787. 5598. 5973. 6099.
        5740. 5727. 5637. 5721. 5569. 5081. 5366. 5600. 5278. 5280.
        5068. 5351. 5510. 5023. 5218. 6360. 5378. 5118. 5007. 5336.
        5489. 5074. 5245. 5902. 5329. 5005. 5000. 5317. 5508. 5116.
        5267. 5597. 5300. 5117. 4960. 5224. 5702. 5231. 5231. 5431.
        5401. 5144. 4938. 5263. 5783. 5198. 5116. 5258. 5301. 5354.
        5221. 5637. 5752. 5439. 5696. 5827. 5928. 5914. 5527. 5821.
        5288. 5188. 5464. 6000. 6977. 7814. 8652. 8838. 5222. 4969.
        5083. 5161. 6045. 7658. 6591. 7242. 5238. 4964. 4986. 5378.
        8487. 6429. 5268. 6177. 5391. 5017. 5166. 6852. 7268. 5127.
        5020. 5583. 5744. 5112. 6097. 7427. 5717. 5112. 5025. 5449.
        6465. 5788. 7013. 6378. 5506. 5039. 4975. 5322. 8385. 7082.
        6537. 5665. 5486. 5148. 5102. 5459. 8521. 8022. 7532. 6834.
        6456. 5695. 5228. 5376. 5011. 4961. 5079. 5350. 5937. 7265.
        10263. 12023. 4991. 4884. 4912. 5040. 5147. 7205. 9240. 9292.
        5086. 4948. 4986. 5118. 6429. 10292. 5819. 6564. 5140. 4948.
        4981. 5746. 9545. 6037. 4950. 5543. 5250. 4995. 5478. 9327.
        6608. 5036. 4883. 5195. 5696. 5310. 8500. 7568. 5172. 4996.
        4932. 5065. 8938. 8640. 7958. 5291. 5110. 5045. 4961. 5100.
        10880. 10690. 7690. 6118. 5616. 5336. 5027. 5105. 4940. 4912.
        5034. 5168. 5369. 5565. 5625. 6100. 4933. 4876. 4892. 4956.
        5010. 5042. 5386. 6097. 4995. 4920. 4934. 5007. 5268. 5819.
        5850. 6103. 4995. 4916. 4921. 5062. 5535. 5372. 5012. 5414.
        5040. 4893. 4941. 5481. 5523. 5041. 4874. 5110. 5246. 5037.
        5400. 5728. 5147. 4926. 4896. 5023. 5718. 5463. 5627. 5132.
        5040. 4944. 4912. 5025. 6007. 5904. 5672. 5467. 5312. 5168.
        4908. 4980. 5705. 5384. 5800. 6347. 6887. 7226. 6855. 7585.
        5450. 4930. 5043. 5267. 5526. 5902. 5945. 7974. 5538. 5009.
        5018. 5336. 6177. 6564. 6103. 8301. 5686. 5073. 5126. 5593.
        6572. 5941. 5551. 6849. 5891. 5070. 5208. 6154. 6311. 5471.
        5089. 6076. 6401. 5311. 5747. 6827. 5661. 5115. 4972. 5822.
        7238. 5786. 6517. 5676. 5385. 5173. 5066. 5824. 7400. 7037.
        7345. 6999. 6661. 6075. 5356. 5823. 5937. 5495. 5870. 6241.
        6350. 6040. 5731. 6057. 5974. 4999. 5140. 5289. 5341. 5214.
        5173. 5870. 6186. 5217. 5265. 5489. 5391. 5140. 4995. 5686.
        6831. 5581. 5679. 5775. 5419. 5362. 5193. 5812. 6379. 5237.
        5479. 5555. 5226. 5163. 4989. 5583. 6220. 5137. 5141. 5495.
        5300. 5091. 4990. 5677. 6019. 5012. 5003. 5378. 5459. 5290.
        5110. 5877. 5791. 5359. 5780. 6294. 6418. 6254. 5738. 6232.
        5175. 5036. 5176. 5292. 5285. 5207. 5036. 5094. 5261. 4904.
        4961. 4998. 4974. 4942. 4922. 5119. 5302. 4968. 4992. 5074.
        5017. 4948. 4916. 5073. 5581. 5324. 5284. 5188. 5064. 5040.
        4960. 5131. 5261. 4921. 4991. 4999. 4977. 4954. 4914. 5064.
        5215. 4864. 4904. 5059. 4974. 4956. 4914. 5120. 5147. 4900.
        4910. 5089. 5053. 5015. 4940. 5168. 5043. 4950. 5086. 5303.
        5336. 5326. 5171. 5309. 5215. 5081. 5238. 5364. 5479. 5498.
        5366. 5414. 5372. 4925. 4964. 5019. 5113. 5112. 4966. 5196.
        5417. 4986. 5025. 5245. 5166. 4981. 4921. 5126. 5679. 5284.
        5637. 5381. 5120. 5074. 4988. 5223. 5502. 5079. 5132. 5024.
        4972. 4944. 4912. 5129. 5570. 5043. 4921. 5088. 4996. 4973.
        4928. 5179. 5388. 4945. 4952. 5075. 5100. 5042. 4968. 5246.
        5303. 5101. 5208. 5393. 5439. 5434. 5211. 5378. 5885. 5614.
        6076. 6090. 6349. 6855. 7342. 7733. 5788. 5160. 5432. 5365.
        5574. 6636. 6012. 6400. 5638. 5020. 5166. 5902. 6852. 5746.
        5062. 5593. 5775. 5188. 5381. 7831. 6150. 5160. 5038. 5492.
        5730. 5059. 6087. 6750. 5279. 5031. 4980. 5309. 6290. 5633.
        6397. 5763. 5439. 5111. 4956. 5385. 7618. 6474. 5800. 5444.
        5463. 5467. 5243. 5811. 7560. 6929. 6594. 6275. 6278. 6203.
        5618. 5941. 5601. 5443. 5736. 6127. 6709. 8164. 10950. 12421.
        5312. 4993. 5195. 5274. 5659. 8047. 9259. 9505. 5256. 4936.
        5038. 5329. 7268. 9545. 5535. 6572. 5419. 5064. 5120. 6150.
        11239. 5993. 5155. 5898. 5658. 5087. 5617. 10146. 6846. 5089.
        5011. 5559. 6120. 5346. 8823. 7755. 5514. 5108. 4944. 5388.
        9748. 8995. 8330. 5594. 5352. 5116. 5125. 5517. 11267. 11082.
        8439. 6906. 6374. 5831. 5418. 5637. 5227. 5093. 5266. 5453.
        5655. 5796. 6141. 6755. 5142. 4887. 4942. 5007. 5154. 5329.
        6032. 6783. 5190. 4932. 4927. 5005. 5127. 6037. 5372. 5941.
        5362. 5040. 5074. 5160. 5993. 6419. 5349. 5811. 5343. 4968.
        5031. 5824. 5907. 5176. 4940. 5397. 5356. 4980. 5572. 5975.
        5103. 5027. 4888. 5322. 6099. 5778. 5841. 5185. 5028. 5036.
        4908. 5236. 6657. 6495. 5927. 5615. 5503. 5406. 5112. 5262.
        5234. 5120. 5263. 5371. 5356. 5247. 5143. 5297. 5075. 4876.
        4944. 4999. 5015. 4925. 4944. 5366. 5114. 4916. 4912. 5000.
        5020. 4950. 5012. 5551. 5193. 4960. 4988. 5038. 5155. 5349.
        5480. 5680. 5233. 4928. 4957. 5048. 5123. 5186. 4927. 5339.
        5260. 4984. 4990. 5191. 5145. 4968. 4904. 5269. 5287. 4924.
        4982. 5101. 5035. 4953. 4888. 5172. 5304. 5183. 5295. 5387.
        5417. 5247. 4980. 5107. 5976. 5557. 5936. 6366. 6472. 6225.
        5849. 6472. 5611. 4931. 5061. 5282. 5319. 5192. 5237. 6466.
        5631. 4992. 5002. 5317. 5583. 5543. 5414. 6849. 5812. 5131.
        5223. 5492. 5898. 5811. 5680. 6970. 5883. 5060. 5132. 5572.
        5730. 5403. 5090. 6224. 6091. 5166. 5232. 5911. 5415. 5100.
        4997. 6008. 6305. 5184. 5506. 5503. 5250. 5095. 4979. 5822.
        6262. 5864. 6320. 6548. 6376. 6014. 5477. 5967. 5784. 5446.
        5782. 6306. 6506. 6424. 6187. 6564. 5692. 4952. 5037. 5267.
        5531. 5516. 5342. 6045. 5896. 5113. 5131. 5508. 5744. 5250.
        5040. 5891. 6379. 5261. 5502. 5730. 5658. 5343. 5233. 5883.
        6899. 5572. 5821. 5840. 5383. 5155. 4955. 5583. 6749. 5407.
        5385. 5654. 5326. 5051. 4940. 5574. 6396. 5103. 5097. 5376.
        5497. 5208. 5109. 5788. 6225. 5634. 6036. 6402. 6516. 6066.
        5572. 6049. 4989. 4942. 4999. 5218. 5301. 5359. 5397. 5461.
        4999. 4864. 4881. 5018. 5124. 5106. 5057. 5152. 5093. 4898.
        4922. 5116. 5112. 4995. 4893. 5070. 5237. 4921. 5079. 5059.
        5087. 4968. 4928. 5060. 5572. 5401. 5278. 5168. 5022. 4918.
        4866. 5005. 5469. 4996. 4920. 4983. 4981. 4912. 4866. 4971.
        5247. 4905. 4896. 4991. 5044. 4965. 4940. 5068. 5243. 5071.
        5222. 5281. 5301. 5158. 5025. 5113. 5127. 5042. 5154. 5400.
        5615. 6063. 6743. 7030. 5127. 4896. 4927. 5032. 5311. 5956.
        5672. 5751. 5255. 4946. 4923. 5267. 6097. 5478. 4941. 5208.
        5479. 4991. 5132. 6087. 5617. 5031. 4957. 5132. 5821. 5278.
        6507. 5776. 5055. 4938. 4872. 5011. 5991. 5606. 5763. 5093.
        4983. 4920. 4876. 4999. 6885. 5891. 5135. 5171. 5151. 5037.
        4984. 5132. 6837. 6178. 5753. 5601. 5491. 5281. 5074. 5180.
        5662. 5464. 5866. 6277. 6809. 8169. 10985. 12639. 5436. 5041.
        5207. 5397. 5762. 8161. 9262. 9266. 5481. 4998. 5101. 5597.
        7427. 9327. 5481. 6154. 5555. 4999. 5024. 6750. 10146. 5824.
        5048. 5572. 5840. 5168. 5776. 11496. 6176. 4966. 4912. 5247.
        6277. 5459. 9266. 7830. 5338. 5011. 4932. 5186. 9834. 9172.
        8010. 5746. 5388. 5290. 5136. 5495. 11591. 11168. 8534. 7111.
        6382. 6021. 5463. 5647. 5647. 5497. 5739. 5833. 6000. 6432.
        7010. 7544. 5368. 5037. 5272. 5216. 5344. 5839. 6471. 7278.
        5221. 4948. 5064. 5300. 5717. 6608. 5523. 6311. 5226. 4977.
        4972. 5279. 6846. 5907. 5123. 5730. 5383. 5022. 5055. 6176.
        7421. 5273. 5016. 5496. 5492. 5054. 5778. 6788. 5731. 5105.
        4941. 5407. 6550. 6027. 6625. 5381. 5372. 5258. 5180. 5617.
        7358. 7300. 6712. 6207. 6166. 5789. 5337. 5546. 5374. 5229.
        5316. 5309. 5286. 5231. 5167. 5277. 5126. 4907. 5000. 5021.
        5001. 4957. 4988. 5375. 5106. 4926. 4948. 5117. 5112. 5036.
        5041. 5471. 5163. 4954. 4944. 5031. 5089. 5176. 5186. 5403.
        5155. 4918. 4938. 4966. 5273. 5563. 5061. 5367. 5169. 4976.
        5001. 5137. 5170. 5109. 4900. 5272. 5195. 4957. 5020. 4960.
        5077. 5053. 4947. 5298. 5186. 5141. 5185. 5244. 5524. 5359.
        5053. 5254. 5112. 5016. 5101. 5126. 5080. 4957. 4910. 4964.
        5048. 4897. 4943. 5004. 4984. 4916. 4908. 5020. 4978. 4880.
        4881. 4960. 5025. 4883. 4874. 5089. 4989. 4914. 4912. 4980.
        5011. 4940. 4927. 5090. 4955. 4866. 4872. 4912. 5016. 5061.
        5083. 5205. 4976. 4887. 4914. 4945. 4959. 4909. 4886. 5090.
        5047. 4940. 4921. 4898. 4948. 4913. 4889. 5052. 5006. 4991.
        5001. 5067. 5158. 5055. 4981. 5072. 5870. 5494. 5849. 6117.
        6060. 5710. 5490. 5946. 5525. 4936. 5055. 5234. 5219. 5004.
        5078. 5844. 5484. 4960. 4992. 5224. 5449. 5195. 5110. 6076.
        5583. 5064. 5129. 5309. 5559. 5397. 5339. 6224. 5583. 5005.
        5011. 5247. 5496. 5367. 5205. 6273. 5667. 5030. 5067. 5355.
        5305. 5082. 5037. 5975. 5794. 5088. 5126. 5175. 5180. 5080.
        4971. 5781. 5781. 5460. 5750. 6019. 6107. 5872. 5449. 5943.
        5675. 5379. 5840. 6461. 7039. 7423. 7209. 7624. 5585. 4940.
        5010. 5316. 5802. 6334. 5819. 6958. 5700. 5011. 5047. 5702.
        6465. 5696. 5246. 6401. 6220. 5215. 5570. 6290. 6120. 5356.
        5260. 6091. 6749. 5469. 5991. 6277. 5492. 5169. 4976. 5667.
        8092. 6084. 6213. 6269. 5338. 4974. 4925. 5521. 7735. 5691.
        5622. 5591. 5422. 5151. 5050. 5687. 7427. 6472. 6894. 6893.
        6606. 6087. 5474. 5886. 4940. 4948. 5130. 5325. 5548. 5791.
        6095. 6291. 4941. 4880. 4880. 4972. 5229. 5643. 5450. 5642.
        4986. 4880. 4882. 5231. 5788. 5310. 5037. 5311. 5137. 4864.
        5043. 5633. 5346. 4980. 4984. 5166. 5407. 4996. 5606. 5459.
        5054. 4976. 4887. 5030. 6084. 5984. 5630. 5352. 5080. 4889.
        4871. 4967. 6327. 5396. 4958. 5008. 5036. 4948. 4928. 5041.
        6182. 5641. 5574. 5502. 5355. 5151. 4942. 4983. 4966. 4968.
        5188. 5408. 5924. 7249. 10082. 11353. 4974. 4880. 4937. 5060.
        5364. 7569. 8432. 8276. 5027. 4965. 4962. 5231. 7013. 8500.
        5400. 5747. 5141. 4904. 4921. 6397. 8823. 5572. 4990. 5232.
        5385. 4920. 5763. 9266. 5778. 5001. 4914. 5067. 6213. 5630.
        9600. 6588. 5098. 4882. 4868. 4951. 9245. 8899. 7003. 5138.
        5128. 4994. 4948. 5061. 10451. 10016. 7181. 5845. 5455. 5241.
        4984. 5042. 5475. 5348. 5756. 6287. 6815. 7711. 8256. 8977.
        5378. 5011. 5172. 5319. 5587. 6898. 7395. 8556. 5364. 5038.
        5048. 5431. 6378. 7568. 5728. 6827. 5495. 5059. 5088. 5763.
        7755. 5975. 5191. 5911. 5654. 4983. 5093. 7830. 6788. 5137.
        4945. 5355. 6269. 5352. 6588. 8789. 5411. 4908. 4876. 5146.
        7821. 6725. 7702. 5999. 5377. 5176. 5106. 5407. 8717. 8589.
        8058. 7175. 6396. 5904. 5294. 5409. 5672. 5502. 5814. 5751.
        5652. 5559. 5400. 5452. 5506. 5099. 5363. 5264. 5170. 5169.
        5094. 5507. 5404. 5041. 5164. 5401. 5506. 5172. 5147. 5661.
        5300. 4974. 4996. 5439. 5514. 5103. 5145. 5415. 5326. 4981.
        4983. 5338. 5731. 5170. 4959. 5305. 5338. 5080. 5098. 5411.
        6259. 5083. 4984. 5363. 5361. 5065. 5160. 5110. 5718. 5363.
        5247. 5702. 5209. 5204. 5457. 5679. 6227. 5832. 5364. 5544.
        5310. 5238. 5224. 5132. 5116. 5096. 5000. 5053. 5110. 4937.
        5107. 5017. 4965. 4972. 4936. 5067. 5067. 4920. 4994. 5144.
        5039. 4996. 4926. 5115. 5091. 4956. 4973. 5111. 5108. 5027.
        4968. 5100. 5051. 4912. 4920. 5011. 5105. 5109. 4909. 5082.
        4974. 4889. 4882. 4908. 5083. 5314. 4976. 5152. 4953. 4868.
        4878. 4874. 4983. 5144. 5065. 5332. 4952. 4959. 4979. 5026.
        5275. 5328. 5139. 5351. 5053. 4984. 5063. 5046. 5007. 4945.
        4908. 4924. 4985. 4880. 4917. 4938. 4908. 4883. 4868. 4913.
        4987. 4904. 4920. 4938. 4975. 4932. 4896. 4972. 4990. 4914.
        4928. 4956. 4944. 4888. 4904. 4997. 4940. 4866. 4876. 4932.
        4941. 4900. 4886. 5037. 4925. 4871. 4868. 4876. 4984. 4976.
        5024. 5141. 4918. 4872. 4872. 4872. 4936. 4902. 4888. 5046.
        4879. 4868. 4910. 4978. 5043. 5026. 4974. 5063. 5972. 5536.
        5926. 6003. 5896. 5531. 5272. 5625. 5701. 5006. 5156. 5202.
        5142. 4922. 4921. 5597. 5619. 5002. 5067. 5263. 5322. 5065.
        5023. 5822. 5677. 5120. 5179. 5385. 5388. 5322. 5269. 6008.
        5574. 4971. 4999. 5186. 5407. 5272. 5090. 5975. 5521. 4967.
        4951. 5146. 5363. 5152. 5141. 6222. 5541. 4957. 4999. 5064.
        5216. 5148. 5051. 6011. 5455. 5201. 5477. 5822. 6052. 5902.
        5538. 6112. 5517. 5253. 5702. 6598. 7820. 9643. 11687. 12827.
        5499. 4974. 5045. 5390. 6232. 8940. 8956. 10397. 5650. 5003.
        5067. 5783. 8385. 8938. 5718. 7238. 6019. 5147. 5388. 7618.
        9748. 6099. 5287. 6305. 6396. 5247. 6885. 9834. 6550. 5195.
        5047. 5794. 7735. 6327. 9245. 7821. 5361. 4953. 4918. 5541.
        13691. 10307. 8352. 6013. 5371. 5079. 5016. 5539. 11739. 10773.
        9179. 7667. 6668. 5924. 5397. 5674. 4877. 4876. 5021. 5359.
        5959. 7288. 10247. 11367. 4940. 4904. 4923. 5098. 5459. 7709.
        8699. 8653. 4996. 4922. 4959. 5198. 7082. 8640. 5463. 5786.
        5012. 4900. 4945. 6474. 8995. 5778. 4924. 5184. 5103. 4905.
        5891. 9172. 6027. 4957. 4940. 5088. 5691. 5396. 8899. 6725.
        5065. 4868. 4872. 4957. 10307. 10268. 7416. 5306. 5059. 4936.
        4920. 4966. 10333. 10112. 7058. 5843. 5335. 5086. 4966. 4976.
        4932. 4920. 5063. 5511. 6289. 7790. 9032. 9688. 4978. 4937.
        4985. 5088. 5558. 7355. 7763. 8538. 4946. 4902. 4929. 5116.
        6537. 7958. 5627. 6517. 5003. 4910. 4952. 5800. 8330. 5841.
        4982. 5506. 5097. 4896. 5135. 8010. 6625. 5020. 4921. 5126.
        5622. 4958. 7003. 7702. 5160. 4878. 4872. 4999. 8352. 7416.
        9150. 5505. 5127. 4952. 4936. 5000. 9179. 9423. 8539. 6421.
        5582. 5157. 5004. 5007. 5222. 5110. 5406. 5867. 6078. 6150.
        5814. 5926. 5209. 4966. 5031. 5226. 5400. 5480. 5294. 5952.
        5242. 5021. 4999. 5258. 5665. 5291. 5132. 5676. 5378. 5089.
        5075. 5444. 5594. 5185. 5101. 5503. 5376. 4991. 5171. 5746.
        5381. 4960. 4898. 5175. 5591. 5008. 5138. 5999. 5110. 4874.
        4872. 5064. 6013. 5306. 5505. 6252. 5255. 5068. 5020. 5202.
        5824. 5635. 6201. 6578. 5964. 5527. 5209. 5262. 5385. 5312.
        5691. 5778. 5672. 5522. 5333. 5376. 5435. 5100. 5286. 5293.
        5258. 5162. 5095. 5408. 5439. 5104. 5141. 5301. 5486. 5110.
        5040. 5385. 5459. 5053. 5100. 5463. 5352. 5028. 5035. 5250.
        5497. 5044. 5151. 5388. 5372. 5077. 4948. 5180. 5422. 5036.
        5128. 5377. 5718. 4983. 4936. 5216. 5371. 5059. 5127. 5255.
        6026. 5402. 5288. 5670. 5128. 5146. 5419. 5651. 6366. 5750.
        5297. 5490. 5564. 5495. 5714. 5531. 5387. 5257. 5081. 5117.
        5394. 5047. 5325. 5207. 5086. 5017. 5001. 5191. 5322. 5042.
        5117. 5354. 5148. 5045. 4944. 5173. 5290. 5015. 5042. 5467.
        5116. 5036. 4953. 5095. 5208. 4965. 5037. 5290. 5258. 5053.
        4913. 5080. 5151. 4948. 4994. 5176. 5363. 5144. 4902. 5148.
        5079. 4936. 4952. 5068. 5402. 5865. 5484. 5929. 5015. 5058.
        5136. 5212. 5644. 5979. 5308. 5553. 5312. 5315. 5427. 5323.
        5203. 5056. 4984. 5020. 5232. 5027. 5215. 5102. 5011. 4956.
        4928. 5020. 5229. 5004. 5067. 5221. 5102. 4961. 4912. 5066.
        5110. 4940. 4968. 5243. 5125. 4908. 4888. 4979. 5109. 4940.
        4984. 5136. 5180. 4947. 4889. 4971. 5050. 4928. 4948. 5106.
        5247. 5065. 4888. 5051. 5016. 4920. 4936. 5020. 5288. 5484.
        5506. 5815. 4988. 5028. 5054. 5159. 5460. 5472. 5114. 5354.
        6416. 6062. 6412. 6281. 6092. 5623. 5343. 5680. 6002. 5169.
        5533. 5394. 5232. 5027. 4983. 5642. 5935. 5156. 5291. 5637.
        5459. 5100. 5025. 5824. 5877. 5168. 5246. 5811. 5517. 5236.
        5172. 5822. 5788. 5068. 5132. 5495. 5617. 5298. 5052. 5781.
        5687. 5041. 5061. 5407. 5702. 5332. 5046. 6011. 5539. 4966.
        5000. 5202. 5670. 5929. 5815. 7074. 5463. 5317. 5552. 5949.
        6546. 6530. 5763. 6538. 5419. 5194. 5666. 6423. 7521. 9889.
        14361. 17103. 5299. 4933. 5003. 5382. 6085. 9351. 11017. 11527.
        5483. 4938. 5040. 5752. 8521. 10880. 6007. 7400. 5791. 5043.
        5303. 7560. 11267. 6657. 5304. 6262. 6225. 5243. 6837. 11591.
        7358. 5186. 5006. 5781. 7427. 6182. 10451. 8717. 5209. 4952.
        4879. 5455. 11739. 10333. 9179. 5824. 5128. 5015. 4988. 5463.
        18749. 14951. 10394. 7764. 6358. 5728. 5279. 5530. 5188. 5088.
        5403. 5958. 6837. 8926. 13575. 15560. 5082. 4918. 5010. 5271.
        5795. 8887. 10595. 11017. 5188. 4917. 4996. 5439. 8022. 10690.
        5904. 7037. 5359. 4950. 5101. 6929. 11082. 6495. 5183. 5864.
        5634. 5071. 6178. 11168. 7300. 5141. 4991. 5460. 6472. 5641.
        10016. 8589. 5204. 4959. 4868. 5201. 10773. 10112. 9423. 5635.
        5146. 5058. 5028. 5317. 14951. 15781. 9804. 7026. 5981. 5421.
        5126. 5252. 5652. 5375. 5848. 6650. 7717. 9419. 9781. 10442.
        5407. 4962. 5085. 5433. 6243. 8132. 7602. 9279. 5565. 5045.
        5152. 5696. 7532. 7690. 5672. 7345. 5780. 5086. 5208. 6594.
        8439. 5927. 5295. 6320. 6036. 5222. 5753. 8534. 6712. 5185.
        5001. 5750. 6894. 5574. 7181. 8058. 5457. 4979. 4910. 5477.
        9179. 7058. 8539. 6201. 5419. 5136. 5054. 5552. 10394. 9804.
        11437. 8571. 6788. 5924. 5438. 5658. 6148. 5687. 6384. 7235.
        7698. 7973. 7512. 8079. 5909. 5090. 5348. 5689. 6075. 6633.
        6033. 7564. 6036. 5165. 5250. 5827. 6834. 6118. 5467. 6999.
        6294. 5303. 5393. 6275. 6906. 5615. 5387. 6548. 6402. 5281.
        5601. 7111. 6207. 5244. 5067. 6019. 6893. 5502. 5845. 7175.
        5679. 5026. 4978. 5822. 7667. 5843. 6421. 6578. 5651. 5212.
        5159. 5949. 7764. 7026. 8571. 9268. 7855. 6569. 5834. 6234.
        6562. 6075. 6821. 7315. 7228. 6892. 6429. 6899. 6304. 5275.
        5690. 5838. 5881. 5928. 5556. 6799. 6214. 5178. 5338. 5928.
        6456. 5616. 5312. 6661. 6418. 5336. 5439. 6278. 6374. 5503.
        5417. 6376. 6516. 5301. 5491. 6382. 6166. 5524. 5158. 6107.
        6606. 5355. 5455. 6396. 6227. 5275. 5043. 6052. 6668. 5335.
        5582. 5964. 6366. 5644. 5460. 6546. 6358. 5981. 6788. 7855.
        8883. 7373. 6178. 6755. 6805. 6342. 7029. 6878. 6533. 6198.
        5676. 5999. 6272. 5202. 5732. 5580. 5455. 5396. 5291. 6187.
        6128. 5194. 5344. 5914. 5695. 5336. 5168. 6075. 6254. 5326.
        5434. 6203. 5831. 5406. 5247. 6014. 6066. 5158. 5281. 6021.
        5789. 5359. 5055. 5872. 6087. 5151. 5241. 5904. 5832. 5328.
        5026. 5902. 5924. 5086. 5157. 5527. 5750. 5979. 5472. 6530.
        5728. 5421. 5924. 6569. 7373. 7948. 6505. 7115. 6125. 5775.
        6133. 6119. 5792. 5576. 5288. 5446. 5833. 5093. 5425. 5288.
        5131. 5106. 5045. 5433. 5698. 5107. 5213. 5527. 5228. 5027.
        4908. 5356. 5738. 5171. 5211. 5618. 5418. 5112. 4980. 5477.
        5572. 5025. 5074. 5463. 5337. 5053. 4981. 5449. 5474. 4942.
        4984. 5294. 5364. 5139. 4974. 5538. 5397. 4966. 5004. 5209.
        5297. 5308. 5114. 5763. 5279. 5126. 5438. 5834. 6178. 6505.
        6327. 6794. 6946. 6288. 6744. 6689. 6215. 5835. 5492. 5881.
        6410. 5201. 5650. 5459. 5212. 5064. 5060. 5733. 6209. 5238.
        5372. 5821. 5376. 5105. 4980. 5823. 6232. 5309. 5378. 5941.
        5637. 5262. 5107. 5967. 6049. 5113. 5180. 5647. 5546. 5254.
        5072. 5943. 5886. 4983. 5042. 5409. 5544. 5351. 5063. 6112.
        5674. 4976. 5007. 5262. 5490. 5553. 5354. 6538. 5530. 5252.
        5658. 6234. 6755. 7115. 6794. 8012.</data></_>
    <_ type_id="opencv-matrix">
      <rows>64</rows>
      <cols>64</cols>
      <dt>d</dt>
      <data>
        2978. 2823. 2332. 2101. 1518. 979. 779. 768. 1837. 1224. 1252.
        1449. 1419. 1147. 911. 842. 878. 777. 903. 1130. 1327. 1216.
        915. 924. 789. 779. 898. 1316. 1266. 1216. 951. 881. 877. 863.
        1048. 1504. 1202. 1008. 887. 855. 1060. 1105. 1358. 1629. 1544.
        1194. 1182. 1523. 1304. 1299. 1499. 1763. 1458. 1653. 1566.
        2096. 1295. 1566. 1844. 2061. 1700. 1622. 1475. 1310. 2823.
        4975. 4493. 3596. 2269. 1389. 889. 784. 3230. 1893. 1603. 1916.
        2072. 1489. 1032. 940. 1125. 809. 1028. 1468. 1934. 1605. 1120.
        955. 820. 816. 1035. 1863. 1852. 1521. 1133. 988. 1006. 1149.
        1416. 2344. 1719. 1414. 1063. 1034. 1821. 1635. 2021. 2559.
        2173. 1714. 1698. 2257. 2621. 2357. 2406. 2589. 2399. 2752.
        2494. 3396. 1851. 2826. 3228. 3040. 2071. 1894. 1976. 1992.
        2332. 4493. 8449. 6926. 4413. 2247. 1098. 852. 3929. 3019. 2370.
        2504. 3235. 2360. 1368. 1175. 1908. 997. 1049. 1587. 2853. 2527.
        1527. 1287. 901. 822. 1003. 2141. 3047. 2273. 1498. 1342. 1213.
        1303. 1847. 3516. 3106. 2078. 1477. 1442. 2756. 2236. 3032.
        3911. 3477. 2613. 2310. 3046. 4555. 3635. 3775. 3771. 3323.
        3627. 3806. 4969. 3087. 4504. 4789. 4158. 2656. 2472. 2699.
        3321. 2101. 3596. 6926. 11909. 7554. 3623. 1652. 962. 3574.
        3053. 3330. 3042. 4579. 3437. 2227. 1578. 2290. 1240. 1053.
        1309. 3244. 3381. 2567. 2205. 909. 849. 983. 1939. 3560. 3082.
        2305. 1737. 1230. 1452. 2265. 3868. 3995. 3267. 2230. 1689.
        3723. 3027. 3989. 5236. 5185. 3852. 2966. 3574. 6956. 5220.
        4974. 5047. 4276. 4423. 4831. 6525. 4706. 6629. 6679. 5402.
        3338. 3071. 3315. 4201. 1518. 2269. 4413. 7554. 11640. 6814.
        3252. 1397. 2359. 2268. 2991. 3279. 3586. 4320. 3579. 3021.
        1821. 1269. 1188. 1047. 2171. 3457. 3675. 4132. 1020. 915. 980.
        1540. 2832. 3321. 3626. 2655. 1221. 1575. 2490. 3788. 3785.
        4193. 3062. 1891. 3795. 3169. 4133. 5214. 5675. 4819. 3131.
        3685. 8565. 6407. 5126. 5104. 4123. 4192. 4569. 5497. 5688.
        7678. 6676. 4683. 3046. 2483. 3210. 3945. 979. 1389. 2247. 3623.
        6814. 9364. 4412. 1604. 1363. 1340. 2140. 3025. 2643. 3400.
        4543. 4344. 1329. 1064. 1172. 1109. 1322. 2185. 4143. 5238. 915.
        865. 917. 1144. 1625. 2716. 3972. 2844. 1138. 1339. 2280. 2883.
        2989. 4112. 3056. 1717. 3292. 2830. 3554. 4364. 4808. 4286.
        2603. 2588. 7697. 5752. 4325. 4113. 3135. 3287. 3365. 3553.
        5091. 7006. 5027. 3070. 2127. 1816. 2440. 2889. 779. 889. 1098.
        1652. 3252. 4412. 4885. 2153. 896. 917. 1255. 1849. 1981. 1633.
        3239. 3993. 885. 847. 962. 1055. 1008. 1193. 2787. 3462. 846.
        811. 879. 886. 1098. 1582. 2822. 1586. 936. 1270. 1909. 2034.
        2037. 2907. 1908. 1168. 2369. 2137. 2039. 2777. 3023. 2498.
        1585. 1427. 4692. 3441. 2630. 2479. 1813. 1817. 1840. 1761.
        3364. 4409. 2839. 1697. 1334. 1178. 1344. 1593. 768. 784. 852.
        962. 1397. 1604. 2153. 1851. 786. 782. 849. 1102. 1124. 1030.
        1449. 1931. 796. 773. 821. 931. 920. 960. 1358. 1586. 804. 775.
        831. 798. 925. 1017. 1421. 966. 834. 945. 1120. 1215. 1104.
        1424. 1032. 875. 1313. 1193. 1173. 1385. 1397. 1262. 954. 922.
        1918. 1571. 1365. 1292. 1098. 1079. 1118. 1033. 1848. 1989.
        1391. 1000. 993. 919. 878. 1023. 1837. 3230. 3929. 3574. 2359.
        1363. 896. 786. 4154. 2466. 1591. 1739. 1944. 1369. 1010. 899.
        1461. 825. 938. 1166. 1788. 1479. 1054. 1008. 841. 810. 939.
        1484. 1801. 1444. 1050. 927. 951. 995. 1240. 1972. 1727. 1306.
        954. 941. 1194. 1197. 1715. 2183. 1768. 1559. 1525. 2025. 1786.
        1747. 2335. 2309. 1992. 2238. 2195. 2900. 1565. 2294. 2704.
        2760. 1920. 1614. 1790. 1837. 1224. 1893. 3019. 3053. 2268.
        1340. 917. 782. 2466. 2500. 1790. 1503. 1744. 1288. 1060. 903.
        1694. 964. 910. 988. 1581. 1342. 1042. 1050. 859. 804. 888.
        1217. 1677. 1256. 1005. 931. 909. 921. 1146. 1640. 1777. 1209.
        992. 932. 1257. 1146. 1584. 2002. 1792. 1533. 1411. 1736. 1949.
        1706. 1989. 1928. 1649. 1831. 1976. 2404. 1597. 2070. 2299.
        1958. 1569. 1380. 1397. 1651. 1252. 1603. 2370. 3330. 2991.
        2140. 1255. 849. 1591. 1790. 3191. 2260. 1843. 1620. 1391. 1273.
        1536. 1170. 1159. 1255. 1520. 1608. 1372. 1397. 896. 834. 909.
        1466. 1755. 1589. 1290. 1159. 988. 1022. 1339. 2054. 1988. 1479.
        1130. 974. 1910. 1613. 2025. 2619. 2493. 1996. 1704. 1962. 3250.
        2622. 2358. 2309. 1987. 2001. 2289. 2969. 2465. 3031. 2715.
        1938. 1593. 1442. 1530. 1967. 1449. 1916. 2504. 3042. 3279.
        3025. 1849. 1102. 1739. 1503. 2260. 3933. 2377. 1782. 1926.
        1929. 1225. 1028. 1039. 1404. 1738. 1604. 1903. 2032. 890. 824.
        891. 1410. 1802. 1730. 1797. 1447. 968. 1032. 1544. 2178. 2233.
        2036. 1524. 1149. 2137. 1971. 2413. 2902. 2914. 2527. 1921.
        2228. 4178. 3260. 2764. 2654. 2207. 2314. 2478. 2997. 3134.
        3752. 2949. 2156. 1714. 1567. 1842. 2123. 1419. 2072. 3235.
        4579. 3586. 2643. 1981. 1124. 1944. 1744. 1843. 2377. 4612.
        2252. 1957. 1983. 1309. 1008. 974. 1068. 2301. 2042. 1876. 1978.
        863. 806. 883. 1203. 2299. 1884. 1980. 1275. 957. 1126. 1629.
        2214. 2644. 2539. 1795. 1317. 2350. 2004. 2676. 3576. 3467.
        2723. 2007. 2539. 4727. 3731. 3177. 3001. 2547. 2646. 2814.
        3648. 3289. 4232. 3543. 2674. 1870. 2100. 2115. 2324. 1147.
        1489. 2360. 3437. 4320. 3400. 1633. 1030. 1369. 1288. 1620.
        1782. 2252. 4089. 2121. 1663. 1017. 884. 992. 1024. 1072. 2572.
        2255. 2025. 787. 796. 903. 1025. 1465. 2359. 2183. 1566. 975.
        1084. 1460. 1910. 2124. 2724. 1905. 1367. 2203. 1869. 2336.
        2836. 3129. 2708. 1913. 1864. 4491. 3563. 3053. 2749. 2328.
        2394. 2471. 2897. 2971. 3934. 3419. 2371. 1738. 1491. 1708.
        2198. 911. 1032. 1368. 2227. 3579. 4543. 3239. 1449. 1010. 1060.
        1391. 1926. 1957. 2121. 4197. 3206. 1057. 922. 956. 1052. 998.
        1193. 3211. 3446. 870. 808. 834. 894. 1097. 1591. 3004. 1934.
        946. 1157. 1655. 1960. 1945. 2834. 2247. 1231. 2083. 1981. 2237.
        2748. 3146. 2888. 1834. 1574. 4634. 3701. 2790. 2519. 1946.
        1965. 1903. 1974. 3394. 4428. 3050. 1881. 1355. 1331. 1553.
        1703. 842. 940. 1175. 1578. 3021. 4344. 3993. 1931. 899. 903.
        1273. 1929. 1983. 1663. 3206. 4971. 906. 857. 959. 982. 926.
        1107. 2605. 3840. 863. 814. 832. 865. 1091. 1544. 2876. 1689.
        875. 1175. 1789. 1957. 2021. 2939. 1782. 1068. 2163. 2106. 2031.
        2647. 2763. 2316. 1492. 1335. 4557. 3266. 2624. 2390. 1782.
        1802. 1718. 1597. 3294. 4101. 2600. 1406. 1180. 1260. 1302.
        1481. 878. 1125. 1908. 2290. 1821. 1329. 885. 796. 1461. 1694.
        1536. 1225. 1309. 1017. 1057. 906. 2317. 1189. 844. 911. 1243.
        1086. 1072. 990. 990. 815. 807. 994. 1314. 1114. 879. 864. 824.
        808. 930. 1218. 1536. 1051. 884. 889. 930. 940. 1194. 1543.
        1473. 1231. 1083. 1199. 1261. 1226. 1540. 1441. 1225. 1359.
        1559. 1668. 1188. 1482. 1667. 1390. 1181. 1116. 1298. 1489. 777.
        809. 997. 1240. 1269. 1064. 847. 773. 825. 964. 1170. 1028.
        1008. 884. 922. 857. 1189. 1118. 874. 816. 914. 911. 921. 848.
        912. 817. 812. 831. 961. 954. 818. 776. 803. 820. 850. 972.
        1084. 906. 772. 773. 881. 836. 922. 1070. 1095. 980. 872. 904.
        1092. 1033. 1066. 1020. 964. 995. 1140. 1188. 1021. 1068. 1097.
        956. 893. 860. 968. 1090. 903. 1028. 1049. 1053. 1188. 1172.
        962. 821. 938. 910. 1159. 1039. 974. 992. 956. 959. 844. 874.
        1221. 936. 883. 965. 932. 965. 816. 824. 909. 942. 908. 917.
        910. 842. 875. 877. 889. 1037. 959. 891. 865. 800. 1076. 949.
        1007. 1198. 1167. 1094. 946. 1014. 1405. 1279. 1156. 1097. 984.
        1098. 1121. 1235. 1167. 1313. 1187. 901. 871. 934. 890. 946.
        1130. 1468. 1587. 1309. 1047. 1109. 1055. 931. 1166. 988. 1255.
        1404. 1068. 1024. 1052. 982. 911. 816. 936. 1798. 1012. 917.
        1035. 1023. 779. 788. 900. 1453. 882. 902. 1035. 986. 872. 880.
        1045. 1438. 945. 1019. 957. 884. 1348. 1191. 1360. 1460. 1258.
        1240. 1146. 1302. 1938. 1677. 1372. 1320. 1232. 1327. 1302.
        1556. 1590. 1719. 1412. 1228. 1181. 1065. 1075. 995. 1327. 1934.
        2853. 3244. 2171. 1322. 1008. 920. 1788. 1581. 1520. 1738. 2301.
        1072. 998. 926. 1243. 914. 883. 1012. 2885. 1130. 958. 864. 848.
        788. 867. 1323. 2335. 935. 915. 839. 841. 928. 1229. 1841. 1804.
        1109. 949. 1010. 1535. 1333. 1830. 2222. 1948. 1507. 1364. 1879.
        2637. 2110. 2048. 2099. 1757. 1903. 2039. 2534. 2009. 2394.
        2228. 2059. 1588. 1639. 1604. 1708. 1216. 1605. 2527. 3381.
        3457. 2185. 1193. 960. 1479. 1342. 1608. 1604. 2042. 2572. 1193.
        1107. 1086. 911. 965. 917. 1130. 3216. 1135. 952. 793. 790. 849.
        996. 1640. 2369. 1145. 985. 903. 982. 1251. 1760. 1937. 1910.
        1195. 1070. 1809. 1562. 1996. 2226. 2323. 1996. 1565. 1814.
        3192. 2625. 2361. 2242. 2032. 2082. 2132. 2617. 2232. 2908.
        2657. 2067. 1583. 1299. 1544. 2025. 915. 1120. 1527. 2567. 3675.
        4143. 2787. 1358. 1054. 1042. 1372. 1903. 1876. 2255. 3211.
        2605. 1072. 921. 932. 1035. 958. 1135. 3696. 2793. 848. 802.
        827. 850. 952. 1725. 2954. 1651. 947. 1135. 1554. 1716. 1898.
        2793. 2092. 1239. 2099. 1900. 1959. 2657. 3066. 2721. 1792.
        1503. 4238. 3371. 2698. 2509. 2039. 2057. 1946. 2075. 3025.
        3941. 3112. 2028. 1461. 1339. 1574. 1710. 924. 955. 1287. 2205.
        4132. 5238. 3462. 1586. 1008. 1050. 1397. 2032. 1978. 2025.
        3446. 3840. 990. 848. 965. 1023. 864. 952. 2793. 6326. 846. 839.
        841. 906. 922. 1208. 3708. 2797. 951. 1148. 1708. 1821. 1888.
        3033. 2797. 1427. 2395. 2157. 2207. 2782. 3266. 3222. 1875.
        1572. 5038. 3666. 2907. 2740. 2116. 2022. 1988. 1689. 3175.
        4505. 3627. 2085. 1427. 1394. 1656. 1838. 789. 820. 901. 909.
        1020. 915. 846. 804. 841. 859. 896. 890. 863. 787. 870. 863.
        990. 912. 816. 779. 848. 793. 848. 846. 986. 834. 776. 788. 874.
        834. 793. 792. 814. 812. 803. 841. 887. 816. 772. 793. 843. 789.
        828. 927. 935. 872. 831. 891. 886. 847. 873. 847. 811. 879. 885.
        915. 882. 897. 918. 853. 830. 815. 863. 926. 779. 816. 822. 849.
        915. 865. 811. 775. 810. 804. 834. 824. 806. 796. 808. 814. 815.
        817. 824. 788. 788. 790. 802. 839. 834. 860. 817. 802. 795. 800.
        802. 780. 875. 841. 810. 835. 822. 829. 782. 778. 882. 797. 778.
        871. 891. 828. 803. 848. 922. 863. 856. 833. 793. 865. 853. 816.
        844. 879. 863. 782. 768. 798. 814. 854. 898. 1035. 1003. 983.
        980. 917. 879. 831. 939. 888. 909. 891. 883. 903. 834. 832. 807.
        812. 909. 900. 867. 849. 827. 841. 776. 817. 1084. 912. 830.
        843. 836. 800. 920. 1019. 929. 880. 871. 907. 800. 779. 1121.
        962. 834. 881. 952. 897. 875. 907. 1098. 1040. 1090. 1031. 927.
        1013. 1025. 1110. 965. 1038. 1117. 916. 884. 894. 855. 915.
        1316. 1863. 2141. 1939. 1540. 1144. 886. 798. 1484. 1217. 1466.
        1410. 1203. 1025. 894. 865. 994. 831. 942. 1453. 1323. 996. 850.
        906. 788. 802. 912. 2121. 1103. 898. 881. 912. 884. 923. 1325.
        1829. 944. 947. 835. 839. 1494. 1383. 1641. 1506. 1153. 1075.
        1134. 1432. 1943. 1754. 1536. 1461. 1418. 1563. 1636. 2046.
        1596. 1686. 1637. 1505. 1381. 1300. 1249. 1239. 1266. 1852.
        3047. 3560. 2832. 1625. 1098. 925. 1801. 1677. 1755. 1802. 2299.
        1465. 1097. 1091. 1314. 961. 908. 882. 2335. 1640. 952. 922.
        874. 795. 830. 1103. 3087. 1183. 859. 863. 842. 910. 1245. 2158.
        2120. 1013. 878. 988. 1531. 1378. 1984. 2371. 1928. 1409. 1410.
        2017. 2877. 2394. 2224. 2193. 1971. 2067. 2196. 2714. 2390.
        2873. 2552. 2066. 1560. 1606. 1522. 1719. 1216. 1521. 2273.
        3082. 3321. 2716. 1582. 1017. 1444. 1256. 1589. 1730. 1884.
        2359. 1591. 1544. 1114. 954. 917. 902. 935. 2369. 1725. 1208.
        834. 800. 843. 898. 1183. 3231. 1178. 947. 946. 1053. 1237.
        1652. 2295. 2420. 943. 995. 1806. 1570. 1901. 2523. 2670. 1922.
        1447. 1715. 3311. 2599. 2313. 2179. 1838. 2026. 2136. 2634.
        2528. 3149. 2541. 1911. 1459. 1242. 1646. 2208. 951. 1133. 1498.
        2305. 3626. 3972. 2822. 1421. 1050. 1005. 1290. 1797. 1980.
        2183. 3004. 2876. 879. 818. 910. 1035. 915. 1145. 2954. 3708.
        793. 802. 836. 881. 859. 1178. 3678. 1978. 944. 1147. 1622.
        1704. 1688. 2946. 2480. 1226. 2287. 2044. 2002. 2631. 3189.
        3028. 1769. 1474. 4398. 3367. 2634. 2521. 1875. 1825. 1803.
        1760. 2841. 4026. 3178. 1899. 1352. 1285. 1506. 1597. 881. 988.
        1342. 1737. 2655. 2844. 1586. 966. 927. 931. 1159. 1447. 1275.
        1566. 1934. 1689. 864. 776. 842. 986. 839. 985. 1651. 2797. 792.
        780. 800. 912. 863. 947. 1978. 3203. 975. 1019. 1213. 1369.
        1247. 1439. 2222. 1489. 1971. 1451. 1417. 1446. 1884. 2114.
        1643. 1180. 2890. 2228. 2000. 1855. 1720. 1498. 1357. 1326.
        1721. 2639. 2447. 1895. 1172. 1151. 1370. 1410. 877. 1006. 1213.
        1230. 1221. 1138. 936. 834. 951. 909. 988. 968. 957. 975. 946.
        875. 824. 803. 875. 872. 841. 903. 947. 951. 814. 875. 920. 884.
        842. 946. 944. 975. 1414. 1145. 1062. 1173. 1067. 1100. 942.
        848. 1635. 993. 923. 1104. 1121. 1108. 1058. 1078. 1319. 1144.
        1071. 1075. 1024. 1049. 1115. 1176. 928. 1119. 1273. 954. 865.
        904. 965. 1171. 863. 1149. 1303. 1452. 1575. 1339. 1270. 945.
        995. 921. 1022. 1032. 1126. 1084. 1157. 1175. 808. 820. 877.
        880. 928. 982. 1135. 1148. 812. 841. 1019. 923. 910. 1053. 1147.
        1019. 1145. 1607. 1492. 1341. 1266. 1385. 1068. 847. 2018. 1303.
        805. 1248. 1472. 1327. 1215. 1109. 1877. 1408. 1406. 1449. 1179.
        1180. 1218. 1337. 1135. 1636. 1734. 1108. 887. 826. 909. 1201.
        1048. 1416. 1847. 2265. 2490. 2280. 1909. 1120. 1240. 1146.
        1339. 1544. 1629. 1460. 1655. 1789. 930. 850. 889. 1045. 1229.
        1251. 1554. 1708. 803. 810. 929. 1325. 1245. 1237. 1622. 1213.
        1062. 1492. 2642. 2236. 1717. 1876. 1383. 1029. 2379. 2231.
        1385. 1583. 2087. 1853. 1447. 1494. 3196. 2454. 2090. 2186.
        1724. 1668. 1736. 1921. 1931. 2850. 2730. 1710. 1193. 1037.
        1107. 1514. 1504. 2344. 3516. 3868. 3788. 2883. 2034. 1215.
        1972. 1640. 2054. 2178. 2214. 1910. 1960. 1957. 1218. 972. 1037.
        1438. 1841. 1760. 1716. 1821. 841. 835. 880. 1829. 2158. 1652.
        1704. 1369. 1173. 1341. 2236. 4343. 2391. 2152. 1480. 1190.
        2798. 2326. 2657. 2912. 2459. 2138. 1858. 2320. 4449. 3470.
        2883. 2894. 2509. 2557. 2633. 3388. 3158. 4149. 3334. 2303.
        1777. 1605. 1810. 2041. 1202. 1719. 3106. 3995. 3785. 2989.
        2037. 1104. 1727. 1777. 1988. 2233. 2644. 2124. 1945. 2021.
        1536. 1084. 959. 945. 1804. 1937. 1898. 1888. 887. 822. 871.
        944. 2120. 2295. 1688. 1247. 1067. 1266. 1717. 2391. 4334. 2585.
        1590. 1374. 2475. 2020. 2306. 3284. 3006. 2106. 1918. 2244.
        4245. 3319. 2852. 2682. 2111. 2029. 2449. 3162. 3036. 4039.
        3101. 2273. 1525. 1537. 1778. 2246. 1008. 1414. 2078. 3267.
        4193. 4112. 2907. 1424. 1306. 1209. 1479. 2036. 2539. 2724.
        2834. 2939. 1051. 906. 891. 1019. 1109. 1910. 2793. 3033. 816.
        829. 907. 947. 1013. 2420. 2946. 1439. 1100. 1385. 1876. 2152.
        2585. 4754. 1907. 1441. 2622. 2321. 2422. 3218. 3881. 2998.
        1909. 1914. 5197. 3970. 2957. 2804. 1955. 1936. 2190. 2679.
        3247. 4658. 3619. 2024. 1281. 1354. 1705. 2162. 887. 1063. 1477.
        2230. 3062. 3056. 1908. 1032. 954. 992. 1130. 1524. 1795. 1905.
        2247. 1782. 884. 772. 865. 957. 949. 1195. 2092. 2797. 772. 782.
        800. 835. 878. 943. 2480. 2222. 942. 1068. 1383. 1480. 1590.
        1907. 3004. 1750. 2122. 1715. 1689. 1934. 2326. 2459. 1840.
        1557. 3455. 2624. 2153. 2163. 1843. 1489. 1353. 1482. 2157.
        3160. 2911. 2057. 1345. 1135. 1366. 1363. 855. 1034. 1442. 1689.
        1891. 1717. 1168. 875. 941. 932. 974. 1149. 1317. 1367. 1231.
        1068. 889. 773. 800. 884. 1010. 1070. 1239. 1427. 793. 778. 779.
        839. 988. 995. 1226. 1489. 848. 847. 1029. 1190. 1374. 1441.
        1750. 2295. 1493. 1345. 1267. 1487. 1609. 1379. 1389. 1339.
        2261. 1719. 1639. 1489. 1255. 1087. 1068. 1014. 1604. 2039.
        1934. 1594. 1159. 996. 998. 1016. 1060. 1821. 2756. 3723. 3795.
        3292. 2369. 1313. 1194. 1257. 1910. 2137. 2350. 2203. 2083.
        2163. 930. 881. 1076. 1348. 1535. 1809. 2099. 2395. 843. 882.
        1121. 1494. 1531. 1806. 2287. 1971. 1635. 2018. 2379. 2798.
        2475. 2622. 2122. 1493. 5956. 3198. 2482. 3114. 3489. 2917.
        2233. 2172. 5526. 3392. 2573. 2895. 2479. 2352. 2610. 2932.
        2652. 4097. 3890. 2244. 1361. 1402. 1772. 2456. 1105. 1635.
        2236. 3027. 3169. 2830. 2137. 1193. 1197. 1146. 1613. 1971.
        2004. 1869. 1981. 2106. 940. 836. 949. 1191. 1333. 1562. 1900.
        2157. 789. 797. 962. 1383. 1378. 1570. 2044. 1451. 993. 1303.
        2231. 2326. 2020. 2321. 1715. 1345. 3198. 3654. 2421. 2670.
        3020. 2392. 1828. 1779. 4348. 3098. 2074. 2701. 2016. 1997.
        2082. 2345. 2496. 3783. 3263. 2045. 1223. 1231. 1484. 2020.
        1358. 2021. 3032. 3989. 4133. 3554. 2039. 1173. 1715. 1584.
        2025. 2413. 2676. 2336. 2237. 2031. 1194. 922. 1007. 1360. 1830.
        1996. 1959. 2207. 828. 778. 834. 1641. 1984. 1901. 2002. 1417.
        923. 805. 1385. 2657. 2306. 2422. 1689. 1267. 2482. 2421. 4676.
        3784. 3300. 2598. 1954. 2306. 5493. 4313. 2437. 2368. 2323.
        2710. 2849. 3622. 3797. 4528. 3100. 2375. 1824. 1766. 2111.
        2283. 1629. 2559. 3911. 5236. 5214. 4364. 2777. 1385. 2183.
        2002. 2619. 2902. 3576. 2836. 2748. 2647. 1543. 1070. 1198.
        1460. 2222. 2226. 2657. 2782. 927. 871. 881. 1506. 2371. 2523.
        2631. 1446. 1104. 1248. 1583. 2912. 3284. 3218. 1934. 1487.
        3114. 2670. 3784. 6662. 4804. 3631. 2492. 2903. 6855. 5090.
        3757. 3209. 2354. 3217. 3698. 4669. 4840. 6094. 4203. 2720.
        2080. 2199. 2631. 3033. 1544. 2173. 3477. 5185. 5675. 4808.
        3023. 1397. 1768. 1792. 2493. 2914. 3467. 3129. 3146. 2763.
        1473. 1095. 1167. 1258. 1948. 2323. 3066. 3266. 935. 891. 952.
        1153. 1928. 2670. 3189. 1884. 1121. 1472. 2087. 2459. 3006.
        3881. 2326. 1609. 3489. 3020. 3300. 4804. 7106. 4465. 2663.
        2888. 6960. 4993. 3835. 3798. 2369. 2913. 3369. 3945. 4488.
        6381. 4996. 2809. 1659. 1692. 2548. 3350. 1194. 1714. 2613.
        3852. 4819. 4286. 2498. 1262. 1559. 1533. 1996. 2527. 2723.
        2708. 2888. 2316. 1231. 980. 1094. 1240. 1507. 1996. 2721. 3222.
        872. 828. 897. 1075. 1409. 1922. 3028. 2114. 1108. 1327. 1853.
        2138. 2106. 2998. 2459. 1379. 2917. 2392. 2598. 3631. 4465.
        5404. 2797. 2570. 5622. 4248. 3332. 3014. 2170. 1894. 2680.
        3046. 3341. 5021. 4450. 2624. 1417. 1203. 1957. 2725. 1182.
        1698. 2310. 2966. 3131. 2603. 1585. 954. 1525. 1411. 1704. 1921.
        2007. 1913. 1834. 1492. 1083. 872. 946. 1146. 1364. 1565. 1792.
        1875. 831. 803. 875. 1134. 1410. 1447. 1769. 1643. 1058. 1215.
        1447. 1858. 1918. 1909. 1840. 1389. 2233. 1828. 1954. 2492.
        2663. 2797. 3467. 3044. 3597. 2937. 2424. 2333. 1783. 1492.
        1530. 2392. 2260. 3310. 3137. 2239. 1357. 1014. 1074. 1424.
        1523. 2257. 3046. 3574. 3685. 2588. 1427. 922. 2025. 1736. 1962.
        2228. 2539. 1864. 1574. 1335. 1199. 904. 1014. 1302. 1879. 1814.
        1503. 1572. 891. 848. 907. 1432. 2017. 1715. 1474. 1180. 1078.
        1109. 1494. 2320. 2244. 1914. 1557. 1339. 2172. 1779. 2306.
        2903. 2888. 2570. 3044. 5145. 4020. 3190. 2867. 2789. 2256.
        2105. 1977. 2720. 2742. 3701. 3666. 2680. 1639. 1387. 1191. 987.
        1304. 2621. 4555. 6956. 8565. 7697. 4692. 1918. 1786. 1949.
        3250. 4178. 4727. 4491. 4634. 4557. 1261. 1092. 1405. 1938.
        2637. 3192. 4238. 5038. 886. 922. 1098. 1943. 2877. 3311. 4398.
        2890. 1319. 1877. 3196. 4449. 4245. 5197. 3455. 2261. 5526.
        4348. 5493. 6855. 6960. 5622. 3597. 4020. 14377. 9074. 5821.
        5491. 4224. 4324. 4814. 5815. 7374. 10268. 7313. 3929. 2463.
        2500. 3140. 4037. 1299. 2357. 3635. 5220. 6407. 5752. 3441.
        1571. 1747. 1706. 2622. 3260. 3731. 3563. 3701. 3266. 1226.
        1033. 1279. 1677. 2110. 2625. 3371. 3666. 847. 863. 1040. 1754.
        2394. 2599. 3367. 2228. 1144. 1408. 2454. 3470. 3319. 3970.
        2624. 1719. 3392. 3098. 4313. 5090. 4993. 4248. 2937. 3190.
        9074. 8269. 4755. 4037. 3476. 3547. 3651. 4360. 5468. 7631.
        5026. 2831. 1985. 1972. 2413. 2814. 1499. 2406. 3775. 4974.
        5126. 4325. 2630. 1365. 2335. 1989. 2358. 2764. 3177. 3053.
        2790. 2624. 1540. 1066. 1156. 1372. 2048. 2361. 2698. 2907. 873.
        856. 1090. 1536. 2224. 2313. 2634. 2000. 1071. 1406. 2090. 2883.
        2852. 2957. 2153. 1639. 2573. 2074. 2437. 3757. 3835. 3332.
        2424. 2867. 5821. 4755. 6033. 4012. 3086. 3300. 3348. 4017.
        4133. 5907. 5206. 2986. 2179. 1919. 1984. 2464. 1763. 2589.
        3771. 5047. 5104. 4113. 2479. 1292. 2309. 1928. 2309. 2654.
        3001. 2749. 2519. 2390. 1441. 1020. 1097. 1320. 2099. 2242.
        2509. 2740. 847. 833. 1031. 1461. 2193. 2179. 2521. 1855. 1075.
        1449. 2186. 2894. 2682. 2804. 2163. 1489. 2895. 2701. 2368.
        3209. 3798. 3014. 2333. 2789. 5491. 4037. 4012. 5752. 3597.
        3150. 3167. 4045. 3669. 5515. 5359. 3375. 2136. 2045. 2131.
        2412. 1458. 2399. 3323. 4276. 4123. 3135. 1813. 1098. 1992.
        1649. 1987. 2207. 2547. 2328. 1946. 1782. 1225. 964. 984. 1232.
        1757. 2032. 2039. 2116. 811. 793. 927. 1418. 1971. 1838. 1875.
        1720. 1024. 1179. 1724. 2509. 2111. 1955. 1843. 1255. 2479.
        2016. 2323. 2354. 2369. 2170. 1783. 2256. 4224. 3476. 3086.
        3597. 4430. 3371. 2888. 3440. 2844. 4035. 4028. 3135. 1993.
        1882. 2036. 1972. 1653. 2752. 3627. 4423. 4192. 3287. 1817.
        1079. 2238. 1831. 2001. 2314. 2646. 2394. 1965. 1802. 1359. 995.
        1098. 1327. 1903. 2082. 2057. 2022. 879. 865. 1013. 1563. 2067.
        2026. 1825. 1498. 1049. 1180. 1668. 2557. 2029. 1936. 1489.
        1087. 2352. 1997. 2710. 3217. 2913. 1894. 1492. 2105. 4324.
        3547. 3300. 3150. 3371. 4817. 3697. 3925. 3225. 4397. 3726.
        2908. 2192. 2009. 2437. 2420. 1566. 2494. 3806. 4831. 4569.
        3365. 1840. 1118. 2195. 1976. 2289. 2478. 2814. 2471. 1903.
        1718. 1559. 1140. 1121. 1302. 2039. 2132. 1946. 1988. 885. 853.
        1025. 1636. 2196. 2136. 1803. 1357. 1115. 1218. 1736. 2633.
        2449. 2190. 1353. 1068. 2610. 2082. 2849. 3698. 3369. 2680.
        1530. 1977. 4814. 3651. 3348. 3167. 2888. 3697. 4988. 5270.
        3412. 4581. 3994. 3014. 2162. 2045. 2485. 3156. 2096. 3396.
        4969. 6525. 5497. 3553. 1761. 1033. 2900. 2404. 2969. 2997.
        3648. 2897. 1974. 1597. 1668. 1188. 1235. 1556. 2534. 2617.
        2075. 1689. 915. 816. 1110. 2046. 2714. 2634. 1760. 1326. 1176.
        1337. 1921. 3388. 3162. 2679. 1482. 1014. 2932. 2345. 3622.
        4669. 3945. 3046. 2392. 2720. 5815. 4360. 4017. 4045. 3440.
        3925. 5270. 8794. 4205. 5559. 5022. 3872. 2909. 2795. 2682.
        2939. 1295. 1851. 3087. 4706. 5688. 5091. 3364. 1848. 1565.
        1597. 2465. 3134. 3289. 2971. 3394. 3294. 1188. 1021. 1167.
        1590. 2009. 2232. 3025. 3175. 882. 844. 965. 1596. 2390. 2528.
        2841. 1721. 928. 1135. 1931. 3158. 3036. 3247. 2157. 1604. 2652.
        2496. 3797. 4840. 4488. 3341. 2260. 2742. 7374. 5468. 4133.
        3669. 2844. 3225. 3412. 4205. 9107. 7646. 4185. 2384. 2080.
        1907. 2155. 2679. 1566. 2826. 4504. 6629. 7678. 7006. 4409.
        1989. 2294. 2070. 3031. 3752. 4232. 3934. 4428. 4101. 1482.
        1068. 1313. 1719. 2394. 2908. 3941. 4505. 897. 879. 1038. 1686.
        2873. 3149. 4026. 2639. 1119. 1636. 2850. 4149. 4039. 4658.
        3160. 2039. 4097. 3783. 4528. 6094. 6381. 5021. 3310. 3701.
        10268. 7631. 5907. 5515. 4035. 4397. 4581. 5559. 7646. 12688.
        7399. 3838. 2394. 2191. 2741. 3449. 1844. 3228. 4789. 6679.
        6676. 5027. 2839. 1391. 2704. 2299. 2715. 2949. 3543. 3419.
        3050. 2600. 1667. 1097. 1187. 1412. 2228. 2657. 3112. 3627. 918.
        863. 1117. 1637. 2552. 2541. 3178. 2447. 1273. 1734. 2730. 3334.
        3101. 3619. 2911. 1934. 3890. 3263. 3100. 4203. 4996. 4450.
        3137. 3666. 7313. 5026. 5206. 5359. 4028. 3726. 3994. 5022.
        4185. 7399. 10256. 5465. 2721. 2020. 2299. 2700. 2061. 3040.
        4158. 5402. 4683. 3070. 1697. 1000. 2760. 1958. 1938. 2156.
        2674. 2371. 1881. 1406. 1390. 956. 901. 1228. 2059. 2067. 2028.
        2085. 853. 782. 916. 1505. 2066. 1911. 1899. 1895. 954. 1108.
        1710. 2303. 2273. 2024. 2057. 1594. 2244. 2045. 2375. 2720.
        2809. 2624. 2239. 2680. 3929. 2831. 2986. 3375. 3135. 2908.
        3014. 3872. 2384. 3838. 5465. 6624. 3416. 2241. 2263. 2339.
        1700. 2071. 2656. 3338. 3046. 2127. 1334. 993. 1920. 1569. 1593.
        1714. 1870. 1738. 1355. 1180. 1181. 893. 871. 1181. 1588. 1583.
        1461. 1427. 830. 768. 884. 1381. 1560. 1459. 1352. 1172. 865.
        887. 1193. 1777. 1525. 1281. 1345. 1159. 1361. 1223. 1824. 2080.
        1659. 1417. 1357. 1639. 2463. 1985. 2179. 2136. 1993. 2192.
        2162. 2909. 2080. 2394. 2721. 3416. 4111. 2624. 1966. 1844.
        1622. 1894. 2472. 3071. 2483. 1816. 1178. 919. 1614. 1380. 1442.
        1567. 2100. 1491. 1331. 1260. 1116. 860. 934. 1065. 1639. 1299.
        1339. 1394. 815. 798. 894. 1300. 1606. 1242. 1285. 1151. 904.
        826. 1037. 1605. 1537. 1354. 1135. 996. 1402. 1231. 1766. 2199.
        1692. 1203. 1014. 1387. 2500. 1972. 1919. 2045. 1882. 2009.
        2045. 2795. 1907. 2191. 2020. 2241. 2624. 3887. 2594. 1918.
        1475. 1976. 2699. 3315. 3210. 2440. 1344. 878. 1790. 1397. 1530.
        1842. 2115. 1708. 1553. 1302. 1298. 968. 890. 1075. 1604. 1544.
        1574. 1656. 863. 814. 855. 1249. 1522. 1646. 1506. 1370. 965.
        909. 1107. 1810. 1778. 1705. 1366. 998. 1772. 1484. 2111. 2631.
        2548. 1957. 1074. 1191. 3140. 2413. 1984. 2131. 2036. 2437.
        2485. 2682. 2155. 2741. 2299. 2263. 1966. 2594. 4639. 3657.
        1310. 1992. 3321. 4201. 3945. 2889. 1593. 1023. 1837. 1651.
        1967. 2123. 2324. 2198. 1703. 1481. 1489. 1090. 946. 995. 1708.
        2025. 1710. 1838. 926. 854. 915. 1239. 1719. 2208. 1597. 1410.
        1171. 1201. 1514. 2041. 2246. 2162. 1363. 1016. 2456. 2020.
        2283. 3033. 3350. 2725. 1424. 987. 4037. 2814. 2464. 2412. 1972.
        2420. 3156. 2939. 2679. 3449. 2700. 2339. 1844. 1918. 3657.
        6128.</data></_>
    <_ type_id="opencv-matrix">
      <rows>64</rows>
      <cols>64</cols>
      <dt>d</dt>
      <data>
        4671. 4533. 4210. 4187. 3587. 2922. 2295. 2143. 2832. 2192.
        2209. 2566. 2806. 2855. 2597. 2511. 2116. 2087. 2249. 2525.
        3009. 2867. 2413. 2309. 2250. 2194. 2395. 2966. 3334. 3199.
        2634. 2253. 2202. 2137. 2208. 2325. 2591. 2833. 3115. 3129.
        2250. 2088. 2084. 2108. 2181. 2351. 3436. 4101. 2517. 2492.
        2636. 2610. 2831. 3126. 3252. 3112. 2372. 2630. 3099. 3753.
        3742. 3318. 2746. 2290. 4533. 5797. 5538. 5165. 4296. 3350.
        2514. 2300. 3787. 2527. 2298. 2763. 3298. 3202. 2888. 2885.
        2251. 2105. 2260. 2658. 3530. 3291. 2544. 2413. 2350. 2316.
        2734. 3633. 4101. 3696. 2695. 2296. 2270. 2184. 2293. 2444.
        2947. 3311. 3602. 3386. 2353. 2103. 2109. 2113. 2293. 2520.
        4140. 5096. 3077. 2937. 3035. 2967. 3249. 3587. 3890. 3779.
        2712. 2993. 3915. 4763. 4532. 3918. 3045. 2307. 4210. 5538.
        9972. 9015. 6895. 5235. 3367. 2714. 5677. 4146. 2922. 3250.
        4268. 4439. 4214. 4343. 2676. 2216. 2399. 3052. 4338. 4670.
        3332. 3077. 2520. 2627. 3615. 5191. 6242. 5980. 3395. 2704.
        2359. 2343. 2751. 2845. 3495. 4470. 5336. 4798. 2969. 2240.
        2171. 2135. 2437. 3096. 6117. 7988. 4951. 4274. 3980. 3852.
        4467. 5633. 5556. 5392. 3826. 4667. 6518. 7662. 7022. 5582.
        3437. 2411. 4187. 5165. 9015. 13977. 10430. 7296. 4650. 3176.
        5870. 4678. 3971. 3771. 4579. 5478. 5745. 5869. 2996. 2325.
        2507. 3228. 4878. 5905. 4442. 3705. 2664. 2739. 3971. 6180.
        8134. 7994. 4221. 3012. 2434. 2395. 2919. 3170. 3913. 5482.
        6762. 6145. 3780. 2334. 2147. 2174. 2720. 3816. 7641. 9847.
        7279. 5789. 5191. 4982. 5978. 7323. 6476. 5991. 4876. 6207.
        8740. 9936. 8781. 6341. 3554. 2385. 3587. 4296. 6895. 10430.
        14517. 10161. 6164. 3884. 4777. 4087. 4195. 4463. 4472. 5961.
        7364. 8239. 2698. 2266. 2440. 2864. 4353. 6763. 5655. 4630.
        2456. 2585. 3789. 6163. 8309. 8988. 4887. 3369. 2439. 2454.
        2982. 3265. 4092. 5791. 6816. 6510. 4653. 2519. 2119. 2162.
        2947. 4511. 7515. 8715. 9090. 6718. 5464. 5645. 6872. 7819.
        5910. 5173. 5375. 7110. 10110. 10841. 8412. 5747. 3244. 2277.
        2922. 3350. 5235. 7296. 10161. 13819. 7824. 4488. 3452. 3225.
        3767. 4607. 4193. 5336. 8405. 9670. 2362. 2191. 2387. 2615.
        3483. 6238. 6449. 4823. 2369. 2488. 3479. 5664. 7705. 9073.
        4654. 3157. 2336. 2332. 2811. 3151. 3579. 5566. 6098. 5714.
        4949. 2523. 2112. 2152. 3017. 4846. 6243. 6662. 9326. 6946.
        5534. 5745. 6889. 7346. 4806. 4165. 5239. 6898. 9657. 9839.
        7357. 4565. 2563. 2138. 2295. 2514. 3367. 4650. 6164. 7824.
        8540. 5111. 2446. 2484. 3078. 3690. 3582. 3730. 6225. 7620.
        2153. 2166. 2356. 2334. 2800. 4430. 4980. 3583. 2159. 2232.
        2757. 4016. 5568. 6066. 3623. 2733. 2286. 2211. 2477. 2811.
        3119. 4122. 4280. 3694. 4176. 2306. 2096. 2115. 2870. 3874.
        4177. 4019. 6591. 5001. 4149. 4495. 5083. 4753. 3417. 2934.
        4276. 5287. 7046. 6312. 4885. 3049. 2247. 2066. 2143. 2300.
        2714. 3176. 3884. 4488. 5111. 5102. 2253. 2298. 2588. 2952.
        2934. 3137. 4037. 4527. 2129. 2181. 2246. 2309. 2583. 3365.
        3261. 2685. 2106. 2172. 2479. 3041. 3783. 3832. 2841. 2517.
        2200. 2170. 2279. 2438. 2598. 3047. 3295. 2901. 3037. 2210.
        2081. 2088. 2438. 3066. 3044. 2932. 3980. 3369. 2933. 3266.
        3514. 3224. 2686. 2456. 3401. 3930. 4600. 4167. 3329. 2511.
        2217. 2048. 2832. 3787. 5677. 5870. 4777. 3452. 2446. 2253.
        6067. 4135. 2977. 2956. 3601. 3068. 2752. 2729. 2677. 2187.
        2235. 2601. 3426. 3196. 2490. 2265. 2204. 2299. 2834. 3823.
        4372. 3860. 2719. 2342. 2231. 2280. 2475. 2458. 2872. 3437.
        3945. 3545. 2277. 2097. 2116. 2114. 2164. 2554. 4172. 5527.
        2959. 2901. 2937. 2922. 3145. 3810. 4286. 4283. 2654. 3137.
        4307. 5041. 4839. 4379. 2994. 2247. 2192. 2527. 4146. 4678.
        4087. 3225. 2484. 2298. 4135. 3835. 3016. 2817. 3039. 2907.
        2673. 2714. 2596. 2213. 2174. 2424. 2829. 2950. 2413. 2322.
        2145. 2238. 2577. 3211. 3635. 3575. 2613. 2332. 2144. 2212.
        2379. 2321. 2455. 2911. 3395. 3197. 2307. 2086. 2085. 2073.
        2127. 2499. 3485. 4183. 2976. 2740. 2639. 2677. 2890. 3420.
        3339. 3243. 2679. 3081. 3868. 4114. 3955. 3487. 2496. 2140.
        2209. 2298. 2922. 3971. 4195. 3767. 3078. 2588. 2977. 3016.
        3840. 3316. 3132. 3062. 3007. 3134. 2327. 2187. 2246. 2317.
        2799. 3026. 2693. 2539. 2083. 2173. 2560. 3199. 3725. 3648.
        2631. 2382. 2139. 2217. 2358. 2313. 2466. 3047. 3332. 3186.
        2603. 2128. 2101. 2077. 2215. 2666. 3425. 3846. 3649. 3010.
        2800. 2963. 3218. 3626. 3104. 2906. 3099. 3366. 4016. 4180.
        3893. 3005. 2333. 2088. 2566. 2763. 3250. 3771. 4463. 4607.
        3690. 2952. 2956. 2817. 3316. 4786. 3914. 3367. 3619. 4051.
        2362. 2251. 2510. 2808. 2923. 3242. 3308. 2974. 2156. 2236.
        2654. 3401. 4299. 4482. 2948. 2364. 2180. 2204. 2475. 2508.
        2777. 3480. 3821. 3279. 2983. 2179. 2096. 2102. 2305. 3071.
        3926. 4226. 4749. 3798. 3348. 3635. 4077. 4170. 3343. 3087.
        3233. 3747. 4789. 4941. 4235. 3129. 2450. 2126. 2806. 3298.
        4268. 4579. 4472. 4193. 3582. 2934. 3601. 3039. 3132. 3914.
        5571. 3838. 3580. 3927. 2404. 2219. 2351. 2479. 3762. 3356.
        3325. 3064. 2239. 2314. 2920. 3844. 4866. 4792. 3204. 2475.
        2237. 2262. 2516. 2616. 2955. 3931. 4155. 3672. 3182. 2232.
        2149. 2091. 2234. 3307. 4417. 4890. 5046. 4110. 3663. 3786.
        4313. 4562. 3826. 3568. 3163. 3880. 5372. 5809. 4781. 3567.
        2674. 2175. 2855. 3202. 4439. 5478. 5961. 5336. 3730. 3137.
        3068. 2907. 3062. 3367. 3838. 6365. 4219. 4547. 2344. 2155.
        2285. 2539. 3214. 4762. 3455. 3299. 2279. 2281. 2849. 3933.
        4945. 5400. 3486. 2716. 2254. 2294. 2549. 2783. 3160. 4072.
        4419. 3976. 3548. 2347. 2091. 2099. 2533. 3464. 4787. 5014.
        5574. 4497. 3824. 4088. 4665. 4765. 3814. 3362. 3806. 4683.
        6082. 6246. 5039. 3484. 2561. 2192. 2597. 2888. 4214. 5745.
        7364. 8405. 6225. 4037. 2752. 2673. 3007. 3619. 3580. 4219.
        8043. 8399. 2136. 2126. 2238. 2373. 2672. 4554. 5556. 4226.
        2228. 2278. 2779. 4226. 5924. 6803. 3912. 2721. 2266. 2222.
        2565. 2994. 3381. 4664. 4447. 4040. 4152. 2343. 2108. 2103.
        2807. 4112. 4639. 4806. 7316. 5339. 4231. 4607. 5419. 5317.
        3679. 3323. 4399. 5635. 7672. 7304. 5507. 3582. 2522. 2123.
        2511. 2885. 4343. 5869. 8239. 9670. 7620. 4527. 2729. 2714.
        3134. 4051. 3927. 4547. 8399. 11454. 2114. 2096. 2263. 2483.
        2751. 4856. 6351. 4863. 2202. 2319. 2920. 4635. 6565. 7821.
        4227. 2708. 2272. 2278. 2621. 3098. 3530. 5109. 4541. 4064.
        4636. 2491. 2114. 2104. 3000. 4743. 4930. 4791. 8409. 6109.
        4715. 5051. 6226. 5932. 3644. 3191. 4794. 6220. 8657. 8347.
        5832. 3499. 2355. 2090. 2116. 2251. 2676. 2996. 2698. 2362.
        2153. 2129. 2677. 2596. 2327. 2362. 2404. 2344. 2136. 2114.
        2720. 2253. 2172. 2249. 2400. 2374. 2124. 2089. 2109. 2123.
        2231. 2429. 2514. 2547. 2244. 2155. 2058. 2073. 2174. 2178.
        2215. 2322. 2517. 2455. 2141. 2055. 2068. 2085. 2054. 2190.
        2603. 2672. 2200. 2226. 2293. 2274. 2327. 2576. 2531. 2431.
        2184. 2283. 2553. 2688. 2830. 2625. 2209. 2082. 2087. 2105.
        2216. 2325. 2266. 2191. 2166. 2181. 2187. 2213. 2187. 2251.
        2219. 2155. 2126. 2096. 2253. 2265. 2203. 2193. 2167. 2145.
        2092. 2072. 2078. 2090. 2128. 2164. 2263. 2254. 2123. 2090.
        2054. 2052. 2108. 2108. 2102. 2173. 2234. 2194. 2089. 2050.
        2064. 2064. 2048. 2111. 2280. 2284. 2127. 2124. 2147. 2159.
        2232. 2310. 2200. 2114. 2147. 2187. 2280. 2308. 2355. 2153.
        2060. 2048. 2249. 2260. 2399. 2507. 2440. 2387. 2356. 2246.
        2235. 2174. 2246. 2510. 2351. 2285. 2238. 2263. 2172. 2203.
        2573. 2447. 2314. 2193. 2196. 2094. 2095. 2112. 2278. 2252.
        2449. 2449. 2262. 2129. 2066. 2065. 2109. 2168. 2172. 2252.
        2463. 2391. 2287. 2067. 2063. 2090. 2053. 2187. 2469. 2478.
        2492. 2329. 2269. 2315. 2454. 2527. 2344. 2249. 2202. 2361.
        2550. 2576. 2524. 2245. 2140. 2057. 2525. 2658. 3052. 3228.
        2864. 2615. 2334. 2309. 2601. 2424. 2317. 2808. 2479. 2539.
        2373. 2483. 2249. 2193. 2447. 3241. 2631. 2393. 2253. 2144.
        2129. 2170. 2430. 2551. 2684. 2747. 2411. 2178. 2077. 2088.
        2135. 2199. 2330. 2495. 2775. 2660. 2467. 2094. 2060. 2070.
        2078. 2379. 2824. 3258. 2815. 2640. 2503. 2489. 2644. 2850.
        2706. 2571. 2296. 2592. 3011. 3236. 3167. 2647. 2255. 2081.
        3009. 3530. 4338. 4878. 4353. 3483. 2800. 2583. 3426. 2829.
        2799. 2923. 3762. 3214. 2672. 2751. 2400. 2167. 2314. 2631.
        4742. 3043. 2266. 2163. 2266. 2336. 2950. 3545. 3941. 3276.
        2842. 2380. 2205. 2202. 2286. 2308. 2718. 3169. 3605. 3658.
        2700. 2161. 2094. 2105. 2262. 2743. 3945. 4545. 3578. 3198.
        3061. 3186. 3454. 3868. 3477. 3127. 2876. 3465. 4344. 4754.
        4052. 3311. 2531. 2110. 2867. 3291. 4670. 5905. 6763. 6238.
        4430. 3365. 3196. 2950. 3026. 3242. 3356. 4762. 4554. 4856.
        2374. 2145. 2193. 2393. 3043. 6241. 3170. 2713. 2270. 2338.
        2970. 4238. 5332. 5271. 2998. 2606. 2333. 2300. 2546. 2562.
        2919. 3967. 4282. 3958. 3466. 2345. 2118. 2123. 2633. 3479.
        4633. 5004. 5409. 4343. 3956. 4154. 4651. 4776. 3811. 3404.
        3844. 4699. 6067. 6166. 4953. 3500. 2503. 2128. 2413. 2544.
        3332. 4442. 5655. 6449. 4980. 3261. 2490. 2413. 2693. 3308.
        3325. 3455. 5556. 6351. 2124. 2092. 2196. 2253. 2266. 3170.
        6019. 4370. 2147. 2177. 2447. 3398. 4715. 5851. 3738. 2645.
        2173. 2145. 2459. 2808. 3021. 3873. 3808. 3524. 3594. 2270.
        2059. 2124. 2492. 3509. 3886. 4012. 6077. 4631. 3709. 3854.
