<?xml version="1.0"?>
<opencv_storage>
<opencv_ml_nbayes>
  <format>3</format>
  <var_count>64</var_count>
  <var_all>64</var_all>
  <cls_labels type_id="opencv-matrix">
    <rows>26</rows>
    <cols>1</cols>
    <dt>i</dt>
    <data>
      0 1 2 3 4 5 6 7 8 9 10 11 12 13 14 15 16 17 18 19 20 21 22 23 24
      25</data></cls_labels>
  <count>
    <_ type_id="opencv-matrix">
      <rows>1</rows>
      <cols>64</cols>
      <dt>i</dt>
      <data>
        840 840 840 840 840 840 840 840 840 840 840 840 840 840 840 840
        840 840 840 840 840 840 840 840 840 840 840 840 840 840 840 840
        840 840 840 840 840 840 840 840 840 840 840 840 840 840 840 840
        840 840 840 840 840 840 840 840 840 840 840 840 840 840 840 840</data></_>
    <_ type_id="opencv-matrix">
      <rows>1</rows>
      <cols>64</cols>
      <dt>i</dt>
      <data>
        840 840 840 840 840 840 840 840 840 840 840 840 840 840 840 840
        840 840 840 840 840 840 840 840 840 840 840 840 840 840 840 840
        840 840 840 840 840 840 840 840 840 840 840 840 840 840 840 840
        840 840 840 840 840 840 840 840 840 840 840 840 840 840 840 840</data></_>
    <_ type_id="opencv-matrix">
      <rows>1</rows>
      <cols>64</cols>
      <dt>i</dt>
      <data>
        840 840 840 840 840 840 840 840 840 840 840 840 840 840 840 840
        840 840 840 840 840 840 840 840 840 840 840 840 840 840 840 840
        840 840 840 840 840 840 840 840 840 840 840 840 840 840 840 840
        840 840 840 840 840 840 840 840 840 840 840 840 840 840 840 840</data></_>
    <_ type_id="opencv-matrix">
      <rows>1</rows>
      <cols>64</cols>
      <dt>i</dt>
      <data>
        840 840 840 840 840 840 840 840 840 840 840 840 840 840 840 840
        840 840 840 840 840 840 840 840 840 840 840 840 840 840 840 840
        840 840 840 840 840 840 840 840 840 840 840 840 840 840 840 840
        840 840 840 840 840 840 840 840 840 840 840 840 840 840 840 840</data></_>
    <_ type_id="opencv-matrix">
      <rows>1</rows>
      <cols>64</cols>
      <dt>i</dt>
      <data>
        840 840 840 840 840 840 840 840 840 840 840 840 840 840 840 840
        840 840 840 840 840 840 840 840 840 840 840 840 840 840 840 840
        840 840 840 840 840 840 840 840 840 840 840 840 840 840 840 840
        840 840 840 840 840 840 840 840 840 840 840 840 840 840 840 840</data></_>
    <_ type_id="opencv-matrix">
      <rows>1</rows>
      <cols>64</cols>
      <dt>i</dt>
      <data>
        840 840 840 840 840 840 840 840 840 840 840 840 840 840 840 840
        840 840 840 840 840 840 840 840 840 840 840 840 840 840 840 840
        840 840 840 840 840 840 840 840 840 840 840 840 840 840 840 840
        840 840 840 840 840 840 840 840 840 840 840 840 840 840 840 840</data></_>
    <_ type_id="opencv-matrix">
      <rows>1</rows>
      <cols>64</cols>
      <dt>i</dt>
      <data>
        840 840 840 840 840 840 840 840 840 840 840 840 840 840 840 840
        840 840 840 840 840 840 840 840 840 840 840 840 840 840 840 840
        840 840 840 840 840 840 840 840 840 840 840 840 840 840 840 840
        840 840 840 840 840 840 840 840 840 840 840 840 840 840 840 840</data></_>
    <_ type_id="opencv-matrix">
      <rows>1</rows>
      <cols>64</cols>
      <dt>i</dt>
      <data>
        840 840 840 840 840 840 840 840 840 840 840 840 840 840 840 840
        840 840 840 840 840 840 840 840 840 840 840 840 840 840 840 840
        840 840 840 840 840 840 840 840 840 840 840 840 840 840 840 840
        840 840 840 840 840 840 840 840 840 840 840 840 840 840 840 840</data></_>
    <_ type_id="opencv-matrix">
      <rows>1</rows>
      <cols>64</cols>
      <dt>i</dt>
      <data>
        840 840 840 840 840 840 840 840 840 840 840 840 840 840 840 840
        840 840 840 840 840 840 840 840 840 840 840 840 840 840 840 840
        840 840 840 840 840 840 840 840 840 840 840 840 840 840 840 840
        840 840 840 840 840 840 840 840 840 840 840 840 840 840 840 840</data></_>
    <_ type_id="opencv-matrix">
      <rows>1</rows>
      <cols>64</cols>
      <dt>i</dt>
      <data>
        840 840 840 840 840 840 840 840 840 840 840 840 840 840 840 840
        840 840 840 840 840 840 840 840 840 840 840 840 840 840 840 840
        840 840 840 840 840 840 840 840 840 840 840 840 840 840 840 840
        840 840 840 840 840 840 840 840 840 840 840 840 840 840 840 840</data></_>
    <_ type_id="opencv-matrix">
      <rows>1</rows>
      <cols>64</cols>
      <dt>i</dt>
      <data>
        840 840 840 840 840 840 840 840 840 840 840 840 840 840 840 840
        840 840 840 840 840 840 840 840 840 840 840 840 840 840 840 840
        840 840 840 840 840 840 840 840 840 840 840 840 840 840 840 840
        840 840 840 840 840 840 840 840 840 840 840 840 840 840 840 840</data></_>
    <_ type_id="opencv-matrix">
      <rows>1</rows>
      <cols>64</cols>
      <dt>i</dt>
      <data>
        840 840 840 840 840 840 840 840 840 840 840 840 840 840 840 840
        840 840 840 840 840 840 840 840 840 840 840 840 840 840 840 840
        840 840 840 840 840 840 840 840 840 840 840 840 840 840 840 840
        840 840 840 840 840 840 840 840 840 840 840 840 840 840 840 840</data></_>
    <_ type_id="opencv-matrix">
      <rows>1</rows>
      <cols>64</cols>
      <dt>i</dt>
      <data>
        840 840 840 840 840 840 840 840 840 840 840 840 840 840 840 840
        840 840 840 840 840 840 840 840 840 840 840 840 840 840 840 840
        840 840 840 840 840 840 840 840 840 840 840 840 840 840 840 840
        840 840 840 840 840 840 840 840 840 840 840 840 840 840 840 840</data></_>
    <_ type_id="opencv-matrix">
      <rows>1</rows>
      <cols>64</cols>
      <dt>i</dt>
      <data>
        840 840 840 840 840 840 840 840 840 840 840 840 840 840 840 840
        840 840 840 840 840 840 840 840 840 840 840 840 840 840 840 840
        840 840 840 840 840 840 840 840 840 840 840 840 840 840 840 840
        840 840 840 840 840 840 840 840 840 840 840 840 840 840 840 840</data></_>
    <_ type_id="opencv-matrix">
      <rows>1</rows>
      <cols>64</cols>
      <dt>i</dt>
      <data>
        840 840 840 840 840 840 840 840 840 840 840 840 840 840 840 840
        840 840 840 840 840 840 840 840 840 840 840 840 840 840 840 840
        840 840 840 840 840 840 840 840 840 840 840 840 840 840 840 840
        840 840 840 840 840 840 840 840 840 840 840 840 840 840 840 840</data></_>
    <_ type_id="opencv-matrix">
      <rows>1</rows>
      <cols>64</cols>
      <dt>i</dt>
      <data>
        840 840 840 840 840 840 840 840 840 840 840 840 840 840 840 840
        840 840 840 840 840 840 840 840 840 840 840 840 840 840 840 840
        840 840 840 840 840 840 840 840 840 840 840 840 840 840 840 840
        840 840 840 840 840 840 840 840 840 840 840 840 840 840 840 840</data></_>
    <_ type_id="opencv-matrix">
      <rows>1</rows>
      <cols>64</cols>
      <dt>i</dt>
      <data>
        840 840 840 840 840 840 840 840 840 840 840 840 840 840 840 840
        840 840 840 840 840 840 840 840 840 840 840 840 840 840 840 840
        840 840 840 840 840 840 840 840 840 840 840 840 840 840 840 840
        840 840 840 840 840 840 840 840 840 840 840 840 840 840 840 840</data></_>
    <_ type_id="opencv-matrix">
      <rows>1</rows>
      <cols>64</cols>
      <dt>i</dt>
      <data>
        840 840 840 840 840 840 840 840 840 840 840 840 840 840 840 840
        840 840 840 840 840 840 840 840 840 840 840 840 840 840 840 840
        840 840 840 840 840 840 840 840 840 840 840 840 840 840 840 840
        840 840 840 840 840 840 840 840 840 840 840 840 840 840 840 840</data></_>
    <_ type_id="opencv-matrix">
      <rows>1</rows>
      <cols>64</cols>
      <dt>i</dt>
      <data>
        840 840 840 840 840 840 840 840 840 840 840 840 840 840 840 840
        840 840 840 840 840 840 840 840 840 840 840 840 840 840 840 840
        840 840 840 840 840 840 840 840 840 840 840 840 840 840 840 840
        840 840 840 840 840 840 840 840 840 840 840 840 840 840 840 840</data></_>
    <_ type_id="opencv-matrix">
      <rows>1</rows>
      <cols>64</cols>
      <dt>i</dt>
      <data>
        840 840 840 840 840 840 840 840 840 840 840 840 840 840 840 840
        840 840 840 840 840 840 840 840 840 840 840 840 840 840 840 840
        840 840 840 840 840 840 840 840 840 840 840 840 840 840 840 840
        840 840 840 840 840 840 840 840 840 840 840 840 840 840 840 840</data></_>
    <_ type_id="opencv-matrix">
      <rows>1</rows>
      <cols>64</cols>
      <dt>i</dt>
      <data>
        840 840 840 840 840 840 840 840 840 840 840 840 840 840 840 840
        840 840 840 840 840 840 840 840 840 840 840 840 840 840 840 840
        840 840 840 840 840 840 840 840 840 840 840 840 840 840 840 840
        840 840 840 840 840 840 840 840 840 840 840 840 840 840 840 840</data></_>
    <_ type_id="opencv-matrix">
      <rows>1</rows>
      <cols>64</cols>
      <dt>i</dt>
      <data>
        840 840 840 840 840 840 840 840 840 840 840 840 840 840 840 840
        840 840 840 840 840 840 840 840 840 840 840 840 840 840 840 840
        840 840 840 840 840 840 840 840 840 840 840 840 840 840 840 840
        840 840 840 840 840 840 840 840 840 840 840 840 840 840 840 840</data></_>
    <_ type_id="opencv-matrix">
      <rows>1</rows>
      <cols>64</cols>
      <dt>i</dt>
      <data>
        840 840 840 840 840 840 840 840 840 840 840 840 840 840 840 840
        840 840 840 840 840 840 840 840 840 840 840 840 840 840 840 840
        840 840 840 840 840 840 840 840 840 840 840 840 840 840 840 840
        840 840 840 840 840 840 840 840 840 840 840 840 840 840 840 840</data></_>
    <_ type_id="opencv-matrix">
      <rows>1</rows>
      <cols>64</cols>
      <dt>i</dt>
      <data>
        840 840 840 840 840 840 840 840 840 840 840 840 840 840 840 840
        840 840 840 840 840 840 840 840 840 840 840 840 840 840 840 840
        840 840 840 840 840 840 840 840 840 840 840 840 840 840 840 840
        840 840 840 840 840 840 840 840 840 840 840 840 840 840 840 840</data></_>
    <_ type_id="opencv-matrix">
      <rows>1</rows>
      <cols>64</cols>
      <dt>i</dt>
      <data>
        840 840 840 840 840 840 840 840 840 840 840 840 840 840 840 840
        840 840 840 840 840 840 840 840 840 840 840 840 840 840 840 840
        840 840 840 840 840 840 840 840 840 840 840 840 840 840 840 840
        840 840 840 840 840 840 840 840 840 840 840 840 840 840 840 840</data></_>
    <_ type_id="opencv-matrix">
      <rows>1</rows>
      <cols>64</cols>
      <dt>i</dt>
      <data>
        840 840 840 840 840 840 840 840 840 840 840 840 840 840 840 840
        840 840 840 840 840 840 840 840 840 840 840 840 840 840 840 840
        840 840 840 840 840 840 840 840 840 840 840 840 840 840 840 840
        840 840 840 840 840 840 840 840 840 840 840 840 840 840 840 840</data></_></count>
  <sum>
    <_ type_id="opencv-matrix">
      <rows>1</rows>
      <cols>64</cols>
      <dt>d</dt>
      <data>
        284. 348. 839. 2488. 3361. 1716. 615. 344. 271. 500. 1342. 2423.
        2626. 1973. 797. 347. 308. 762. 1946. 1807. 1398. 2065. 1197.
        432. 471. 1336. 2509. 1506. 1181. 2357. 1981. 797. 880. 2545.
        3242. 2391. 2400. 3141. 3262. 1521. 1324. 3154. 1350. 1006.
        1018. 1281. 2957. 1592. 2908. 2106. 315. 285. 307. 494. 1963.
        2448. 4136. 1077. 323. 298. 314. 452. 1142. 3026.</data></_>
    <_ type_id="opencv-matrix">
      <rows>1</rows>
      <cols>64</cols>
      <dt>d</dt>
      <data>
        1005. 2304. 3616. 4131. 3400. 1362. 365. 169. 2614. 2506. 1126.
        572. 1615. 1829. 618. 317. 2361. 2175. 592. 548. 1948. 2162.
        776. 316. 1904. 2548. 1573. 2147. 2845. 2794. 2033. 827. 1690.
        2546. 1437. 1011. 756. 920. 2298. 3352. 1725. 2147. 859. 249.
        166. 330. 2123. 4078. 1729. 2276. 1553. 813. 1012. 2088. 2815.
        997. 1067. 2134. 3363. 3729. 3311. 2074. 597. 156.</data></_>
    <_ type_id="opencv-matrix">
      <rows>1</rows>
      <cols>64</cols>
      <dt>d</dt>
      <data>
        183. 254. 1032. 2877. 3793. 3016. 1811. 941. 226. 1164. 2657.
        1829. 902. 581. 529. 637. 806. 2644. 1499. 412. 260. 266. 233.
        232. 2641. 2255. 367. 205. 211. 204. 201. 229. 4589. 1119. 195.
        194. 193. 198. 229. 492. 4139. 1462. 224. 191. 200. 254. 683.
        1384. 1624. 3022. 1466. 596. 718. 1608. 2426. 2295. 320. 1329.
        3475. 4572. 4373. 2841. 1239. 632.</data></_>
    <_ type_id="opencv-matrix">
      <rows>1</rows>
      <cols>64</cols>
      <dt>d</dt>
      <data>
        1255. 2870. 3820. 3621. 2987. 1661. 549. 141. 2446. 2442. 1253.
        742. 1088. 2076. 2161. 752. 1729. 1992. 1047. 454. 240. 477.
        2054. 2658. 1188. 2040. 953. 359. 240. 238. 1257. 4347. 1114.
        1990. 1000. 355. 161. 356. 2118. 2998. 1253. 1768. 1081. 525.
        472. 1384. 2564. 1240. 1627. 1907. 1793. 1636. 2159. 2378. 1122.
        363. 2030. 3404. 3720. 2917. 1826. 740. 255. 105.</data></_>
    <_ type_id="opencv-matrix">
      <rows>1</rows>
      <cols>64</cols>
      <dt>d</dt>
      <data>
        1346. 2111. 2364. 2756. 2991. 2790. 2425. 2007. 2102. 2489.
        1542. 935. 662. 699. 773. 1235. 1697. 2104. 799. 480. 466. 587.
        697. 767. 1966. 2893. 1896. 1879. 1990. 1853. 1249. 833. 2218.
        2667. 1634. 1494. 1270. 1002. 575. 544. 2478. 1894. 611. 448.
        351. 348. 409. 546. 2530. 2252. 1049. 945. 1277. 1531. 1337.
        1086. 1565. 3411. 3619. 3163. 2510. 1866. 1258. 909.</data></_>
    <_ type_id="opencv-matrix">
      <rows>1</rows>
      <cols>64</cols>
      <dt>d</dt>
      <data>
        1856. 2521. 2568. 2763. 2805. 2800. 2543. 1954. 2858. 2884.
        1495. 983. 839. 863. 935. 1293. 2040. 2252. 676. 463. 489. 551.
        665. 812. 1531. 2937. 1719. 1576. 1718. 1668. 1390. 1247. 1405.
        3124. 2042. 1747. 1539. 1380. 1002. 947. 1225. 2527. 909. 398.
        304. 347. 353. 423. 1578. 2098. 772. 237. 142. 157. 188. 277.
        1824. 2787. 1668. 417. 239. 225. 251. 271.</data></_>
    <_ type_id="opencv-matrix">
      <rows>1</rows>
      <cols>64</cols>
      <dt>d</dt>
      <data>
        290. 574. 2129. 3866. 3404. 1856. 812. 447. 474. 2122. 2599.
        1118. 899. 717. 458. 405. 1314. 2863. 789. 408. 428. 444. 451.
        480. 3229. 1505. 352. 585. 960. 1158. 1262. 1387. 4632. 567.
        387. 1074. 2245. 2625. 2444. 2672. 4529. 777. 353. 556. 1561.
        1817. 1604. 1739. 2254. 2819. 796. 930. 2149. 1700. 1313. 654.
        521. 2225. 4530. 4395. 2290. 1053. 714. 405.</data></_>
    <_ type_id="opencv-matrix">
      <rows>1</rows>
      <cols>64</cols>
      <dt>d</dt>
      <data>
        2212. 1708. 713. 456. 552. 1014. 1685. 1889. 2501. 1640. 525.
        343. 441. 894. 1761. 1854. 2050. 1983. 629. 504. 606. 1124.
        2330. 1503. 2122. 2924. 1646. 1611. 1788. 2199. 3142. 1624.
        2319. 3418. 2247. 2024. 1890. 2042. 3232. 1462. 2111. 2336. 861.
        520. 535. 767. 2443. 1178. 1919. 1814. 675. 401. 403. 657. 1888.
        1537. 1389. 1921. 937. 443. 575. 762. 1567. 2239.</data></_>
    <_ type_id="opencv-matrix">
      <rows>1</rows>
      <cols>64</cols>
      <dt>d</dt>
      <data>
        1971. 2070. 2864. 3102. 2648. 2237. 1615. 1528. 1480. 905. 1664.
        1772. 1491. 1487. 932. 1485. 1288. 807. 1372. 2127. 1829. 1259.
        780. 1306. 1241. 708. 1015. 2210. 1996. 995. 683. 1126. 1187.
        636. 1032. 2246. 1926. 914. 561. 927. 1321. 694. 1217. 2230.
        2037. 1027. 580. 960. 1458. 912. 1335. 1494. 1725. 1690. 929.
        1450. 1433. 1393. 1901. 2453. 2945. 3073. 2479. 2332.</data></_>
    <_ type_id="opencv-matrix">
      <rows>1</rows>
      <cols>64</cols>
      <dt>d</dt>
      <data>
        1345. 1759. 1724. 1950. 2366. 2709. 2931. 1972. 1183. 1024. 983.
        1069. 1146. 1288. 1899. 983. 400. 291. 263. 614. 884. 1097.
        1983. 1228. 271. 179. 156. 425. 844. 1348. 2260. 1383. 287. 167.
        249. 666. 930. 1176. 2326. 1688. 617. 594. 743. 692. 704. 909.
        1983. 2101. 1789. 1785. 1314. 790. 939. 1627. 1928. 1520. 1238.
        2003. 3246. 3929. 3940. 2821. 1198. 400.</data></_>
    <_ type_id="opencv-matrix">
      <rows>1</rows>
      <cols>64</cols>
      <dt>d</dt>
      <data>
        2955. 1585. 616. 190. 360. 963. 1210. 1063. 2457. 1434. 523.
        325. 994. 1763. 1287. 615. 1799. 1859. 708. 1224. 2057. 1616.
        548. 243. 1450. 2545. 1714. 2125. 1615. 560. 162. 120. 1423.
        3209. 2623. 2366. 1334. 279. 106. 119. 1511. 2961. 2086. 2017.
        2260. 1489. 371. 179. 1506. 2034. 922. 614. 1171. 2276. 2246.
        1189. 1539. 1710. 832. 263. 279. 630. 2068. 3240.</data></_>
    <_ type_id="opencv-matrix">
      <rows>1</rows>
      <cols>64</cols>
      <dt>d</dt>
      <data>
        2471. 2718. 1105. 242. 109. 86. 80. 80. 1962. 1970. 569. 136.
        81. 84. 80. 80. 1735. 1985. 466. 100. 85. 80. 80. 80. 1884.
        1911. 300. 90. 80. 80. 80. 86. 2230. 1791. 199. 82. 80. 81. 95.
        127. 2693. 1670. 175. 98. 145. 276. 418. 600. 3445. 2171. 1101.
        1488. 2004. 2119. 1939. 1979. 1967. 3897. 3471. 2637. 1893.
        1572. 1753. 2399.</data></_>
    <_ type_id="opencv-matrix">
      <rows>1</rows>
      <cols>64</cols>
      <dt>d</dt>
      <data>
        1480. 1516. 976. 668. 402. 639. 1408. 1649. 1958. 2160. 1496.
        855. 535. 1284. 2223. 1850. 1987. 2764. 2234. 1361. 1258. 2098.
        2919. 1642. 1874. 2345. 1687. 2075. 2020. 1947. 2635. 1565.
        2060. 2048. 692. 1369. 1659. 869. 2328. 1680. 2526. 1616. 385.
        567. 603. 412. 2054. 1895. 2970. 1100. 310. 305. 339. 351. 1421.
        2268. 2779. 1235. 447. 304. 319. 351. 946. 2588.</data></_>
    <_ type_id="opencv-matrix">
      <rows>1</rows>
      <cols>64</cols>
      <dt>d</dt>
      <data>
        1097. 1017. 706. 432. 288. 312. 1362. 4207. 1527. 1635. 1195.
        578. 289. 276. 1747. 2864. 1921. 2595. 2220. 1123. 349. 338.
        2331. 1967. 2070. 2480. 2135. 2173. 690. 742. 2186. 1693. 2150.
        2294. 1085. 2091. 1669. 1502. 1993. 1444. 2498. 2002. 580. 1410.
        2075. 2204. 1824. 1155. 3091. 1443. 396. 841. 1665. 1798. 1460.
        780. 3326. 1807. 436. 510. 921. 886. 777. 534.</data></_>
    <_ type_id="opencv-matrix">
      <rows>1</rows>
      <cols>64</cols>
      <dt>d</dt>
      <data>
        129. 466. 1463. 3416. 4336. 3783. 1675. 251. 344. 1761. 2828.
        1612. 760. 1106. 2869. 1626. 1594. 2901. 1327. 451. 232. 254.
        1301. 4212. 3532. 2006. 519. 176. 139. 179. 945. 4687. 4566.
        1109. 277. 138. 119. 234. 2025. 2800. 3516. 1599. 224. 118. 190.
        931. 2902. 958. 1453. 2856. 1074. 418. 1330. 2887. 1513. 196.
        252. 1578. 4080. 4900. 3523. 1285. 214. 103.</data></_>
    <_ type_id="opencv-matrix">
      <rows>1</rows>
      <cols>64</cols>
      <dt>d</dt>
      <data>
        541. 1659. 3037. 3875. 4099. 3511. 1776. 348. 2087. 2522. 1555.
        644. 310. 817. 2871. 3116. 2261. 2303. 975. 439. 180. 389. 2563.
        4135. 1807. 2608. 1386. 1222. 1327. 2136. 2380. 1083. 1502.
        2947. 2327. 2228. 2030. 1450. 629. 184. 1345. 2205. 1247. 852.
        490. 208. 95. 83. 1569. 1580. 1124. 582. 234. 88. 82. 92. 1843.
        1941. 1617. 1002. 441. 139. 95. 102.</data></_>
    <_ type_id="opencv-matrix">
      <rows>1</rows>
      <cols>64</cols>
      <dt>d</dt>
      <data>
        123. 766. 2721. 4030. 3906. 2500. 853. 170. 614. 2539. 2444.
        1225. 1037. 1870. 1907. 708. 2297. 2500. 889. 357. 347. 1073.
        1781. 1523. 4010. 1254. 509. 404. 320. 937. 1817. 1583. 4619.
        721. 353. 804. 1406. 1713. 2219. 740. 3281. 1689. 549. 771.
        2348. 3539. 1952. 205. 963. 2700. 1695. 1615. 2618. 3281. 2776.
        858. 150. 831. 2301. 2477. 1317. 679. 2010. 4110.</data></_>
    <_ type_id="opencv-matrix">
      <rows>1</rows>
      <cols>64</cols>
      <dt>d</dt>
      <data>
        739. 2173. 3681. 4156. 3201. 1432. 406. 116. 2177. 2476. 1307.
        671. 1462. 1706. 1028. 465. 2465. 2330. 643. 448. 1241. 1716.
        1045. 610. 2217. 2710. 1437. 1683. 2171. 1496. 594. 267. 2157.
        3193. 2695. 3023. 2318. 742. 240. 195. 1843. 2398. 1593. 1615.
        2524. 2007. 688. 271. 1541. 1671. 932. 517. 769. 1963. 2660.
        1399. 1172. 1364. 1066. 384. 177. 389. 1626. 3790.</data></_>
    <_ type_id="opencv-matrix">
      <rows>1</rows>
      <cols>64</cols>
      <dt>d</dt>
      <data>
        264. 445. 1127. 2408. 3889. 4036. 3098. 1690. 742. 1374. 2074.
        1988. 873. 507. 695. 1154. 1224. 1543. 1907. 1336. 604. 383.
        342. 381. 619. 999. 1815. 2385. 2157. 1595. 838. 434. 301. 326.
        534. 976. 1429. 1900. 2172. 1599. 447. 289. 278. 400. 449. 1015.
        2514. 2788. 1672. 798. 608. 1009. 1569. 2294. 2228. 1061. 2829.
        3944. 4172. 3679. 2760. 1508. 536. 330.</data></_>
    <_ type_id="opencv-matrix">
      <rows>1</rows>
      <cols>64</cols>
      <dt>d</dt>
      <data>
        2513. 2615. 2797. 3382. 3221. 3079. 3065. 3084. 2112. 1227.
        1513. 2490. 1521. 1022. 907. 1553. 594. 327. 812. 1955. 1062.
        350. 192. 389. 204. 213. 789. 1886. 1054. 292. 174. 255. 191.
        194. 837. 1805. 1066. 253. 133. 205. 261. 204. 874. 1723. 1130.
        296. 162. 234. 294. 266. 861. 1610. 1213. 302. 150. 192. 301.
        391. 1031. 2105. 2008. 533. 290. 278.</data></_>
    <_ type_id="opencv-matrix">
      <rows>1</rows>
      <cols>64</cols>
      <dt>d</dt>
      <data>
        2153. 1580. 301. 139. 199. 290. 940. 2549. 3029. 1079. 168. 101.
        187. 349. 855. 3189. 3626. 835. 128. 103. 223. 451. 1436. 2823.
        3824. 803. 121. 108. 259. 644. 2156. 1818. 3272. 1278. 130. 122.
        400. 1196. 2238. 894. 2044. 2200. 298. 254. 935. 2076. 1693.
        419. 746. 2696. 1645. 1189. 2074. 2052. 802. 505. 204. 1211.
        3742. 4164. 2346. 898. 547. 593.</data></_>
    <_ type_id="opencv-matrix">
      <rows>1</rows>
      <cols>64</cols>
      <dt>d</dt>
      <data>
        2743. 501. 187. 170. 164. 186. 1249. 4980. 3039. 1212. 200. 172.
        161. 385. 3110. 2044. 2188. 2156. 370. 172. 205. 1614. 2536.
        503. 1138. 2338. 904. 243. 628. 2654. 1126. 181. 703. 1897.
        1498. 594. 1666. 2102. 480. 162. 451. 1475. 1807. 1578. 2292.
        1253. 244. 160. 368. 1148. 2000. 3034. 2071. 752. 168. 160. 306.
        710. 2049. 2431. 1744. 580. 177. 160.</data></_>
    <_ type_id="opencv-matrix">
      <rows>1</rows>
      <cols>64</cols>
      <dt>d</dt>
      <data>
        2508. 500. 205. 159. 169. 328. 802. 3968. 3238. 620. 179. 168.
        181. 269. 1046. 3511. 3134. 1096. 230. 332. 227. 271. 1749.
        2507. 2592. 1501. 701. 1223. 705. 471. 2136. 1822. 2203. 2051.
        1775. 2171. 1571. 1153. 2282. 1275. 1815. 2560. 2345. 1758.
        1831. 2050. 2263. 693. 1386. 2432. 1957. 1117. 1695. 2278. 1677.
        306. 949. 1982. 1337. 552. 1086. 1298. 880. 182.</data></_>
    <_ type_id="opencv-matrix">
      <rows>1</rows>
      <cols>64</cols>
      <dt>d</dt>
      <data>
        1794. 1393. 796. 373. 296. 581. 1923. 3558. 1216. 2068. 1476.
        577. 611. 2000. 2524. 1150. 452. 1254. 2307. 1669. 2265. 2562.
        765. 366. 282. 494. 1649. 3562. 3231. 872. 279. 300. 290. 523.
        2170. 3655. 2341. 1054. 355. 283. 528. 1800. 2599. 1353. 1736.
        1949. 917. 383. 1744. 2559. 976. 386. 930. 1687. 1734. 846.
        3116. 1403. 486. 291. 481. 1072. 1470. 1690.</data></_>
    <_ type_id="opencv-matrix">
      <rows>1</rows>
      <cols>64</cols>
      <dt>d</dt>
      <data>
        3396. 1141. 296. 175. 128. 154. 1471. 4536. 2888. 2090. 458.
        193. 142. 857. 3339. 1714. 1401. 2092. 1462. 706. 1100. 2761.
        1535. 214. 601. 1219. 1998. 2333. 2880. 1701. 417. 128. 219.
        542. 1271. 2595. 1859. 641. 241. 124. 126. 344. 1169. 1638. 948.
        464. 211. 139. 218. 798. 1102. 1132. 929. 422. 272. 176. 891.
        1102. 1097. 1411. 1471. 666. 436. 270.</data></_>
    <_ type_id="opencv-matrix">
      <rows>1</rows>
      <cols>64</cols>
      <dt>d</dt>
      <data>
        1678. 2579. 3234. 3260. 3077. 2544. 1416. 770. 1253. 1048. 993.
        1078. 1436. 2006. 1558. 818. 263. 222. 192. 560. 1654. 2125.
        861. 232. 165. 207. 604. 1689. 2380. 1043. 273. 203. 217. 554.
        1763. 2306. 1012. 234. 169. 207. 649. 1844. 2265. 955. 206. 146.
        174. 251. 1915. 2751. 1999. 1628. 1645. 1802. 1618. 1615. 1765.
        2686. 3082. 2847. 2548. 2253. 2205. 2757.</data></_></sum>
  <productsum>
    <_ type_id="opencv-matrix">
      <rows>64</rows>
      <cols>64</cols>
      <dt>d</dt>
      <data>
        4294. 4242. 4124. 4124. 4124. 4124. 4124. 4145. 4189. 4156.
        4187. 4136. 4096. 4096. 4096. 4124. 4152. 4146. 4139. 4143.
        4170. 4111. 4112. 4124. 4124. 4128. 4124. 4136. 4201. 4170.
        4096. 4124. 4152. 4164. 4128. 4128. 4128. 4176. 4122. 4117.
        4159. 4128. 4096. 4096. 4114. 4128. 4179. 4144. 4173. 4135.
        4096. 4102. 4120. 4138. 4120. 4126. 4166. 4207. 4124. 4136.
        4126. 4138. 4120. 4108. 4242. 4532. 4365. 4306. 4282. 4139.
        4112. 4124. 4140. 4427. 4290. 4287. 4210. 4224. 4149. 4112.
        4173. 4385. 4196. 4190. 4220. 4212. 4189. 4146. 4250. 4339.
        4148. 4184. 4269. 4313. 4256. 4188. 4349. 4428. 4313. 4365.
        4346. 4423. 4366. 4253. 4310. 4268. 4101. 4101. 4132. 4168.
        4342. 4356. 4419. 4232. 4096. 4104. 4128. 4152. 4302. 4271.
        4272. 4295. 4118. 4128. 4136. 4156. 4244. 4384. 4124. 4365.
        7219. 6769. 5174. 4257. 4138. 4162. 4115. 5336. 5645. 5059.
        5560. 4931. 4214. 4159. 4279. 5776. 4842. 4289. 4970. 5382.
        4561. 4183. 4787. 5883. 4617. 4434. 4788. 5315. 5247. 4334.
        5562. 6361. 5451. 5437. 5647. 6332. 6329. 4851. 6155. 5429.
        4518. 4534. 4599. 4704. 5882. 5269. 6472. 4852. 4116. 4104.
        4100. 4150. 5466. 5837. 6203. 4841. 4149. 4154. 4137. 4142.
        4677. 6954. 4124. 4306. 6769. 17084. 10960. 5508. 4255. 4209.
        4120. 5119. 9724. 9940. 9733. 7413. 4834. 4258. 4334. 6598.
        10848. 5342. 7319. 9114. 5992. 4424. 5006. 9253. 9846. 5980.
        7187. 10285. 8165. 5340. 6492. 12525. 10521. 9294. 9838. 11956.
        11792. 7078. 8837. 11523. 6103. 5875. 6013. 6687. 11228. 7473.
        12699. 7567. 4158. 4152. 4248. 4663. 8838. 10048. 13257. 6283.
        4217. 4216. 4284. 4652. 6178. 12838. 4124. 4282. 5174. 10960.
        22927. 9575. 4559. 4332. 4123. 4667. 7538. 13246. 11903. 11896.
        6001. 4378. 4298. 5682. 10765. 10523. 6130. 11831. 8133. 4699.
        4921. 8028. 14009. 8364. 6900. 12178. 11783. 6273. 6214. 12600.
        15685. 12012. 12110. 14326. 16326. 9633. 8129. 15242. 7617.
        6627. 6479. 7427. 14139. 9297. 14359. 10694. 4375. 4230. 4230.
        4905. 9979. 12514. 18380. 7168. 4426. 4272. 4263. 4750. 7585.
        13777. 4124. 4139. 4257. 5508. 9575. 11810. 5295. 4380. 4118.
        4189. 5177. 7005. 7898. 8268. 6501. 4431. 4165. 4526. 6091.
        7974. 5336. 6379. 7516. 4844. 4391. 5354. 8116. 7378. 5241.
        6659. 8629. 5766. 4918. 7340. 9795. 8093. 7816. 8414. 10392.
        7334. 5604. 9044. 6339. 5379. 5305. 5612. 8611. 7446. 8236.
        7962. 4278. 4152. 4118. 4403. 6809. 7828. 11240. 5583. 4336.
        4245. 4192. 4348. 6097. 8076. 4124. 4112. 4138. 4255. 4559.
        5295. 6157. 4530. 4116. 4108. 4196. 4319. 4939. 4973. 5339.
        4522. 4140. 4142. 4306. 4709. 5007. 4309. 5020. 4743. 4204.
        4249. 4656. 5233. 4489. 4448. 5227. 4891. 4446. 4717. 5324.
        5278. 4938. 5017. 5503. 5362. 4416. 5104. 4978. 4389. 4375.
        4429. 5101. 5006. 4932. 5268. 4213. 4116. 4101. 4194. 4830.
        4877. 5792. 4682. 4247. 4208. 4161. 4205. 4690. 4943. 4145.
        4124. 4162. 4209. 4332. 4380. 4530. 4662. 4132. 4097. 4101.
        4114. 4214. 4223. 4266. 4425. 4177. 4101. 4108. 4225. 4233.
        4190. 4161. 4380. 4240. 4129. 4220. 4303. 4282. 4180. 4265.
        4403. 4331. 4188. 4221. 4299. 4156. 4160. 4193. 4373. 4382.
        4230. 4286. 4150. 4120. 4126. 4168. 4283. 4358. 4296. 4163.
        4096. 4096. 4104. 4167. 4360. 4577. 4342. 4316. 4295. 4212.
        4219. 4203. 4370. 4189. 4140. 4115. 4120. 4123. 4118. 4116.
        4132. 4167. 4132. 4139. 4110. 4100. 4100. 4100. 4122. 4148.
        4104. 4103. 4135. 4146. 4105. 4100. 4116. 4135. 4108. 4129.
        4134. 4133. 4126. 4100. 4119. 4159. 4135. 4111. 4108. 4102.
        4138. 4114. 4118. 4152. 4111. 4096. 4096. 4096. 4098. 4125.
        4142. 4169. 4111. 4096. 4096. 4096. 4096. 4096. 4100. 4152.
        4163. 4117. 4120. 4104. 4101. 4100. 4103. 4156. 4427. 5336.
        5119. 4667. 4189. 4108. 4097. 4132. 5026. 4490. 4447. 4650.
        4569. 4181. 4112. 4249. 5015. 4175. 4192. 4341. 4714. 4365.
        4156. 4561. 4833. 4213. 4234. 4354. 4611. 4735. 4225. 5016.
        4988. 4655. 4702. 4727. 4925. 5108. 4498. 5137. 4433. 4199.
        4202. 4234. 4265. 4778. 4837. 5131. 4391. 4096. 4096. 4096.
        4104. 4605. 4835. 4726. 4482. 4101. 4096. 4096. 4104. 4353.
        5300. 4187. 4290. 5645. 9724. 7538. 5177. 4196. 4101. 4139.
        4490. 8640. 6395. 6207. 5943. 4830. 4161. 4126. 5814. 7450.
        4416. 5512. 5974. 5618. 4333. 4381. 7637. 6260. 5008. 5620.
        6675. 6356. 5015. 5292. 9041. 6890. 6661. 6899. 7968. 8027.
        6193. 6694. 7509. 4873. 4847. 4924. 5281. 7491. 5831. 8663.
        5398. 4096. 4116. 4148. 4395. 6580. 6840. 8143. 5097. 4107.
        4104. 4134. 4306. 5405. 8049. 4136. 4287. 5059. 9940. 13246.
        7005. 4319. 4114. 4110. 4447. 6395. 13953. 9558. 7659. 5150.
        4147. 4134. 4758. 10554. 7824. 7288. 8416. 6093. 4385. 4373.
        6511. 12098. 6034. 6924. 10145. 7921. 5446. 5029. 10841. 12307.
        9580. 10032. 12128. 11260. 7222. 6203. 12889. 6389. 6142. 6215.
        7015. 11275. 6975. 11452. 8555. 4172. 4156. 4310. 4760. 8790.
        9465. 14506. 5856. 4185. 4148. 4297. 4771. 6301. 11395. 4096.
        4210. 5560. 9733. 11903. 7898. 4939. 4214. 4100. 4650. 6207.
        9558. 15016. 8039. 4953. 4240. 4181. 5098. 8003. 9832. 7747.
        10621. 5639. 4359. 4602. 6116. 10664. 8314. 5966. 11580. 7926.
        5210. 5738. 9511. 13787. 10469. 10352. 13129. 12451. 6872. 6419.
        12921. 7704. 6523. 6522. 7339. 12314. 7446. 10998. 10206. 4302.
        4176. 4256. 4910. 9102. 10517. 15993. 6249. 4222. 4124. 4201.
        4694. 6449. 12358. 4096. 4224. 4931. 7413. 11896. 8268. 4973.
        4223. 4100. 4569. 5943. 7659. 8039. 11443. 5166. 4226. 4203.
        5192. 6671. 7684. 5274. 8529. 7252. 4313. 4518. 6208. 8140.
        7506. 5404. 7381. 9666. 5029. 5380. 8299. 10339. 8829. 8548.
        9320. 12139. 7234. 6385. 9643. 6617. 5460. 5426. 5731. 9674.
        7368. 9242. 8309. 4209. 4142. 4114. 4462. 7097. 9299. 12320.
        5680. 4189. 4116. 4116. 4274. 5956. 9439. 4096. 4149. 4214.
        4834. 6001. 6501. 5339. 4266. 4100. 4181. 4830. 5150. 4953.
        5166. 6277. 4274. 4113. 4382. 5041. 4942. 4700. 4326. 6012.
        4600. 4136. 4797. 5388. 5117. 4599. 4534. 6110. 5120. 4403.
        5619. 6052. 5747. 5594. 5538. 6466. 5833. 4664. 5855. 4947.
        4500. 4449. 4504. 5681. 5684. 5812. 5493. 4166. 4116. 4100.
        4183. 5202. 5136. 6633. 4719. 4200. 4164. 4113. 4167. 4998.
        5204. 4124. 4112. 4159. 4258. 4378. 4431. 4522. 4425. 4122.
        4112. 4161. 4147. 4240. 4226. 4274. 4533. 4164. 4151. 4128.
        4215. 4238. 4173. 4123. 4418. 4245. 4175. 4236. 4369. 4229.
        4177. 4218. 4446. 4319. 4238. 4261. 4348. 4262. 4251. 4256.
        4517. 4378. 4250. 4273. 4116. 4100. 4100. 4126. 4364. 4349.
        4245. 4178. 4096. 4096. 4096. 4159. 4451. 4527. 4352. 4295.
        4248. 4184. 4166. 4186. 4358. 4152. 4173. 4279. 4334. 4298.
        4165. 4140. 4177. 4148. 4249. 4126. 4134. 4181. 4203. 4113.
        4164. 4280. 4155. 4103. 4144. 4132. 4195. 4131. 4142. 4393.
        4145. 4165. 4190. 4167. 4224. 4203. 4162. 4338. 4170. 4185.
        4214. 4201. 4246. 4238. 4205. 4300. 4129. 4102. 4108. 4096.
        4096. 4219. 4214. 4346. 4138. 4101. 4104. 4096. 4096. 4181.
        4164. 4239. 4218. 4148. 4170. 4148. 4132. 4173. 4347. 4146.
        4385. 5776. 6598. 5682. 4526. 4142. 4101. 4104. 5015. 5814.
        4758. 5098. 5192. 4382. 4151. 4155. 6138. 4569. 4194. 4518.
        5184. 4913. 4235. 4480. 6155. 4455. 4427. 4608. 5037. 5457.
        4459. 5355. 6251. 5245. 5263. 5427. 5844. 6223. 5210. 6172.
        5019. 4391. 4414. 4410. 4470. 5528. 5325. 6222. 4589. 4096.
        4099. 4114. 4170. 5166. 5693. 5580. 4715. 4102. 4102. 4111.
        4142. 4725. 6277. 4139. 4196. 4842. 10848. 10765. 6091. 4306.
        4108. 4103. 4175. 7450. 10554. 8003. 6671. 5041. 4128. 4103.
        4569. 11188. 5375. 6481. 7337. 5839. 4359. 4271. 7058. 10043.
        5396. 6480. 8704. 7170. 5253. 4828. 10879. 9489. 8260. 8637.
        10302. 9704. 6748. 6348. 10764. 5617. 5517. 5616. 6325. 9687.
        6286. 10657. 6724. 4100. 4122. 4264. 4704. 7963. 8099. 11419.
        5291. 4123. 4109. 4237. 4679. 6106. 10019. 4143. 4190. 4289.
        5342. 10523. 7974. 4709. 4225. 4135. 4192. 4416. 7824. 9832.
        7684. 4942. 4215. 4144. 4194. 5375. 10627. 5942. 7831. 5605.
        4309. 4263. 4525. 8825. 7390. 5594. 8208. 7191. 4864. 4787.
        6538. 11264. 8362. 8278. 9528. 9725. 5987. 4874. 10334. 6609.
        5744. 5710. 6339. 9272. 6627. 8156. 8659. 4280. 4180. 4199.
        4518. 7152. 8438. 12426. 5657. 4251. 4164. 4206. 4399. 5597.
        8764. 4170. 4220. 4970. 7319. 6130. 5336. 5007. 4233. 4146.
        4341. 5512. 7288. 7747. 5274. 4700. 4238. 4132. 4518. 6481.
        5942. 8720. 5404. 4697. 4264. 4252. 5267. 6875. 6087. 6040.
        7275. 5236. 4635. 4812. 6909. 8414. 7179. 6983. 8961. 6841.
        5256. 5113. 8167. 6345. 5580. 5690. 6335. 8031. 5419. 7540.
        7097. 4198. 4160. 4263. 4642. 6880. 6818. 9785. 5491. 4148.
        4107. 4192. 4547. 5308. 7982. 4111. 4212. 5382. 9114. 11831.
        6379. 4309. 4190. 4105. 4714. 5974. 8416. 10621. 8529. 4326.
        4173. 4195. 5184. 7337. 7831. 5404. 11483. 4723. 4160. 4631.
        6183. 9145. 7020. 5412. 10203. 7356. 4707. 5522. 8590. 10825.
        8843. 8734. 10413. 11512. 6160. 6475. 10330. 6494. 5585. 5567.
        6047. 10498. 6558. 9620. 8433. 4223. 4142. 4123. 4566. 7578.
        9393. 12910. 5791. 4269. 4152. 4099. 4321. 5753. 10572. 4112.
        4189. 4561. 5992. 8133. 7516. 5020. 4161. 4100. 4365. 5618.
        6093. 5639. 7252. 6012. 4123. 4131. 4913. 5839. 5605. 4697.
        4723. 7779. 4320. 4242. 5644. 6289. 5678. 4898. 4924. 8172.
        4876. 4744. 6942. 7428. 6701. 6600. 6641. 8666. 6511. 5515.
        7128. 5249. 4757. 4725. 4721. 6988. 6574. 7250. 6218. 4157.
        4128. 4100. 4168. 5859. 6613. 8426. 4972. 4110. 4100. 4100.
        4181. 5283. 6573. 4124. 4146. 4183. 4424. 4699. 4844. 4743.
        4380. 4116. 4156. 4333. 4385. 4359. 4313. 4600. 4418. 4142.
        4235. 4359. 4309. 4264. 4160. 4320. 4946. 4206. 4366. 4585.
        4458. 4344. 4345. 4426. 4968. 4337. 4599. 4496. 4533. 4482.
        4450. 4560. 4908. 4426. 4519. 4364. 4180. 4140. 4144. 4360.
        4754. 4590. 4485. 4146. 4104. 4096. 4096. 4374. 4634. 4751.
        4377. 4199. 4200. 4160. 4173. 4478. 4536. 4124. 4250. 4787.
        5006. 4921. 4391. 4204. 4240. 4135. 4561. 4381. 4373. 4602.
        4518. 4136. 4245. 4393. 4480. 4271. 4263. 4252. 4631. 4242.
        4206. 5239. 4536. 4522. 4479. 4409. 4678. 4681. 4330. 5036.
        4514. 4467. 4553. 4565. 4729. 4870. 4472. 4802. 4391. 4217.
        4190. 4175. 4200. 4589. 4611. 4837. 4366. 4125. 4124. 4116.
        4150. 4395. 4659. 4670. 4482. 4182. 4237. 4231. 4248. 4344.
        5054. 4128. 4339. 5883. 9253. 8028. 5354. 4249. 4129. 4108.
        4833. 7637. 6511. 6116. 6208. 4797. 4175. 4145. 6155. 7058.
        4525. 5267. 6183. 5644. 4366. 4536. 8560. 5957. 5239. 5684.
        6624. 6658. 4991. 5339. 9091. 6597. 6475. 6742. 7780. 8191.
        6279. 7318. 6952. 4864. 4845. 4822. 5164. 7351. 5918. 8871.
        5085. 4104. 4124. 4138. 4357. 6530. 6740. 7327. 5026. 4127.
        4140. 4152. 4353. 5530. 8314. 4124. 4148. 4617. 9846. 14009.
        8116. 4656. 4220. 4129. 4213. 6260. 12098. 10664. 8140. 5388.
        4236. 4165. 4455. 10043. 8825. 6875. 9145. 6289. 4585. 4522.
        5957. 14299. 7286. 7296. 11004. 8549. 5763. 5150. 10213. 12338.
        9218. 9621. 11588. 11688. 7196. 6083. 13365. 6444. 6084. 6032.
        6914. 11511. 7393. 11231. 9145. 4173. 4176. 4266. 4798. 8582.
        9918. 14977. 6028. 4214. 4148. 4249. 4691. 6403. 11372. 4136.
        4184. 4434. 5980. 8364. 7378. 5233. 4303. 4134. 4234. 5008.
        6034. 8314. 7506. 5117. 4369. 4190. 4427. 5396. 7390. 6087.
        7020. 5678. 4458. 4479. 5239. 7286. 9380. 6503. 7929. 7404.
        5245. 5005. 6280. 8446. 6691. 6364. 7507. 8752. 6022. 5067.
        7890. 6223. 4998. 4971. 5346. 8173. 5912. 7133. 7840. 4287.
        4168. 4161. 4456. 6453. 7425. 10305. 5519. 4246. 4221. 4219.
        4378. 5429. 7544. 4201. 4269. 4788. 7187. 6900. 5241. 4489.
        4282. 4133. 4354. 5620. 6924. 5966. 5404. 4599. 4229. 4167.
        4608. 6480. 5594. 6040. 5412. 4898. 4344. 4409. 5684. 7296.
        6503. 8001. 6947. 6087. 5089. 4807. 6994. 6589. 5533. 5553.
        6319. 6413. 5190. 5337. 7246. 4996. 4651. 4829. 5408. 6679.
        5004. 7354. 5926. 4137. 4132. 4267. 4514. 6138. 6098. 8094.
        4954. 4174. 4192. 4278. 4470. 5046. 7052. 4170. 4313. 5315.
        10285. 12178. 6659. 4448. 4180. 4126. 4611. 6675. 10145. 11580.
        7381. 4534. 4177. 4224. 5037. 8704. 8208. 7275. 10203. 4924.
        4345. 4678. 6624. 11004. 7929. 6947. 13733. 7052. 5489. 5482.
        9781. 11783. 9028. 8737. 11432. 10632. 6319. 6281. 11811. 6408.
        5771. 5743. 6640. 11564. 6133. 10765. 8833. 4208. 4172. 4180.
        4848. 8711. 9258. 13957. 6044. 4171. 4144. 4171. 4604. 6322.
        11218. 4096. 4256. 5247. 8165. 11783. 8629. 5227. 4265. 4100.
        4735. 6356. 7921. 7926. 9666. 6110. 4218. 4203. 5457. 7170.
        7191. 5236. 7356. 8172. 4426. 4681. 6658. 8549. 7404. 6087.
        7052. 11771. 5815. 5683. 8942. 10055. 8396. 8308. 8350. 12038.
        7239. 6804. 9633. 6090. 5206. 5215. 5326. 9383. 7935. 9584.
        7983. 4184. 4148. 4140. 4343. 6860. 9351. 11846. 5702. 4149.
        4140. 4173. 4294. 5882. 9371. 4124. 4188. 4334. 5340. 6273.
        5766. 4891. 4403. 4119. 4225. 5015. 5446. 5210. 5029. 5120.
        4446. 4162. 4459. 5253. 4864. 4635. 4707. 4876. 4968. 4330.
        4991. 5763. 5245. 5089. 5489. 5815. 6801. 4729. 5882. 5890.
        5584. 5478. 5429. 5658. 5885. 4871. 5726. 4541. 4194. 4232.
        4402. 5217. 5423. 5716. 5235. 4134. 4124. 4168. 4296. 5057.
        5274. 6244. 4875. 4199. 4237. 4257. 4330. 5102. 5127. 4152.
        4349. 5562. 6492. 6214. 4918. 4446. 4331. 4159. 5016. 5292.
        5029. 5738. 5380. 4403. 4319. 4338. 5355. 4828. 4787. 4812.
        5522. 4744. 4337. 5036. 5339. 5150. 5005. 4807. 5482. 5683.
        4729. 7434. 6278. 5910. 5667. 5762. 6187. 6450. 5395. 6152.
        5118. 4712. 4399. 4518. 4649. 5615. 5505. 6032. 4981. 4251.
        4112. 4192. 4402. 5091. 5637. 5590. 5366. 4263. 4220. 4280.
        4405. 4859. 6251. 4164. 4428. 6361. 12525. 12600. 7340. 4717.
        4188. 4135. 4988. 9041. 10841. 9511. 8299. 5619. 4238. 4170.
        6251. 10879. 6538. 6909. 8590. 6942. 4599. 4514. 9091. 10213.
        6280. 6994. 9781. 8942. 5882. 6278. 14909. 11287. 10175. 10544.
        12527. 12444. 8309. 8221. 11936. 5828. 5540. 5675. 6649. 11232.
        7576. 13278. 7161. 4213. 4124. 4270. 4855. 9195. 9577. 12848.
        5904. 4159. 4101. 4233. 4700. 6800. 12426. 4128. 4313. 5451.
        10521. 15685. 9795. 5324. 4221. 4111. 4655. 6890. 12307. 13787.
        10339. 6052. 4261. 4185. 5245. 9489. 11264. 8414. 10825. 7428.
        4496. 4467. 6597. 12338. 8446. 6589. 11783. 10055. 5890. 5910.
        11287. 18872. 13685. 13322. 15577. 15300. 8723. 6670. 15157.
        7615. 6156. 6296. 7396. 13975. 8881. 12726. 11882. 4335. 4172.
        4296. 4981. 10287. 11969. 19154. 7056. 4306. 4139. 4249. 4693.
        7340. 13320. 4128. 4365. 5437. 9294. 12012. 8093. 5278. 4299.
        4108. 4702. 6661. 9580. 10469. 8829. 5747. 4348. 4214. 5263.
        8260. 8362. 7179. 8843. 6701. 4533. 4553. 6475. 9218. 6691.
        5533. 9028. 8396. 5584. 5667. 10175. 13685. 13273. 12212. 12947.
        12906. 8016. 6509. 11352. 6035. 4615. 4716. 5731. 10769. 7586.
        10669. 9095. 4274. 4154. 4252. 4755. 8580. 9638. 14420. 6148.
        4270. 4192. 4247. 4564. 6582. 10845. 4128. 4346. 5647. 9838.
        12110. 7816. 4938. 4156. 4102. 4727. 6899. 10032. 10352. 8548.
        5594. 4262. 4201. 5427. 8637. 8278. 6983. 8734. 6600. 4482.
        4565. 6742. 9621. 6364. 5553. 8737. 8308. 5478. 5762. 10544.
        13322. 12212. 13004. 13310. 13028. 8102. 6790. 11569. 5914.
        4762. 4582. 5498. 10588. 7486. 10961. 8733. 4216. 4124. 4348.
        4757. 8506. 9671. 14037. 6056. 4203. 4120. 4310. 4637. 6516.
        11125. 4176. 4423. 6332. 11956. 14326. 8414. 5017. 4160. 4138.
        4925. 7968. 12128. 13129. 9320. 5538. 4251. 4246. 5844. 10302.
        9528. 8961. 10413. 6641. 4450. 4729. 7780. 11588. 7507. 6319.
        11432. 8350. 5429. 6187. 12527. 15577. 12947. 13310. 18187.
        14181. 8879. 7771. 14419. 7798. 6546. 6266. 7581. 13095. 8044.
        13355. 10497. 4285. 4146. 4272. 5357. 10651. 11087. 17745. 6962.
        4233. 4116. 4221. 5022. 7481. 13859. 4122. 4366. 6329. 11792.
        16326. 10392. 5503. 4193. 4114. 5108. 8027. 11260. 12451. 12139.
        6466. 4256. 4238. 6223. 9704. 9725. 6841. 11512. 8666. 4560.
        4870. 8191. 11688. 8752. 6413. 10632. 12038. 5658. 6450. 12444.
        15300. 12906. 13028. 14181. 19732. 9617. 8245. 14286. 7591.
        6038. 5918. 6159. 13934. 9403. 13688. 10887. 4262. 4154. 4203.
        4699. 9602. 13008. 18338. 6817. 4201. 4116. 4188. 4583. 7162.
        13613. 4117. 4253. 4851. 7078. 9633. 7334. 5362. 4373. 4118.
        4498. 6193. 7222. 6872. 7234. 5833. 4517. 4205. 5210. 6748.
        5987. 5256. 6160. 6511. 4908. 4472. 6279. 7196. 6022. 5190.
        6319. 7239. 5885. 5395. 8309. 8723. 8016. 8102. 8879. 9617.
        10545. 6085. 8054. 5358. 4707. 4623. 5106. 6819. 7109. 8371.
        6584. 4219. 4112. 4172. 4656. 6581. 6472. 9186. 5642. 4225.
        4208. 4241. 4601. 6149. 6503. 4159. 4310. 6155. 8837. 8129.
        5604. 4416. 4382. 4152. 5137. 6694. 6203. 6419. 6385. 4664.
        4378. 4300. 6172. 6348. 4874. 5113. 6475. 5515. 4426. 4802.
        7318. 6083. 5067. 5337. 6281. 6804. 4871. 6152. 8221. 6670.
        6509. 6790. 7771. 8245. 6085. 9572. 6198. 4934. 4852. 4854.
        5158. 7054. 6360. 8625. 4958. 4158. 4104. 4136. 4368. 6296.
        7074. 6714. 5314. 4267. 4217. 4204. 4425. 5580. 8553. 4128.
        4268. 5429. 11523. 15242. 9044. 5104. 4230. 4111. 4433. 7509.
        12889. 12921. 9643. 5855. 4250. 4129. 5019. 10764. 10334. 8167.
        10330. 7128. 4519. 4391. 6952. 13365. 7890. 7246. 11811. 9633.
        5726. 5118. 11936. 15157. 11352. 11569. 14419. 14286. 8054.
        6198. 17476. 7964. 7261. 7270. 8154. 14026. 8426. 13584. 10992.
        4154. 4166. 4296. 4892. 10185. 11913. 18732. 6697. 4232. 4134.
        4245. 4687. 6934. 13715. 4096. 4101. 4518. 6103. 7617. 6339.
        4978. 4286. 4096. 4199. 4873. 6389. 7704. 6617. 4947. 4273.
        4102. 4391. 5617. 6609. 6345. 6494. 5249. 4364. 4217. 4864.
        6444. 6223. 4996. 6408. 6090. 4541. 4712. 5828. 7615. 6035.
        5914. 7798. 7591. 5358. 4934. 7964. 8486. 6722. 6541. 6655.
        7985. 6081. 6596. 7671. 4333. 4184. 4142. 4471. 6490. 6993.
        9925. 5760. 4232. 4153. 4112. 4380. 5221. 7740. 4096. 4101.
        4534. 5875. 6627. 5379. 4389. 4150. 4096. 4202. 4847. 6142.
        6523. 5460. 4500. 4116. 4108. 4414. 5517. 5744. 5580. 5585.
        4757. 4180. 4190. 4845. 6084. 4998. 4651. 5771. 5206. 4194.
        4399. 5540. 6156. 4615. 4762. 6546. 6038. 4707. 4852. 7261.
        6722. 7002. 6622. 6556. 7107. 5376. 6474. 6005. 4145. 4134.
        4136. 4350. 6012. 5989. 7959. 4868. 4124. 4140. 4139. 4416.
        4905. 7067. 4114. 4132. 4599. 6013. 6479. 5305. 4375. 4120.
        4096. 4234. 4924. 6215. 6522. 5426. 4449. 4100. 4096. 4410.
        5616. 5710. 5690. 5567. 4725. 4140. 4175. 4822. 6032. 4971.
        4829. 5743. 5215. 4232. 4518. 5675. 6296. 4716. 4582. 6266.
        5918. 4623. 4854. 7270. 6541. 6622. 7146. 6900. 7243. 5415.
        6379. 6147. 4141. 4149. 4238. 4377. 5962. 5987. 7936. 4873.
        4105. 4102. 4218. 4428. 4841. 6951. 4128. 4168. 4704. 6687.
        7427. 5612. 4429. 4126. 4098. 4265. 5281. 7015. 7339. 5731.
        4504. 4100. 4096. 4470. 6325. 6339. 6335. 6047. 4721. 4144.
        4200. 5164. 6914. 5346. 5408. 6640. 5326. 4402. 4649. 6649.
        7396. 5731. 5498. 7581. 6159. 5106. 5158. 8154. 6655. 6556.
        6900. 8495. 7560. 5590. 7359. 6568. 4170. 4186. 4178. 5098.
        6768. 5864. 8778. 5110. 4114. 4104. 4131. 4782. 5726. 7613.
        4179. 4342. 5882. 11228. 14139. 8611. 5101. 4168. 4125. 4778.
        7491. 11275. 12314. 9674. 5681. 4126. 4219. 5528. 9687. 9272.
        8031. 10498. 6988. 4360. 4589. 7351. 11511. 8173. 6679. 11564.
        9383. 5217. 5615. 11232. 13975. 10769. 10588. 13095. 13934.
        6819. 7054. 14026. 7985. 7107. 7243. 7560. 16361. 7251. 12752.
        10369. 4228. 4199. 4183. 4347. 10814. 11158. 17316. 6478. 4183.
        4106. 4132. 4339. 7127. 14045. 4144. 4356. 5269. 7473. 9297.
        7446. 5006. 4283. 4142. 4837. 5831. 6975. 7446. 7368. 5684.
        4364. 4214. 5325. 6286. 6627. 5419. 6558. 6574. 4754. 4611.
        5918. 7393. 5912. 5004. 6133. 7935. 5423. 5505. 7576. 8881.
        7586. 7486. 8044. 9403. 7109. 6360. 8426. 6081. 5376. 5415.
        5590. 7251. 11176. 8245. 7363. 4171. 4141. 4128. 4323. 5616.
        8842. 10480. 6054. 4164. 4160. 4163. 4343. 5477. 7354. 4173.
        4419. 6472. 12699. 14359. 8236. 4932. 4358. 4169. 5131. 8663.
        11452. 10998. 9242. 5812. 4349. 4346. 6222. 10657. 8156. 7540.
        9620. 7250. 4590. 4837. 8871. 11231. 7133. 7354. 10765. 9584.
        5716. 6032. 13278. 12726. 10669. 10961. 13355. 13688. 8371.
        8625. 13584. 6596. 6474. 6379. 7359. 12752. 8245. 18364. 7163.
        4170. 4158. 4227. 4705. 10220. 10646. 14535. 5650. 4266. 4230.
        4233. 4566. 7651. 14773. 4135. 4232. 4852. 7567. 10694. 7962.
        5268. 4296. 4111. 4391. 5398. 8555. 10206. 8309. 5493. 4245.
        4138. 4589. 6724. 8659. 7097. 8433. 6218. 4485. 4366. 5085.
        9145. 7840. 5926. 8833. 7983. 5235. 4981. 7161. 11882. 9095.
        8733. 10497. 10887. 6584. 4958. 10992. 7671. 6005. 6147. 6568.
        10369. 7363. 7163. 11556. 4229. 4196. 4202. 4639. 7525. 9463.
        15066. 7054. 4215. 4136. 4164. 4444. 5498. 8973. 4096. 4096.
        4116. 4158. 4375. 4278. 4213. 4163. 4096. 4096. 4096. 4172.
        4302. 4209. 4166. 4178. 4101. 4096. 4100. 4280. 4198. 4223.
        4157. 4146. 4125. 4104. 4173. 4287. 4137. 4208. 4184. 4134.
        4251. 4213. 4335. 4274. 4216. 4285. 4262. 4219. 4158. 4154.
        4333. 4145. 4141. 4170. 4228. 4171. 4170. 4229. 4269. 4128.
        4105. 4138. 4195. 4168. 4259. 4293. 4206. 4136. 4116. 4137.
        4221. 4182. 4102. 4104. 4104. 4152. 4230. 4152. 4116. 4096.
        4096. 4096. 4116. 4156. 4176. 4142. 4116. 4096. 4104. 4099.
        4122. 4180. 4160. 4142. 4128. 4104. 4124. 4124. 4176. 4168.
        4132. 4172. 4148. 4124. 4112. 4124. 4172. 4154. 4124. 4146.
        4154. 4112. 4104. 4166. 4184. 4134. 4149. 4186. 4199. 4141.
        4158. 4196. 4128. 4201. 4150. 4157. 4170. 4175. 4202. 4132.
        4108. 4126. 4121. 4133. 4194. 4152. 4120. 4128. 4100. 4248.
        4230. 4118. 4101. 4096. 4096. 4096. 4148. 4310. 4256. 4114.
        4100. 4096. 4096. 4114. 4264. 4199. 4263. 4123. 4100. 4096.
        4116. 4138. 4266. 4161. 4267. 4180. 4140. 4168. 4192. 4270.
        4296. 4252. 4348. 4272. 4203. 4172. 4136. 4296. 4142. 4136.
        4238. 4178. 4183. 4128. 4227. 4202. 4105. 4150. 4287. 4184.
        4191. 4139. 4138. 4152. 4096. 4104. 4227. 4218. 4217. 4122.
        4138. 4152. 4150. 4663. 4905. 4403. 4194. 4104. 4096. 4104.
        4395. 4760. 4910. 4462. 4183. 4096. 4096. 4170. 4704. 4518.
        4642. 4566. 4168. 4096. 4150. 4357. 4798. 4456. 4514. 4848.
        4343. 4296. 4402. 4855. 4981. 4755. 4757. 5357. 4699. 4656.
        4368. 4892. 4471. 4350. 4377. 5098. 4347. 4323. 4705. 4639.
        4138. 4157. 4184. 5020. 4338. 4184. 4858. 4381. 4101. 4110.
        4136. 4648. 4671. 4253. 4120. 4302. 5466. 8838. 9979. 6809.
        4830. 4167. 4096. 4605. 6580. 8790. 9102. 7097. 5202. 4159.
        4181. 5166. 7963. 7152. 6880. 7578. 5859. 4374. 4395. 6530.
        8582. 6453. 6138. 8711. 6860. 5057. 5091. 9195. 10287. 8580.
        8506. 10651. 9602. 6581. 6296. 10185. 6490. 6012. 5962. 6768.
        10814. 5616. 10220. 7525. 4195. 4170. 4191. 4338. 10799. 6416.
        11469. 5295. 4154. 4104. 4127. 4279. 7100. 11134. 4126. 4271.
        5837. 10048. 12514. 7828. 4877. 4360. 4100. 4835. 6840. 9465.
        10517. 9299. 5136. 4451. 4164. 5693. 8099. 8438. 6818. 9393.
        6613. 4634. 4659. 6740. 9918. 7425. 6098. 9258. 9351. 5274.
        5637. 9577. 11969. 9638. 9671. 11087. 13008. 6472. 7074. 11913.
        6993. 5989. 5987. 5864. 11158. 8842. 10646. 9463. 4168. 4175.
        4139. 4184. 6416. 16146. 16136. 6524. 4185. 4154. 4170. 4196.
        4821. 11825. 4166. 4272. 6203. 13257. 18380. 11240. 5792. 4577.
        4152. 4726. 8143. 14506. 15993. 12320. 6633. 4527. 4239. 5580.
        11419. 12426. 9785. 12910. 8426. 4751. 4670. 7327. 14977. 10305.
        8094. 13957. 11846. 6244. 5590. 12848. 19154. 14420. 14037.
        17745. 18338. 9186. 6714. 18732. 9925. 7959. 7936. 8778. 17316.
        10480. 14535. 15066. 4259. 4202. 4138. 4858. 11469. 16136.
        32822. 7735. 4407. 4312. 4219. 4631. 6592. 13941. 4207. 4295.
        4841. 6283. 7168. 5583. 4682. 4342. 4163. 4482. 5097. 5856.
        6249. 5680. 4719. 4352. 4218. 4715. 5291. 5657. 5491. 5791.
        4972. 4377. 4482. 5026. 6028. 5519. 4954. 6044. 5702. 4875.
        5366. 5904. 7056. 6148. 6056. 6962. 6817. 5642. 5314. 6697.
        5760. 4868. 4873. 5110. 6478. 6054. 5650. 7054. 4293. 4132.
        4152. 4381. 5295. 6524. 7735. 7749. 4368. 4230. 4196. 4300.
        4610. 5650. 4124. 4118. 4149. 4217. 4426. 4336. 4247. 4316.
        4117. 4101. 4107. 4185. 4222. 4189. 4200. 4295. 4148. 4102.
        4123. 4251. 4148. 4269. 4110. 4199. 4182. 4127. 4214. 4246.
        4174. 4171. 4149. 4199. 4263. 4159. 4306. 4270. 4203. 4233.
        4201. 4225. 4267. 4232. 4232. 4124. 4105. 4114. 4183. 4164.
        4266. 4215. 4206. 4108. 4096. 4101. 4154. 4185. 4407. 4368.
        4377. 4249. 4172. 4157. 4178. 4245. 4136. 4128. 4154. 4216.
        4272. 4245. 4208. 4295. 4120. 4096. 4104. 4148. 4124. 4116.
        4164. 4248. 4170. 4102. 4109. 4164. 4107. 4152. 4100. 4200.
        4237. 4140. 4148. 4221. 4192. 4144. 4140. 4237. 4220. 4101.
        4139. 4192. 4120. 4116. 4116. 4208. 4217. 4134. 4153. 4140.
        4102. 4104. 4106. 4160. 4230. 4136. 4136. 4126. 4104. 4110.
        4104. 4154. 4312. 4230. 4249. 4278. 4214. 4192. 4152. 4184.
        4126. 4136. 4137. 4284. 4263. 4192. 4161. 4212. 4104. 4096.
        4134. 4297. 4201. 4116. 4113. 4184. 4148. 4111. 4237. 4206.
        4192. 4099. 4100. 4160. 4231. 4152. 4249. 4219. 4278. 4171.
        4173. 4257. 4280. 4233. 4249. 4247. 4310. 4221. 4188. 4241.
        4204. 4245. 4112. 4139. 4218. 4131. 4132. 4163. 4233. 4164.
        4116. 4121. 4227. 4136. 4127. 4170. 4219. 4196. 4172. 4214.
        4328. 4267. 4181. 4191. 4138. 4156. 4142. 4652. 4750. 4348.
        4205. 4219. 4101. 4104. 4306. 4771. 4694. 4274. 4167. 4166.
        4132. 4142. 4679. 4399. 4547. 4321. 4181. 4173. 4248. 4353.
        4691. 4378. 4470. 4604. 4294. 4330. 4405. 4700. 4693. 4564.
        4637. 5022. 4583. 4601. 4425. 4687. 4380. 4416. 4428. 4782.
        4339. 4343. 4566. 4444. 4137. 4133. 4218. 4648. 4279. 4196.
        4631. 4300. 4157. 4192. 4267. 4974. 4529. 4204. 4120. 4244.
        4677. 6178. 7585. 6097. 4690. 4203. 4100. 4353. 5405. 6301.
        6449. 5956. 4998. 4186. 4173. 4725. 6106. 5597. 5308. 5753.
        5283. 4478. 4344. 5530. 6403. 5429. 5046. 6322. 5882. 5102.
        4859. 6800. 7340. 6582. 6516. 7481. 7162. 6149. 5580. 6934.
        5221. 4905. 4841. 5726. 7127. 5477. 7651. 5498. 4221. 4194.
        4217. 4671. 7100. 4821. 6592. 4610. 4178. 4152. 4181. 4529.
        8248. 6515. 4108. 4384. 6954. 12838. 13777. 8076. 4943. 4370.
        4103. 5300. 8049. 11395. 12358. 9439. 5204. 4358. 4347. 6277.
        10019. 8764. 7982. 10572. 6573. 4536. 5054. 8314. 11372. 7544.
        7052. 11218. 9371. 5127. 6251. 12426. 13320. 10845. 11125.
        13859. 13613. 6503. 8553. 13715. 7740. 7067. 6951. 7613. 14045.
        7354. 14773. 8973. 4182. 4152. 4122. 4253. 11134. 11825. 13941.
        5650. 4245. 4184. 4191. 4204. 6515. 23614.</data></_>
    <_ type_id="opencv-matrix">
      <rows>64</rows>
      <cols>64</cols>
      <dt>d</dt>
      <data>
        6031. 5240. 5102. 5076. 4027. 2258. 1516. 1362. 5142. 3127.
        2134. 2183. 3501. 3057. 1658. 1547. 3891. 3323. 1886. 2190.
        3708. 3490. 1954. 1582. 3117. 4130. 3029. 3511. 4057. 4053.
        3556. 2393. 2585. 3854. 2544. 2054. 1927. 2092. 3573. 5254.
        2334. 3589. 2252. 1535. 1379. 1613. 3430. 5590. 2168. 3492.
        3004. 2086. 2302. 3476. 3992. 2333. 2166. 3412. 4333. 5120.
        4927. 3634. 2017. 1465. 5240. 12924. 11951. 11440. 8069. 3328.
        1730. 1457. 10673. 6599. 2271. 2709. 6458. 5362. 2125. 1756.
        8285. 6188. 2413. 2992. 7416. 6493. 2839. 1802. 6053. 7922.
        5745. 7505. 8462. 7942. 6497. 3666. 4698. 8063. 5045. 3373.
        2749. 3369. 6774. 10212. 4315. 6840. 3724. 1765. 1462. 1857.
        6318. 12273. 4278. 6825. 5383. 3195. 3502. 6305. 8683. 3531.
        3152. 6394. 9762. 11091. 10222. 6960. 2784. 1544. 5102. 11951.
        20148. 18956. 14358. 5632. 2131. 1505. 12994. 11900. 4251. 2785.
        8402. 8224. 3285. 2234. 11715. 9733. 3252. 3386. 10152. 9753.
        3959. 2352. 9545. 11330. 7890. 10540. 13310. 12665. 9834. 4414.
        8312. 11706. 7162. 4982. 3711. 4586. 10499. 15469. 8009. 9854.
        4680. 1881. 1553. 2230. 9862. 18197. 7775. 10654. 7465. 4250.
        4954. 9624. 12976. 5125. 5062. 9429. 15185. 16989. 15319. 10051.
        3519. 1498. 5076. 11440. 18956. 23659. 18022. 7223. 2510. 1562.
        13344. 13363. 6182. 2895. 8498. 9890. 3780. 2397. 12318. 11596.
        3628. 3517. 10381. 11467. 4469. 2409. 10284. 13411. 8599. 11329.
        15023. 14783. 10918. 4653. 9305. 13635. 8082. 5875. 4369. 5253.
        12344. 17100. 9353. 11402. 4967. 1977. 1603. 2384. 11470. 20769.
        9493. 12219. 8378. 4567. 5607. 11044. 14800. 5783. 5943. 11095.
        17589. 19353. 17045. 11033. 3653. 1463. 4027. 8069. 14358.
        18022. 19174. 7938. 2589. 1616. 10103. 11312. 6081. 2389. 5491.
        9759. 3807. 2291. 9412. 10114. 3335. 2584. 7685. 10305. 4152.
        2141. 8222. 11483. 7131. 9150. 12482. 12946. 9262. 3845. 7857.
        11082. 6268. 4942. 3930. 4573. 10543. 14456. 8432. 9619. 4033.
        1801. 1561. 2371. 9788. 17003. 8439. 10482. 7026. 4169. 5291.
        9579. 12202. 4753. 5414. 9754. 14720. 15758. 13858. 8680. 3042.
        1450. 2258. 3328. 5632. 7223. 7938. 6978. 2663. 1623. 3996.
        4885. 3558. 2065. 1706. 4522. 3495. 2178. 3907. 4589. 2327.
        1809. 2838. 4997. 3313. 1991. 3598. 4946. 3112. 4011. 5288.
        5720. 4360. 2480. 3684. 4843. 3130. 2835. 2712. 2840. 5008.
        6085. 4185. 4355. 2401. 1640. 1556. 1996. 4489. 7208. 4553.
        4683. 3502. 2660. 3273. 4674. 5221. 2473. 3333. 4787. 6366.
        6723. 5822. 3835. 1970. 1476. 1516. 1730. 2131. 2510. 2589.
        2663. 2591. 1670. 1811. 1894. 2004. 1651. 1399. 1397. 2225.
        2156. 1683. 1826. 1674. 1495. 1396. 1806. 2118. 1619. 1716.
        1852. 1801. 1856. 2030. 2308. 1953. 1504. 1688. 1908. 1896.
        1853. 1830. 1699. 2039. 2178. 1915. 1891. 1677. 1486. 1474.
        1536. 2046. 2051. 2003. 1869. 1888. 1707. 1876. 2042. 1998.
        1453. 1804. 1984. 2339. 2486. 2326. 1813. 1448. 1398. 1362.
        1457. 1505. 1562. 1616. 1623. 1670. 1757. 1428. 1442. 1451.
        1398. 1335. 1333. 1503. 1670. 1398. 1411. 1350. 1366. 1343.
        1435. 1520. 1430. 1419. 1431. 1399. 1422. 1418. 1552. 1400.
        1351. 1372. 1417. 1472. 1478. 1557. 1405. 1365. 1434. 1483.
        1452. 1459. 1407. 1382. 1407. 1439. 1371. 1558. 1471. 1498.
        1451. 1501. 1485. 1415. 1348. 1601. 1460. 1510. 1580. 1486.
        1401. 1382. 1384. 5142. 10673. 12994. 13344. 10103. 3996. 1811.
        1428. 16550. 7900. 2976. 2630. 7019. 5812. 2331. 1758. 10321.
        6493. 2588. 3074. 8154. 6839. 3037. 1801. 6787. 8737. 6270.
        8342. 9923. 9421. 7305. 3671. 4947. 9433. 5496. 3526. 2643.
        3339. 7735. 12266. 3937. 8286. 3848. 1792. 1458. 1995. 6954.
        13911. 3680. 7925. 6039. 3620. 3943. 7341. 9712. 3982. 2853.
        7303. 10999. 12227. 11202. 7478. 2786. 1454. 3127. 6599. 11900.
        13363. 11312. 4885. 1894. 1442. 7900. 12958. 4423. 2502. 5565.
        6728. 2818. 1772. 7424. 8862. 2396. 2101. 6219. 7790. 3108.
        1804. 6097. 8878. 5170. 6795. 9766. 9343. 6924. 3208. 5909.
        8812. 5174. 4100. 3347. 3844. 8235. 10517. 5913. 7618. 3603.
        1554. 1458. 2018. 7468. 12990. 6000. 7844. 5582. 3300. 4050.
        7380. 9205. 3669. 3761. 7020. 11441. 12177. 10479. 6663. 2501.
        1375. 2134. 2271. 4251. 6182. 6081. 3558. 2004. 1451. 2976.
        4423. 5696. 2461. 2705. 3740. 2612. 1945. 3018. 4543. 2744.
        1577. 2540. 4183. 2773. 1936. 2914. 4577. 3212. 3161. 4562.
        4861. 3539. 2144. 3181. 4333. 3285. 2975. 2680. 2676. 4220.
        4805. 3854. 3961. 2461. 1555. 1480. 1832. 4047. 5977. 4022.
        4016. 3309. 2326. 2714. 4023. 4628. 2570. 3063. 4197. 5425.
        5950. 5127. 3524. 1841. 1335. 2183. 2709. 2785. 2895. 2389.
        2065. 1651. 1398. 2630. 2502. 2461. 3198. 2417. 1955. 1801.
        1657. 2524. 2438. 1987. 2064. 2214. 2359. 2060. 1550. 2101.
        2462. 2157. 2529. 2601. 2693. 2252. 1853. 2091. 2382. 2315.
        2105. 1960. 2004. 2527. 2956. 2148. 2322. 2112. 1577. 1411.
        1523. 2612. 3225. 2141. 2248. 2351. 1966. 1978. 2536. 2777.
        1753. 1803. 2328. 3012. 3466. 3196. 2483. 1593. 1395. 3501.
        6458. 8402. 8498. 5491. 1706. 1399. 1335. 7019. 5565. 2705.
        2417. 7609. 2689. 1547. 1447. 6266. 4763. 2083. 2439. 6758.
        4005. 2152. 1566. 5078. 5691. 4365. 5443. 6498. 5620. 5004.
        2899. 4192. 6036. 4049. 2921. 2286. 2635. 4910. 7751. 3825.
        5304. 2952. 1596. 1430. 1666. 4944. 8670. 3579. 5346. 4123.
        2589. 2775. 4865. 6468. 2964. 2655. 4938. 7118. 7914. 7473.
        5216. 2342. 1382. 3057. 5362. 8224. 9890. 9759. 4522. 1397.
        1333. 5812. 6728. 3740. 1955. 2689. 8319. 1917. 1450. 5589.
        5919. 2218. 1716. 3785. 7197. 2141. 1594. 4914. 6769. 4266.
        5503. 7480. 7519. 5044. 2374. 4681. 6538. 3850. 3315. 2863.
        3403. 6407. 7573. 4955. 5710. 2612. 1548. 1457. 1779. 5711.
        9911. 5079. 6151. 4236. 2760. 3273. 5422. 7075. 3366. 3330.
        5617. 8303. 8992. 8088. 5604. 2312. 1374. 1658. 2125. 3285.
        3780. 3807. 3495. 2225. 1503. 2331. 2818. 2612. 1801. 1547.
        1917. 3498. 1968. 2276. 2612. 1893. 1436. 1511. 2313. 2930.
        1899. 2134. 2635. 2043. 2138. 2876. 3257. 2662. 1711. 2244.
        2714. 2172. 2166. 2156. 2178. 2930. 2985. 2589. 2592. 1794.
        1460. 1464. 1634. 2633. 3657. 2619. 2623. 2164. 1888. 2152.
        2685. 3035. 1809. 2206. 2848. 3504. 3579. 3146. 2409. 1555.
        1352. 1547. 1756. 2234. 2397. 2291. 2178. 2156. 1670. 1758.
        1772. 1945. 1657. 1447. 1450. 1968. 2803. 1549. 1603. 1704.
        1503. 1373. 1503. 2125. 2030. 1521. 1677. 1930. 1938. 1912.
        2216. 1893. 1461. 1459. 1598. 1952. 1957. 1893. 1778. 1852.
        1759. 1530. 1660. 1783. 1553. 1497. 1609. 1902. 1664. 1542.
        1577. 1889. 1693. 1764. 1936. 1708. 1431. 1473. 1621. 2115.
        2323. 2098. 1711. 1418. 1378. 3891. 8285. 11715. 12318. 9412.
        3907. 1683. 1398. 10321. 7424. 3018. 2524. 6266. 5589. 2276.
        1549. 14945. 4850. 2205. 2706. 7237. 6662. 2950. 1594. 9382.
        6638. 5228. 7186. 8797. 8593. 6534. 3644. 6593. 8043. 4977.
        3674. 2729. 3237. 6968. 10764. 5340. 7057. 3409. 1754. 1402.
        1679. 6513. 12884. 4546. 7360. 5254. 3423. 3574. 6536. 8955.
        4155. 3399. 6811. 9616. 11166. 10410. 7167. 2883. 1565. 3323.
        6188. 9733. 11596. 10114. 4589. 1826. 1411. 6493. 8862. 4543.
        2438. 4763. 5919. 2612. 1603. 4850. 10149. 2226. 2088. 5495.
        6889. 2867. 1700. 4588. 9344. 4601. 6016. 8270. 8167. 6169.
        3024. 4930. 8221. 4628. 3686. 3133. 3513. 7154. 9104. 5597.
        6880. 3090. 1467. 1392. 1838. 6479. 11634. 5826. 7049. 4929.
        2936. 3556. 6262. 8243. 3715. 3737. 6496. 9819. 10607. 9300.
        6264. 2638. 1427. 1886. 2413. 3252. 3628. 3335. 2327. 1674.
        1350. 2588. 2396. 2744. 1987. 2083. 2218. 1893. 1704. 2205.
        2226. 3348. 1866. 2291. 2519. 2121. 1639. 1798. 2267. 3016.
        2475. 2670. 2893. 2639. 1919. 1717. 2445. 2654. 2055. 1776.
        1752. 2311. 3470. 1841. 2439. 2325. 1660. 1440. 1688. 2596.
        3106. 2037. 2347. 2647. 1991. 2110. 2728. 2789. 1731. 1860.
        2489. 3311. 3520. 3120. 2194. 1533. 1346. 2190. 2992. 3386.
        3517. 2584. 1809. 1495. 1366. 3074. 2101. 1577. 2064. 2439.
        1716. 1436. 1503. 2706. 2088. 1866. 3118. 3011. 2350. 1854.
        1452. 2398. 2338. 2666. 2629. 2004. 2288. 2593. 2169. 2222.
        2258. 2010. 1625. 1435. 1459. 2100. 3525. 2143. 2166. 2027.
        1499. 1331. 1487. 2268. 3024. 1878. 2171. 2354. 1968. 1914.
        2388. 2590. 1758. 1722. 2138. 2744. 3033. 2990. 2446. 1684.
        1366. 3708. 7416. 10152. 10381. 7685. 2838. 1396. 1343. 8154.
        6219. 2540. 2214. 6758. 3785. 1511. 1373. 7237. 5495. 2291.
        3011. 10076. 4770. 2431. 1549. 5567. 6801. 5231. 6693. 6925.
        5855. 6611. 3929. 4604. 6895. 4183. 2557. 1911. 2192. 5057.
        10569. 4391. 5935. 3277. 1681. 1420. 1795. 5728. 9730. 4241.
        6080. 4882. 3080. 3385. 5962. 7208. 2899. 3250. 5625. 8353.
        9188. 8463. 5550. 2381. 1373. 3490. 6493. 9753. 11467. 10305.
        4997. 1806. 1435. 6839. 7790. 4183. 2359. 4005. 7197. 2313.
        1503. 6662. 6889. 2519. 2350. 4770. 10264. 2843. 1499. 5764.
        7627. 4877. 5980. 7747. 7667. 5836. 3693. 5451. 7271. 4278.
        3436. 2885. 3357. 6707. 9546. 5847. 6317. 3188. 1619. 1430.
        1831. 6506. 11342. 5912. 6903. 4960. 3329. 3763. 6257. 8085.
        3596. 3977. 6589. 9385. 10131. 8986. 6111. 2432. 1330. 1954.
        2839. 3959. 4469. 4152. 3313. 2118. 1520. 3037. 3108. 2773.
        2060. 2152. 2141. 2930. 2125. 2950. 2867. 2121. 1854. 2431.
        2843. 4090. 2059. 2582. 3047. 2537. 2576. 2718. 3108. 2905.
        2839. 2464. 3224. 2562. 2332. 2239. 2137. 2805. 3991. 2718.
        2965. 2212. 1576. 1466. 1738. 3062. 3889. 2793. 3063. 2637.
        2106. 2317. 3014. 3309. 1863. 2219. 3130. 3884. 4312. 3696.
        2741. 1630. 1343. 1582. 1802. 2352. 2409. 2141. 1991. 1619.
        1430. 1801. 1804. 1936. 1550. 1566. 1594. 1899. 2030. 1594.
        1700. 1639. 1452. 1549. 1499. 2059. 2644. 1640. 1754. 1773.
        1699. 1780. 1943. 2080. 1816. 1522. 1737. 1808. 1744. 1800.
        1802. 1802. 1804. 1495. 1635. 1742. 1485. 1451. 1649. 1854.
        1882. 1546. 1661. 1796. 1515. 1735. 1905. 1760. 1478. 1527.
        1734. 2224. 2338. 2064. 1715. 1392. 1327. 3117. 6053. 9545.
        10284. 8222. 3598. 1716. 1419. 6787. 6097. 2914. 2101. 5078.
        4914. 2134. 1521. 9382. 4588. 1798. 2398. 5567. 5764. 2582.
        1640. 11512. 4953. 3921. 5300. 6997. 7063. 5149. 3192. 8446.
        5956. 3775. 3237. 2749. 3162. 6290. 7999. 6936. 5380. 2675.
        1553. 1326. 1624. 5671. 10639. 5473. 6407. 4025. 2902. 3198.
        5249. 7559. 3747. 3623. 6128. 7824. 8609. 8513. 6290. 2554.
        1511. 4130. 7922. 11330. 13411. 11483. 4946. 1852. 1431. 8737.
        8878. 4577. 2462. 5691. 6769. 2635. 1677. 6638. 9344. 2267.
        2338. 6801. 7627. 3047. 1754. 4953. 13048. 6076. 7480. 9602.
        9620. 7304. 3346. 4785. 10454. 4728. 3625. 3021. 3506. 8109.
        11216. 5553. 8518. 3118. 1454. 1382. 2014. 7754. 12975. 5951.
        8481. 5540. 3273. 4000. 7309. 9117. 3911. 3705. 7458. 11634.
        12310. 10690. 6891. 2638. 1454. 3029. 5745. 7890. 8599. 7131.
        3112. 1801. 1399. 6270. 5170. 3212. 2157. 4365. 4266. 2043.
        1930. 5228. 4601. 3016. 2666. 5231. 4877. 2537. 1773. 3921.
        6076. 8035. 6549. 5940. 6019. 5242. 2870. 3263. 5154. 4164.
        2284. 2008. 2235. 4809. 7899. 3302. 4724. 3536. 1634. 1417.
        1860. 5107. 7325. 3297. 4617. 4570. 2847. 2975. 5163. 5819.
        2475. 2426. 4339. 7238. 7923. 7107. 4495. 2105. 1408. 3511.
        7505. 10540. 11329. 9150. 4011. 1856. 1422. 8342. 6795. 3161.
        2529. 5443. 5503. 2138. 1938. 7186. 6016. 2475. 2629. 6693.
        5980. 2576. 1699. 5300. 7480. 6549. 9971. 9016. 8074. 6682.
        2954. 4710. 7119. 4644. 2753. 2017. 2669. 6478. 10279. 4845.
        6154. 3137. 1714. 1453. 1815. 6312. 10746. 4764. 6305. 4804.
        3113. 3542. 6451. 7869. 3167. 3282. 6288. 9453. 10678. 9365.
        5935. 2540. 1436. 4057. 8462. 13310. 15023. 12482. 5288. 2030.
        1418. 9923. 9766. 4562. 2601. 6498. 7480. 2876. 1912. 8797.
        8270. 2670. 2004. 6925. 7747. 2718. 1780. 6997. 9602. 5940.
        9016. 14317. 11194. 7451. 2785. 6376. 9599. 5791. 4228. 2810.
        3870. 9204. 12078. 6708. 8255. 3595. 1614. 1482. 1942. 8097.
        15396. 6702. 8593. 5895. 3261. 4075. 8014. 10643. 4102. 4527.
        8185. 12507. 13874. 12224. 7679. 2843. 1398. 4053. 7942. 12665.
        14783. 12946. 5720. 2308. 1552. 9421. 9343. 4861. 2693. 5620.
        7519. 3257. 2216. 8593. 8167. 2893. 2288. 5855. 7667. 3108.
        1943. 7063. 9620. 6019. 8074. 11194. 13812. 7812. 2376. 6362.
        9447. 5681. 4282. 3058. 3091. 9337. 12184. 6601. 8192. 3502.
        1714. 1461. 1957. 8160. 14937. 6809. 8732. 6078. 3537. 4194.
        8035. 10405. 4038. 4242. 7766. 12251. 13318. 11835. 7523. 2709.
        1375. 3556. 6497. 9834. 10918. 9262. 4360. 1953. 1400. 7305.
        6924. 3539. 2252. 5004. 5044. 2662. 1893. 6534. 6169. 2639.
        2593. 6611. 5836. 2905. 2080. 5149. 7304. 5242. 6682. 7451.
        7812. 9403. 3377. 4666. 6658. 3946. 2816. 1913. 1765. 4752.
        12301. 4982. 5890. 3101. 1633. 1420. 2016. 6080. 9318. 5188.
        6156. 4937. 3138. 3681. 6319. 7062. 2764. 3784. 5994. 8767.
        9692. 8513. 5346. 2252. 1352. 2393. 3666. 4414. 4653. 3845.
        2480. 1504. 1351. 3671. 3208. 2144. 1853. 2899. 2374. 1711.
        1461. 3644. 3024. 1919. 2169. 3929. 3693. 2839. 1816. 3192.
        3346. 2870. 2954. 2785. 2376. 3377. 4927. 2670. 3276. 2307.
        1776. 1499. 1425. 2005. 5678. 2720. 2908. 2351. 1567. 1435.
        1741. 3128. 3688. 2685. 2921. 2786. 2302. 2364. 3120. 3232.
        1692. 2317. 2990. 3803. 4321. 3924. 2776. 1706. 1429. 2585.
        4698. 8312. 9305. 7857. 3684. 1688. 1372. 4947. 5909. 3181.
        2091. 4192. 4681. 2244. 1459. 6593. 4930. 1717. 2222. 4604.
        5451. 2464. 1522. 8446. 4785. 3263. 4710. 6376. 6362. 4666.
        2670. 10106. 4582. 3294. 3036. 2771. 3052. 5866. 6869. 8228.
        4043. 2209. 1483. 1408. 1586. 5120. 9811. 6562. 5838. 3613.
        2597. 2938. 4821. 6936. 3259. 3858. 5551. 6626. 7909. 7607.
        5744. 2393. 1480. 3854. 8063. 11706. 13635. 11082. 4843. 1908.
        1417. 9433. 8812. 4333. 2382. 6036. 6538. 2714. 1598. 8043.
        8221. 2445. 2258. 6895. 7271. 3224. 1737. 5956. 10454. 5154.
        7119. 9599. 9447. 6658. 3276. 4582. 12974. 5712. 4296. 3287.
        3926. 8316. 10369. 4682. 9813. 2847. 1539. 1390. 1893. 7637.
        13545. 5386. 9098. 5294. 3212. 3973. 7143. 9616. 4209. 3603.
        7996. 11722. 12308. 10841. 7252. 2648. 1386. 2544. 5045. 7162.
        8082. 6268. 3130. 1896. 1472. 5496. 5174. 3285. 2315. 4049.
        3850. 2172. 1952. 4977. 4628. 2654. 2010. 4183. 4278. 2562.
        1808. 3775. 4728. 4164. 4644. 5791. 5681. 3946. 2307. 3294.
        5712. 7503. 4103. 2960. 2993. 4970. 5963. 3080. 4252. 4090.
        1546. 1473. 1753. 4635. 7651. 3126. 4300. 4403. 2311. 2644.
        4313. 5796. 2912. 2281. 4201. 6899. 7656. 6902. 4935. 2264.
        1423. 2054. 3373. 4982. 5875. 4942. 2835. 1853. 1478. 3526.
        4100. 2975. 2105. 2921. 3315. 2166. 1957. 3674. 3686. 2055.
        1625. 2557. 3436. 2332. 1744. 3237. 3625. 2284. 2753. 4228.
        4282. 2816. 1776. 3036. 4296. 4103. 4923. 3334. 3208. 4029.
        3619. 3163. 3591. 2319. 1791. 1513. 1723. 3629. 5751. 3302.
        3690. 2808. 2086. 2243. 3325. 4584. 2654. 2394. 3732. 5082.
        5485. 5123. 3798. 2052. 1410. 1927. 2749. 3711. 4369. 3930.
        2712. 1830. 1557. 2643. 3347. 2680. 1960. 2286. 2863. 2156.
        1893. 2729. 3133. 1776. 1435. 1911. 2885. 2239. 1800. 2749.
        3021. 2008. 2017. 2810. 3058. 1913. 1499. 2771. 3287. 2960.
        3334. 3974. 3510. 3415. 1972. 2784. 3045. 2062. 1632. 1593.
        1633. 2879. 4613. 2907. 3081. 2392. 1725. 2044. 2575. 3651.
        2557. 2030. 3031. 3959. 4218. 3937. 3286. 1956. 1410. 2092.
        3369. 4586. 5253. 4573. 2840. 1699. 1405. 3339. 3844. 2676.
        2004. 2635. 3403. 2178. 1778. 3237. 3513. 1752. 1459. 2192.
        3357. 2137. 1802. 3162. 3506. 2235. 2669. 3870. 3091. 1765.
        1425. 3052. 3926. 2993. 3208. 3510. 4630. 4371. 1951. 2931.
        3491. 2027. 1491. 1458. 1659. 3340. 5800. 2952. 3581. 2521.
        1791. 2135. 2943. 4387. 2913. 2217. 3600. 4886. 4930. 4675.
        3837. 2052. 1383. 3573. 6774. 10499. 12344. 10543. 5008. 2039.
        1365. 7735. 8235. 4220. 2527. 4910. 6407. 2930. 1852. 6968.
        7154. 2311. 2100. 5057. 6707. 2805. 1802. 6290. 8109. 4809.
        6478. 9204. 9337. 4752. 2005. 5866. 8316. 4970. 4029. 3415.
        4371. 10850. 6793. 5720. 7125. 2900. 1524. 1384. 1989. 7283.
        13121. 5724. 7857. 5074. 3178. 3834. 6635. 8754. 3822. 3571.
        7171. 10330. 10732. 9678. 6534. 2454. 1379. 5254. 10212. 15469.
        17100. 14456. 6085. 2178. 1434. 12266. 10517. 4805. 2956. 7751.
        7573. 2985. 1759. 10764. 9104. 3470. 3525. 10569. 9546. 3991.
        1804. 7999. 11216. 7899. 10279. 12078. 12184. 12301. 5678. 6869.
        10369. 5963. 3619. 1972. 1951. 6793. 22526. 7374. 9123. 4487.
        1799. 1370. 2091. 9400. 15275. 7558. 9356. 7273. 4403. 5272.
        10240. 11249. 3293. 5357. 9057. 13751. 15475. 13495. 7773. 2649.
        1416. 2334. 4315. 8009. 9353. 8432. 4185. 1915. 1483. 3937.
        5913. 3854. 2148. 3825. 4955. 2589. 1530. 5340. 5597. 1841.
        2143. 4391. 5847. 2718. 1495. 6936. 5553. 3302. 4845. 6708.
        6601. 4982. 2720. 8228. 4682. 3080. 3163. 2784. 2931. 5720.
        7374. 10817. 3689. 1988. 1485. 1455. 1595. 5437. 9451. 8179.
        5585. 3344. 2502. 3010. 5044. 6988. 3114. 4438. 5799. 6917.
        8337. 7826. 5440. 2340. 1437. 3589. 6840. 9854. 11402. 9619.
        4355. 1891. 1452. 8286. 7618. 3961. 2322. 5304. 5710. 2592.
        1660. 7057. 6880. 2439. 2166. 5935. 6317. 2965. 1635. 5380.
        8518. 4724. 6154. 8255. 8192. 5890. 2908. 4043. 9813. 4252.
        3591. 3045. 3491. 7125. 9123. 3689. 10079. 2380. 1561. 1438.
        1863. 6453. 11515. 4198. 8487. 4726. 2981. 3704. 6265. 8307.
        3764. 3054. 6774. 10029. 10330. 9173. 6165. 2431. 1375. 2252.
        3724. 4680. 4967. 4033. 2401. 1677. 1459. 3848. 3603. 2461.
        2112. 2952. 2612. 1794. 1783. 3409. 3090. 2325. 2027. 3277.
        3188. 2212. 1742. 2675. 3118. 3536. 3137. 3595. 3502. 3101.
        2351. 2209. 2847. 4090. 2319. 2062. 2027. 2900. 4487. 1988.
        2380. 4503. 1666. 1461. 1652. 2969. 4530. 1795. 2264. 4078.
        2295. 2201. 3106. 3529. 2150. 1738. 2215. 4102. 4701. 4272.
        3204. 1917. 1423. 1535. 1765. 1881. 1977. 1801. 1640. 1486.
        1407. 1792. 1554. 1555. 1577. 1596. 1548. 1460. 1553. 1754.
        1467. 1660. 1499. 1681. 1619. 1576. 1485. 1553. 1454. 1634.
        1714. 1614. 1714. 1633. 1567. 1483. 1539. 1546. 1791. 1632.
        1491. 1524. 1799. 1485. 1561. 1666. 2065. 1488. 1449. 1626.
        1773. 1503. 1458. 1602. 1804. 1536. 1659. 1645. 1442. 1456.
        1491. 1694. 1988. 1991. 1760. 1546. 1485. 1379. 1462. 1553.
        1603. 1561. 1556. 1474. 1382. 1458. 1458. 1480. 1411. 1430.
        1457. 1464. 1497. 1402. 1392. 1440. 1331. 1420. 1430. 1466.
        1451. 1326. 1382. 1417. 1453. 1482. 1461. 1420. 1435. 1408.
        1390. 1473. 1513. 1593. 1458. 1384. 1370. 1455. 1438. 1461.
        1488. 1644. 1485. 1422. 1383. 1397. 1429. 1539. 1470. 1569.
        1393. 1375. 1342. 1383. 1431. 1610. 1630. 1524. 1456. 1423.
        1371. 1613. 1857. 2230. 2384. 2371. 1996. 1536. 1407. 1995.
        2018. 1832. 1523. 1666. 1779. 1634. 1609. 1679. 1838. 1688.
        1487. 1795. 1831. 1738. 1649. 1624. 2014. 1860. 1815. 1942.
        1957. 2016. 1741. 1586. 1893. 1753. 1723. 1633. 1659. 1989.
        2091. 1595. 1863. 1652. 1449. 1485. 2250. 1992. 1417. 1716.
        1989. 2021. 1899. 2155. 1858. 1419. 1399. 1702. 2027. 2124.
        1904. 1610. 1467. 1434. 1342. 3430. 6318. 9862. 11470. 9788.
        4489. 2046. 1439. 6954. 7468. 4047. 2612. 4944. 5711. 2633.
        1902. 6513. 6479. 2596. 2268. 5728. 6506. 3062. 1854. 5671.
        7754. 5107. 6312. 8097. 8160. 6080. 3128. 5120. 7637. 4635.
        3629. 2879. 3340. 7283. 9400. 5437. 6453. 2969. 1626. 1422.
        1992. 9947. 8212. 5678. 7156. 4912. 3427. 4555. 7873. 6763.
        2543. 3783. 6970. 10076. 10032. 7963. 4592. 1895. 1351. 5590.
        12273. 18197. 20769. 17003. 7208. 2051. 1371. 13911. 12990.
        5977. 3225. 8670. 9911. 3657. 1664. 12884. 11634. 3106. 3024.
        9730. 11342. 3889. 1882. 10639. 12975. 7325. 10746. 15396.
        14937. 9318. 3688. 9811. 13545. 7651. 5751. 4613. 5800. 13121.
        15275. 9451. 11515. 4530. 1773. 1383. 1417. 8212. 28734. 8972.
        11904. 7873. 3637. 3854. 9313. 17431. 6707. 5816. 10511. 16373.
        19492. 18606. 13135. 4112. 1469. 2168. 4278. 7775. 9493. 8439.
        4553. 2003. 1558. 3680. 6000. 4022. 2141. 3579. 5079. 2619.
        1542. 4546. 5826. 2037. 1878. 4241. 5912. 2793. 1546. 5473.
        5951. 3297. 4764. 6702. 6809. 5188. 2685. 6562. 5386. 3126.
        3302. 2907. 2952. 5724. 7558. 8179. 4198. 1795. 1503. 1397.
        1716. 5678. 8972. 11095. 5788. 3243. 2462. 3161. 5269. 6704.
        2947. 5585. 6540. 7590. 8438. 7669. 5083. 2141. 1353. 3492.
        6825. 10654. 12219. 10482. 4683. 1869. 1471. 7925. 7844. 4016.
        2248. 5346. 6151. 2623. 1577. 7360. 7049. 2347. 2171. 6080.
        6903. 3063. 1661. 6407. 8481. 4617. 6305. 8593. 8732. 6156.
        2921. 5838. 9098. 4300. 3690. 3081. 3581. 7857. 9356. 5585.
        8487. 2264. 1458. 1429. 1989. 7156. 11904. 5788. 11246. 4982.
        3326. 4120. 6623. 8584. 3645. 3610. 7743. 10027. 10392. 9354.
        6221. 2334. 1346. 3004. 5383. 7465. 8378. 7026. 3502. 1888.
        1498. 6039. 5582. 3309. 2351. 4123. 4236. 2164. 1889. 5254.
        4929. 2647. 2354. 4882. 4960. 2637. 1796. 4025. 5540. 4570.
        4804. 5895. 6078. 4937. 2786. 3613. 5294. 4403. 2808. 2392.
        2521. 5074. 7273. 3344. 4726. 4078. 1602. 1539. 2021. 4912.
        7873. 3243. 4982. 7569. 3646. 3574. 4752. 5408. 2923. 2711.
        3700. 6066. 6798. 6108. 4524. 2255. 1383. 2086. 3195. 4250.
        4567. 4169. 2660. 1707. 1451. 3620. 3300. 2326. 1966. 2589.
        2760. 1888. 1693. 3423. 2936. 1991. 1968. 3080. 3329. 2106.
        1515. 2902. 3273. 2847. 3113. 3261. 3537. 3138. 2302. 2597.
        3212. 2311. 2086. 1725. 1791. 3178. 4403. 2502. 2981. 2295.
        1804. 1470. 1899. 3427. 3637. 2462. 3326. 3646. 4191. 3409.
        3425. 2758. 1827. 2385. 3185. 3260. 2839. 2620. 2276. 1635.
        1409. 2302. 3502. 4954. 5607. 5291. 3273. 1876. 1501. 3943.
        4050. 2714. 1978. 2775. 3273. 2152. 1764. 3574. 3556. 2110.
        1914. 3385. 3763. 2317. 1735. 3198. 4000. 2975. 3542. 4075.
        4194. 3681. 2364. 2938. 3973. 2644. 2243. 2044. 2135. 3834.
        5272. 3010. 3704. 2201. 1536. 1569. 2155. 4555. 3854. 3161.
        4120. 3574. 3409. 4950. 4773. 2775. 1542. 2766. 4292. 5109.
        3789. 2196. 1563. 1444. 1390. 3476. 6305. 9624. 11044. 9579.
        4674. 2042. 1485. 7341. 7380. 4023. 2536. 4865. 5422. 2685.
        1936. 6536. 6262. 2728. 2388. 5962. 6257. 3014. 1905. 5249.
        7309. 5163. 6451. 8014. 8035. 6319. 3120. 4821. 7143. 4313.
        3325. 2575. 2943. 6635. 10240. 5044. 6265. 3106. 1659. 1393.
        1858. 7873. 9313. 5269. 6623. 4752. 3425. 4773. 9426. 7029.
        1922. 3742. 6805. 10000. 9969. 7753. 3041. 1436. 1325. 3992.
        8683. 12976. 14800. 12202. 5221. 1998. 1415. 9712. 9205. 4628.
        2777. 6468. 7075. 3035. 1708. 8955. 8243. 2789. 2590. 7208.
        8085. 3309. 1760. 7559. 9117. 5819. 7869. 10643. 10405. 7062.
        3232. 6936. 9616. 5796. 4584. 3651. 4387. 8754. 11249. 6988.
        8307. 3529. 1645. 1375. 1419. 6763. 17431. 6704. 8584. 5408.
        2758. 2775. 7029. 13739. 4281. 4269. 7872. 12156. 14316. 13740.
        9319. 2601. 1313. 2333. 3531. 5125. 5783. 4753. 2473. 1453.
        1348. 3982. 3669. 2570. 1753. 2964. 3366. 1809. 1431. 4155.
        3715. 1731. 1758. 2899. 3596. 1863. 1478. 3747. 3911. 2475.
        3167. 4102. 4038. 2764. 1692. 3259. 4209. 2912. 2654. 2557.
        2913. 3822. 3293. 3114. 3764. 2150. 1442. 1342. 1399. 2543.
        6707. 2947. 3645. 2923. 1827. 1542. 1922. 4281. 5739. 2299.
        3154. 4488. 5211. 5519. 5464. 3368. 1514. 2166. 3152. 5062.
        5943. 5414. 3333. 1804. 1601. 2853. 3761. 3063. 1803. 2655.
        3330. 2206. 1473. 3399. 3737. 1860. 1722. 3250. 3977. 2219.
        1527. 3623. 3705. 2426. 3282. 4527. 4242. 3784. 2317. 3858.
        3603. 2281. 2394. 2030. 2217. 3571. 5357. 4438. 3054. 1738.
        1456. 1383. 1702. 3783. 5816. 5585. 3610. 2711. 2385. 2766.
        3742. 4269. 2299. 7133. 5245. 4765. 4987. 4468. 3179. 1789.
        1296. 3412. 6394. 9429. 11095. 9754. 4787. 1984. 1460. 7303.
        7020. 4197. 2328. 4938. 5617. 2848. 1621. 6811. 6496. 2489.
        2138. 5625. 6589. 3130. 1734. 6128. 7458. 4339. 6288. 8185.
        7766. 5994. 2990. 5551. 7996. 4201. 3732. 3031. 3600. 7171.
        9057. 5799. 6774. 2215. 1491. 1431. 2027. 6970. 10511. 6540.
        7743. 3700. 3185. 4292. 6805. 7872. 3154. 5245. 12668. 10125.
        9301. 7923. 4855. 1993. 1311. 4333. 9762. 15185. 17589. 14720.
        6366. 2339. 1510. 10999. 11441. 5425. 3012. 7118. 8303. 3504.
        2115. 9616. 9819. 3311. 2744. 8353. 9385. 3884. 2224. 7824.
        11634. 7238. 9453. 12507. 12251. 8767. 3803. 6626. 11722. 6899.
        5082. 3959. 4886. 10330. 13751. 6917. 10029. 4102. 1694. 1610.
        2124. 10076. 16373. 7590. 10027. 6066. 3260. 5109. 10000. 12156.
        4488. 4765. 10125. 20097. 16716. 13647. 7867. 2618. 1383. 5120.
        11091. 16989. 19353. 15758. 6723. 2486. 1580. 12227. 12177.
        5950. 3466. 7914. 8992. 3579. 2323. 11166. 10607. 3520. 3033.
        9188. 10131. 4312. 2338. 8609. 12310. 7923. 10678. 13874. 13318.
        9692. 4321. 7909. 12308. 7656. 5485. 4218. 4930. 10732. 15475.
        8337. 10330. 4701. 1988. 1630. 1904. 10032. 19492. 8438. 10392.
        6798. 2839. 3789. 9969. 14316. 5211. 4987. 9301. 16716. 22157.
        17517. 10493. 3224. 1474. 4927. 10222. 15319. 17045. 13858.
        5822. 2326. 1486. 11202. 10479. 5127. 3196. 7473. 8088. 3146.
        2098. 10410. 9300. 3120. 2990. 8463. 8986. 3696. 2064. 8513.
        10690. 7107. 9365. 12224. 11835. 8513. 3924. 7607. 10841. 6902.
        5123. 3937. 4675. 9678. 13495. 7826. 9173. 4272. 1991. 1524.
        1610. 7963. 18606. 7669. 9354. 6108. 2620. 2196. 7753. 13740.
        5519. 4468. 7923. 13647. 17517. 18569. 11442. 3682. 1585. 3634.
        6960. 10051. 11033. 8680. 3835. 1813. 1401. 7478. 6663. 3524.
        2483. 5216. 5604. 2409. 1711. 7167. 6264. 2194. 2446. 5550.
        6111. 2741. 1715. 6290. 6891. 4495. 5935. 7679. 7523. 5346.
        2776. 5744. 7252. 4935. 3798. 3286. 3837. 6534. 7773. 5440.
        6165. 3204. 1760. 1456. 1467. 4592. 13135. 5083. 6221. 4524.
        2276. 1563. 3041. 9319. 5464. 3179. 4855. 7867. 10493. 11442.
        11094. 4056. 1658. 2017. 2784. 3519. 3653. 3042. 1970. 1448.
        1382. 2786. 2501. 1841. 1593. 2342. 2312. 1555. 1418. 2883.
        2638. 1533. 1684. 2381. 2432. 1630. 1392. 2554. 2638. 2105.
        2540. 2843. 2709. 2252. 1706. 2393. 2648. 2264. 2052. 1956.
        2052. 2454. 2649. 2340. 2431. 1917. 1546. 1423. 1434. 1895.
        4112. 2141. 2334. 2255. 1635. 1444. 1436. 2601. 3368. 1789.
        1993. 2618. 3224. 3682. 4056. 3295. 1677. 1465. 1544. 1498.
        1463. 1450. 1476. 1398. 1384. 1454. 1375. 1335. 1395. 1382.
        1374. 1352. 1378. 1565. 1427. 1346. 1366. 1373. 1330. 1343.
        1327. 1511. 1454. 1408. 1436. 1398. 1375. 1352. 1429. 1480.
        1386. 1423. 1410. 1410. 1383. 1379. 1416. 1437. 1375. 1423.
        1485. 1371. 1342. 1351. 1469. 1353. 1346. 1383. 1409. 1390.
        1325. 1313. 1514. 1296. 1311. 1383. 1474. 1585. 1658. 1677.
        1678.</data></_>
    <_ type_id="opencv-matrix">
      <rows>64</rows>
      <cols>64</cols>
      <dt>d</dt>
      <data>
        2865. 2830. 2816. 2816. 2816. 2844. 2844. 2865. 2844. 2816.
        2816. 2816. 2816. 2816. 2823. 2879. 2844. 2816. 2816. 2816.
        2823. 2858. 2844. 2844. 2816. 2816. 2816. 2816. 2865. 2816.
        2816. 2844. 2816. 2816. 2816. 2858. 2823. 2816. 2816. 2816.
        2865. 2844. 2844. 2823. 2816. 2816. 2816. 2816. 2844. 2816.
        2816. 2816. 2816. 2816. 2816. 2816. 2865. 2830. 2816. 2816.
        2816. 2816. 2816. 2816. 2830. 3070. 3215. 3099. 3031. 2881.
        2839. 2833. 2926. 3117. 2828. 2822. 2879. 2860. 2831. 2834.
        3225. 2857. 2816. 2816. 2824. 2832. 2824. 2824. 3238. 2816.
        2816. 2816. 2830. 2816. 2816. 2834. 3191. 2850. 2817. 2828.
        2818. 2816. 2823. 2942. 3103. 2946. 2824. 2818. 2816. 2817.
        2928. 3052. 2891. 3094. 2912. 2854. 2867. 3015. 3086. 2943.
        2836. 2906. 3101. 3208. 3211. 3004. 2846. 2817. 2816. 3215.
        6720. 7324. 6040. 4038. 3087. 2848. 3047. 5934. 4545. 3097.
        3415. 3350. 3019. 2917. 5107. 5112. 2882. 2880. 2988. 2899.
        2849. 2834. 7344. 3391. 2824. 2864. 2824. 2825. 2849. 2945.
        7539. 3222. 2823. 2816. 2816. 2824. 2956. 3607. 6252. 4148.
        2873. 2816. 2825. 2961. 3734. 4609. 3774. 5911. 4021. 3186.
        3407. 4466. 5417. 4820. 2896. 3865. 6407. 7435. 7085. 5428.
        3649. 3075. 2816. 3099. 7324. 17459. 15594. 9636. 5379. 3406.
        3010. 7879. 12950. 5385. 4204. 4095. 3742. 3734. 5752. 12592.
        4451. 2964. 3198. 3107. 2972. 2917. 13641. 7846. 2872. 2892.
        2887. 2856. 2909. 3048. 18366. 4722. 2840. 2816. 2824. 2842.
        3099. 4261. 14735. 6785. 2964. 2822. 2848. 3173. 4922. 7777.
        7021. 12006. 6857. 4223. 4883. 7832. 10589. 9995. 3205. 6690.
        13969. 17199. 16190. 11423. 5898. 4053. 2816. 3031. 6040. 15594.
        23377. 15712. 8801. 4865. 2979. 7146. 15228. 9837. 4502. 4527.
        4386. 4756. 5434. 14875. 7969. 3048. 3122. 3192. 3031. 2930.
        14275. 11969. 3132. 2862. 2880. 2850. 2846. 2942. 23255. 6261.
        2857. 2816. 2832. 2828. 2958. 3892. 19775. 8377. 2940. 2828.
        2830. 3034. 4838. 8501. 8597. 15309. 8428. 4455. 4864. 8969.
        13101. 12397. 3305. 7623. 17277. 22253. 21678. 14816. 7532.
        4786. 2844. 2881. 4038. 9636. 15712. 17886. 10781. 5901. 2871.
        4902. 11124. 10236. 5277. 3925. 4555. 5053. 4153. 10933. 8817.
        3638. 2855. 3071. 3011. 2992. 10003. 11343. 3559. 2845. 2902.
        2886. 2823. 2875. 17873. 6590. 2856. 2858. 2873. 2820. 2851.
        3219. 16877. 7538. 2925. 2861. 2825. 2895. 3860. 5978. 7631.
        12718. 7371. 4037. 4201. 7239. 10540. 10345. 3299. 6572. 13722.
        17886. 17827. 12618. 6813. 4627. 2844. 2839. 3087. 5379. 8801.
        10781. 11157. 6708. 2846. 3530. 6765. 7564. 5238. 3386. 3843.
        5057. 3437. 6814. 6891. 3894. 2881. 2937. 2944. 3043. 6478.
        7917. 3624. 2890. 2944. 2891. 2845. 2884. 10743. 5724. 2884.
        2898. 2871. 2841. 2826. 2951. 10837. 5893. 2970. 2854. 2852.
        2846. 3248. 3895. 5565. 8624. 5604. 3707. 3559. 5177. 6690.
        6578. 3114. 4863. 8848. 11179. 11544. 8616. 5338. 3956. 2865.
        2833. 2848. 3406. 4865. 5901. 6708. 7493. 2848. 2974. 4180.
        4936. 4247. 3316. 3303. 3936. 3066. 4349. 4796. 3526. 2990.
        3011. 2980. 2953. 4055. 5219. 3363. 2973. 2974. 2930. 2898.
        2872. 5957. 4387. 2926. 2918. 2890. 2954. 2824. 2846. 6377.
        4354. 2933. 2895. 2953. 2853. 2908. 3123. 4300. 5438. 4072.
        3297. 3021. 3580. 4433. 4005. 3037. 3789. 5757. 6546. 6863.
        5741. 3970. 3350. 2844. 2926. 3047. 3010. 2979. 2871. 2846.
        2848. 2950. 2983. 2829. 2825. 2844. 2845. 2824. 2852. 3087.
        2831. 2816. 2827. 2820. 2847. 2832. 2832. 3072. 2820. 2820.
        2825. 2848. 2818. 2816. 2855. 3030. 2841. 2816. 2840. 2820.
        2818. 2830. 2889. 2964. 2946. 2835. 2820. 2816. 2817. 2885.
        2951. 2850. 2985. 2915. 2832. 2831. 2929. 2950. 2882. 2851.
        2844. 2950. 3063. 3068. 2943. 2854. 2838. 2816. 3117. 5934.
        7879. 7146. 4902. 3530. 2974. 2983. 6576. 5356. 3164. 3277.
        3354. 3118. 3186. 5351. 5652. 2821. 2874. 2918. 2909. 2865.
        2851. 8275. 3281. 2816. 2852. 2819. 2822. 2851. 2908. 8326.
        3185. 2824. 2816. 2816. 2818. 2921. 3574. 6694. 4429. 2841.
        2816. 2820. 2935. 3735. 4871. 3731. 6440. 4302. 3153. 3340.
        4579. 5735. 5202. 2854. 3904. 6838. 8184. 7891. 6054. 3969.
        3121. 2816. 2828. 4545. 12950. 15228. 11124. 6765. 4180. 2829.
        5356. 13785. 7009. 4066. 3849. 3722. 4053. 3982. 12643. 5335.
        2872. 3052. 3056. 2948. 2928. 11047. 9012. 2824. 2828. 2834.
        2829. 2888. 2946. 17557. 4787. 2832. 2816. 2816. 2830. 2992.
        3649. 14275. 6453. 2923. 2816. 2839. 3102. 4343. 6422. 6873.
        11224. 6733. 4173. 4614. 7150. 9596. 9568. 3161. 6217. 12722.
        15950. 15407. 10927. 6099. 4213. 2816. 2822. 3097. 5385. 9837.
        10236. 7564. 4936. 2825. 3164. 7009. 9451. 4833. 3428. 3579.
        3849. 3109. 6997. 7825. 3357. 2933. 2906. 2876. 2874. 5807.
        8917. 3243. 2857. 2848. 2827. 2831. 2850. 11399. 5536. 2833.
        2816. 2816. 2824. 2874. 3238. 11351. 5618. 2883. 2816. 2819.
        2941. 3570. 4676. 5851. 8401. 5711. 3809. 3972. 5684. 7234.
        7150. 3088. 4934. 9011. 11601. 11443. 8115. 5106. 3966. 2816.
        2879. 3415. 4204. 4502. 5277. 5238. 4247. 2844. 3277. 4066.
        4833. 5616. 3539. 3086. 3111. 3128. 4280. 4843. 3725. 3107.
        2888. 2853. 2862. 4360. 4939. 3463. 2833. 2829. 2822. 2842.
        2848. 6027. 4294. 2824. 2816. 2816. 2818. 2851. 3007. 6756.
        4037. 2843. 2816. 2826. 2855. 3218. 3693. 4167. 5528. 4056.
        3276. 3399. 4140. 4649. 4671. 2965. 3616. 5537. 6900. 6534.
        5166. 3841. 3284. 2816. 2860. 3350. 4095. 4527. 3925. 3386.
        3316. 2845. 3354. 3849. 3428. 3539. 4263. 3161. 2950. 3177.
        3885. 3421. 3182. 2931. 3112. 2878. 2832. 4015. 3686. 3099.
        2868. 2848. 2859. 2850. 2827. 4913. 3351. 2859. 2824. 2836.
        2816. 2834. 2953. 4786. 3475. 2851. 2836. 2820. 2834. 3107.
        3503. 3530. 4228. 3508. 3056. 3118. 3511. 3899. 3751. 2877.
        3340. 4403. 5041. 4736. 4209. 3449. 3104. 2823. 2831. 3019.
        3742. 4386. 4555. 3843. 3303. 2824. 3118. 3722. 3579. 3086.
        3161. 4045. 3510. 3001. 3739. 3430. 2947. 2877. 2979. 2968.
        2889. 3836. 3694. 2945. 2878. 2892. 2912. 2816. 2832. 4554.
        3248. 2875. 2884. 2885. 2840. 2820. 2880. 4320. 3437. 2889.
        2870. 2841. 2845. 2970. 3093. 3565. 3982. 3450. 3029. 3004.
        3280. 3661. 3625. 2968. 3410. 4169. 4534. 4492. 3958. 3296.
        3010. 2879. 2834. 2917. 3734. 4756. 5053. 5057. 3936. 2852.
        3186. 4053. 3849. 3111. 2950. 3510. 5295. 3149. 4045. 3529.
        2947. 2845. 2987. 3034. 3125. 4180. 3931. 2969. 2870. 3008.
        2947. 2881. 2908. 5012. 3412. 2854. 2952. 2937. 2887. 2825.
        2856. 4862. 3717. 2948. 2905. 2910. 2836. 2879. 2943. 3676.
        4412. 3545. 3131. 2982. 3439. 3845. 3247. 3007. 3527. 4652.
        5074. 4996. 4288. 3359. 3007. 2844. 3225. 5107. 5752. 5434.
        4153. 3437. 3066. 3087. 5351. 3982. 3109. 3128. 3177. 3001.
        3149. 5638. 3925. 2841. 2882. 2879. 2904. 2878. 2855. 6618.
        2958. 2836. 2872. 2866. 2827. 2844. 2914. 5968. 3198. 2822.
        2840. 2824. 2824. 2886. 3289. 4952. 4145. 2864. 2823. 2817.
        2851. 3317. 4144. 3280. 4976. 3991. 3101. 3076. 3893. 4763.
        4312. 2883. 3356. 5061. 6092. 6154. 5015. 3552. 3023. 2816.
        2857. 5112. 12592. 14875. 10933. 6814. 4349. 2831. 5652. 12643.
        6997. 4280. 3885. 3739. 4045. 3925. 13452. 5136. 2919. 3118.
        3040. 2914. 2915. 11701. 8420. 2835. 2828. 2840. 2825. 2857.
        2913. 17914. 4337. 2832. 2816. 2816. 2827. 2971. 3702. 14182.
        6331. 2909. 2816. 2840. 3091. 4350. 6396. 6710. 11348. 6644.
        4108. 4547. 7075. 9572. 9371. 3101. 6130. 12701. 15966. 15360.
        10947. 6109. 4184. 2816. 2816. 2882. 4451. 7969. 8817. 6891.
        4796. 2816. 2821. 5335. 7825. 4843. 3421. 3430. 3529. 2841.
        5136. 8165. 3515. 2868. 2862. 2859. 2892. 3945. 8446. 3349.
        2821. 2822. 2817. 2824. 2857. 8864. 5644. 2822. 2816. 2816.
        2816. 2846. 3046. 10409. 4864. 2856. 2816. 2816. 2890. 3410.
        4334. 5731. 7307. 4800. 3432. 3756. 5216. 6438. 6415. 3073.
        4833. 8072. 10087. 9594. 6857. 4421. 3633. 2816. 2816. 2880.
        2964. 3048. 3638. 3894. 3526. 2827. 2874. 2872. 3357. 3725.
        3182. 2947. 2947. 2882. 2919. 3515. 3724. 2909. 2844. 2816.
        2827. 2990. 3418. 3454. 2901. 2832. 2829. 2817. 2832. 3414.
        3646. 2838. 2816. 2816. 2824. 2833. 2847. 4244. 3325. 2824.
        2816. 2816. 2820. 2874. 2979. 3453. 3671. 3166. 2956. 2953.
        3107. 3308. 3409. 2945. 3198. 3717. 3992. 4022. 3711. 3239.
        3049. 2823. 2824. 2988. 3198. 3122. 2855. 2881. 2990. 2820.
        2918. 3052. 2933. 3107. 2931. 2877. 2845. 2879. 3118. 2868.
        2909. 3138. 2852. 2820. 2820. 3074. 2955. 2900. 2862. 2845.
        2817. 2816. 2820. 3176. 2893. 2848. 2822. 2817. 2816. 2822.
        2882. 3186. 2993. 2820. 2817. 2819. 2831. 2902. 2955. 2986.
        3120. 2981. 2892. 2902. 2982. 3063. 2997. 2835. 2915. 3091.
        3303. 3297. 3102. 2897. 2871. 2858. 2832. 2899. 3107. 3192.
        3071. 2937. 3011. 2847. 2909. 3056. 2906. 2888. 3112. 2979.
        2987. 2904. 3040. 2862. 2844. 2852. 3132. 2888. 2864. 3077.
        2945. 2862. 2849. 2925. 2891. 2820. 2852. 3200. 2862. 2840.
        2894. 2870. 2828. 2816. 2834. 3156. 3000. 2885. 2861. 2832.
        2819. 2873. 2932. 3022. 3091. 3009. 2874. 2862. 2920. 3003.
        3002. 2901. 2949. 3087. 3230. 3146. 3055. 2938. 2873. 2844.
        2824. 2849. 2972. 3031. 3011. 2944. 2980. 2832. 2865. 2948.
        2876. 2853. 2878. 2968. 3034. 2878. 2914. 2859. 2816. 2820.
        2888. 3017. 2905. 2963. 2933. 2836. 2836. 2887. 2865. 2878.
        2852. 3033. 2858. 2817. 2858. 2857. 2870. 2824. 2838. 3000.
        2899. 2851. 2849. 2881. 2836. 2855. 2869. 2956. 2975. 2951.
        2937. 2860. 2863. 2894. 2921. 2900. 2880. 3018. 3055. 2983.
        2956. 2856. 2826. 2844. 2824. 2834. 2917. 2930. 2992. 3043.
        2953. 2832. 2851. 2928. 2874. 2862. 2832. 2889. 3125. 2855.
        2915. 2892. 2827. 2820. 2864. 2905. 3048. 2913. 2951. 2837.
        2832. 2882. 2864. 2892. 2908. 3036. 2849. 2817. 2858. 2858.
        2862. 2854. 2832. 3045. 2866. 2851. 2848. 2872. 2880. 2818.
        2822. 3044. 2947. 2910. 2894. 2867. 2845. 2857. 2842. 2918.
        2985. 3054. 3042. 2956. 2911. 2858. 2827. 2816. 3238. 7344.
        13641. 14275. 10003. 6478. 4055. 3072. 8275. 11047. 5807. 4360.
        4015. 3836. 4180. 6618. 11701. 3945. 2990. 3074. 3077. 2963.
        2913. 17075. 5638. 2898. 2903. 2891. 2864. 2856. 2982. 17165.
        4136. 2844. 2816. 2844. 2832. 2987. 3980. 12303. 7282. 2973.
        2837. 2829. 2979. 4294. 6653. 5427. 11524. 7425. 4252. 4175.
        6702. 9587. 9380. 3000. 5093. 11863. 15632. 15882. 11631. 6557.
        4395. 2816. 2816. 3391. 7846. 11969. 11343. 7917. 5219. 2820.
        3281. 9012. 8917. 4939. 3686. 3694. 3931. 2958. 8420. 8446.
        3418. 2955. 2945. 2933. 2951. 5638. 11599. 3259. 2855. 2881.
        2837. 2844. 2939. 13520. 6305. 2827. 2816. 2832. 2831. 2938.
        3350. 13885. 5999. 2906. 2828. 2833. 3012. 3977. 5441. 7060.
        9620. 6038. 4023. 4442. 6591. 8381. 8214. 3244. 6050. 11009.
        13930. 13350. 9278. 5447. 4076. 2816. 2816. 2824. 2872. 3132.
        3559. 3624. 3363. 2820. 2816. 2824. 3243. 3463. 3099. 2945.
        2969. 2836. 2835. 3349. 3454. 2900. 2862. 2836. 2837. 2898.
        3259. 3509. 2884. 2856. 2842. 2816. 2844. 3099. 3597. 2855.
        2816. 2832. 2824. 2832. 2867. 3901. 3314. 2830. 2828. 2820.
        2818. 2865. 3001. 3433. 3402. 3085. 2954. 2952. 3112. 3229.
        3251. 3010. 3187. 3556. 3724. 3765. 3457. 3130. 3033. 2816.
        2816. 2864. 2892. 2862. 2845. 2890. 2973. 2825. 2852. 2828.
        2857. 2833. 2868. 2878. 2870. 2872. 2828. 2821. 2901. 2862.
        2849. 2836. 2832. 2903. 2855. 2884. 2923. 2871. 2839. 2816.
        2844. 2877. 2848. 2857. 2822. 2832. 2824. 2832. 2860. 2912.
        2861. 2831. 2828. 2820. 2816. 2816. 2836. 2917. 2898. 2853.
        2834. 2816. 2829. 2880. 2919. 2874. 2882. 2931. 2951. 2918.
        2938. 2836. 2820. 2865. 2830. 2824. 2887. 2880. 2902. 2944.
        2974. 2848. 2819. 2834. 2848. 2829. 2848. 2892. 3008. 2866.
        2840. 2822. 2832. 2845. 2925. 2887. 2882. 2891. 2881. 2856.
        2871. 2977. 2875. 2816. 2880. 2857. 2816. 2835. 2904. 2869.
        2824. 2832. 2874. 2957. 2881. 2900. 2849. 2823. 2816. 2831.
        2856. 2947. 2888. 2855. 2855. 2833. 2833. 2830. 2824. 2945.
        2918. 2896. 2899. 2881. 2852. 2824. 2826. 2816. 2816. 2825.
        2856. 2850. 2886. 2891. 2930. 2818. 2822. 2829. 2827. 2822.
        2859. 2912. 2947. 2827. 2825. 2817. 2829. 2817. 2891. 2865.
        2864. 2864. 2837. 2842. 2839. 2875. 2908. 2827. 2834. 2840.
        2823. 2821. 2850. 2878. 2849. 2824. 2842. 2868. 2836. 2854.
        2870. 2854. 2817. 2819. 2833. 2957. 2896. 2908. 2856. 2819.
        2820. 2825. 2828. 2867. 2883. 2950. 2895. 2844. 2839. 2823.
        2822. 2816. 2816. 2849. 2909. 2846. 2823. 2845. 2898. 2816.
        2851. 2888. 2831. 2842. 2850. 2816. 2881. 2844. 2857. 2824.
        2817. 2816. 2820. 2878. 2892. 2856. 2844. 2816. 2816. 2816.
        2827. 2911. 2843. 2871. 2829. 2816. 2816. 2819. 2879. 2852.
        2816. 2880. 2832. 2816. 2823. 2876. 2878. 2820. 2822. 2922.
        2865. 2872. 2888. 2864. 2820. 2826. 2846. 2849. 2888. 2940.
        2889. 2849. 2851. 2836. 2824. 2844. 2834. 2945. 3048. 2942.
        2875. 2884. 2872. 2855. 2908. 2946. 2850. 2848. 2827. 2832.
        2908. 2914. 2913. 2857. 2832. 2820. 2852. 2852. 2908. 2982.
        2939. 2844. 2844. 2880. 2834. 2843. 3037. 3051. 2824. 2816.
        2840. 2836. 2830. 2972. 2938. 3055. 2862. 2833. 2832. 2838.
        2920. 2904. 2834. 3011. 2874. 2845. 2870. 2948. 2886. 2832.
        2822. 2957. 3020. 3046. 3032. 2915. 2849. 2816. 2816. 2816.
        3191. 7539. 18366. 23255. 17873. 10743. 5957. 3030. 8326. 17557.
        11399. 6027. 4913. 4554. 5012. 5968. 17914. 8864. 3414. 3176.
        3200. 3033. 3036. 17165. 13520. 3099. 2877. 2857. 2840. 2871.
        3051. 31855. 5861. 2857. 2816. 2817. 2838. 3093. 4447. 23232.
        9400. 2955. 2817. 2847. 3207. 5534. 9586. 8906. 18757. 10017.
        5103. 5777. 10492. 15313. 14371. 3201. 8000. 19932. 26672.
        25369. 17167. 8506. 5179. 2816. 2850. 3222. 4722. 6261. 6590.
        5724. 4387. 2841. 3185. 4787. 5536. 4294. 3351. 3248. 3412.
        3198. 4337. 5644. 3646. 2893. 2862. 2858. 2849. 4136. 6305.
        3597. 2848. 2816. 2823. 2829. 2824. 5861. 6437. 2863. 2816.
        2816. 2816. 2829. 2925. 6898. 5547. 2925. 2816. 2816. 2848.
        3153. 3752. 4434. 5570. 5003. 3575. 3530. 4366. 5160. 5449.
        3048. 3971. 5793. 7477. 8002. 6142. 4385. 3725. 2816. 2817.
        2823. 2840. 2857. 2856. 2884. 2926. 2816. 2824. 2832. 2833.
        2824. 2859. 2875. 2854. 2822. 2832. 2822. 2838. 2848. 2840.
        2817. 2817. 2844. 2827. 2855. 2857. 2835. 2821. 2816. 2816.
        2857. 2863. 2865. 2828. 2818. 2816. 2816. 2816. 2870. 2876.
        2841. 2816. 2816. 2816. 2817. 2830. 2894. 2886. 2851. 2822.
        2822. 2837. 2879. 2882. 2824. 2859. 2888. 2889. 2891. 2890.
        2836. 2828. 2858. 2828. 2816. 2816. 2816. 2858. 2898. 2918.
        2840. 2816. 2816. 2816. 2816. 2824. 2884. 2952. 2840. 2816.
        2816. 2816. 2822. 2894. 2858. 2858. 2816. 2816. 2816. 2822.
        2904. 2850. 2816. 2840. 2816. 2816. 2828. 2908. 2846. 2816.
        2816. 2816. 2886. 2870. 2894. 2826. 2816. 2816. 2816. 2816.
        2904. 2876. 2838. 2816. 2816. 2816. 2816. 2816. 2868. 2884.
        2848. 2824. 2816. 2816. 2816. 2816. 2823. 2818. 2816. 2824.
        2832. 2873. 2871. 2890. 2820. 2816. 2816. 2816. 2816. 2836.
        2885. 2937. 2824. 2816. 2816. 2816. 2817. 2870. 2857. 2858.
        2844. 2832. 2832. 2832. 2869. 2878. 2819. 2836. 2817. 2816.
        2818. 2846. 2873. 2824. 2816. 2832. 2840. 2828. 2843. 2861.
        2834. 2816. 2816. 2820. 2906. 2865. 2873. 2840. 2816. 2816.
        2816. 2816. 2862. 2850. 2897. 2873. 2832. 2828. 2816. 2816.
        2816. 2816. 2824. 2842. 2828. 2820. 2841. 2954. 2818. 2818.
        2830. 2824. 2818. 2816. 2840. 2887. 2824. 2827. 2816. 2824.
        2816. 2828. 2870. 2862. 2832. 2831. 2824. 2824. 2824. 2849.
        2879. 2830. 2838. 2816. 2816. 2816. 2824. 2904. 2839. 2830.
        2859. 2816. 2816. 2837. 2900. 2846. 2816. 2824. 2931. 2871.
        2869. 2897. 2836. 2816. 2816. 2820. 2844. 2870. 2936. 2858.
        2816. 2816. 2816. 2816. 2816. 2823. 2956. 3099. 2958. 2851.
        2826. 2824. 2830. 2921. 2992. 2874. 2851. 2834. 2820. 2825.
        2886. 2971. 2846. 2833. 2822. 2816. 2824. 2854. 2987. 2938.
        2832. 2832. 2832. 2824. 2852. 2972. 3093. 2829. 2816. 2816.
        2816. 2839. 2999. 2980. 3088. 2837. 2816. 2816. 2842. 2962.
        2922. 2832. 3009. 2893. 2840. 2876. 3019. 2891. 2821. 2831.
        2915. 3023. 3111. 3020. 2860. 2829. 2821. 2818. 2816. 2942.
        3607. 4261. 3892. 3219. 2951. 2846. 2889. 3574. 3649. 3238.
        3007. 2953. 2880. 2856. 3289. 3702. 3046. 2847. 2882. 2834.
        2838. 2832. 3980. 3350. 2867. 2860. 2874. 2842. 2816. 2938.
        4447. 2925. 2816. 2816. 2832. 2830. 2980. 4218. 4463. 3001.
        2823. 2828. 2826. 3071. 3997. 3497. 3633. 3745. 3009. 2997.
        3519. 3897. 3283. 2847. 3001. 3626. 4564. 4471. 3753. 3038.
        2822. 2816. 2865. 3103. 6252. 14735. 19775. 16877. 10837. 6377.
        2964. 6694. 14275. 11351. 6756. 4786. 4320. 4862. 4952. 14182.
        10409. 4244. 3186. 3156. 3000. 3045. 12303. 13885. 3901. 2912.
        2957. 2868. 2880. 3055. 23232. 6898. 2870. 2886. 2840. 2859.
        3088. 4463. 27407. 6326. 2938. 2835. 2867. 3260. 5538. 8728.
        11138. 17410. 6942. 4181. 5561. 10253. 13679. 12622. 3446. 9418.
        20763. 24697. 22225. 14709. 7260. 4777. 2844. 2946. 4148. 6785.
        8377. 7538. 5893. 4354. 2946. 4429. 6453. 5618. 4037. 3475.
        3437. 3717. 4145. 6331. 4864. 3325. 2993. 3000. 2899. 2866.
        7282. 5999. 3314. 2861. 2881. 2836. 2832. 2862. 9400. 5547.
        2876. 2870. 2828. 2816. 2837. 3001. 6326. 7744. 2968. 2820.
        2816. 2826. 3182. 4247. 3346. 6802. 6768. 4042. 3541. 4560.
        6206. 6695. 2948. 3302. 5709. 8967. 10288. 7928. 5131. 3866.
        2844. 2824. 2873. 2964. 2940. 2925. 2970. 2933. 2835. 2841.
        2923. 2883. 2843. 2851. 2889. 2948. 2864. 2909. 2856. 2824.
        2820. 2885. 2851. 2851. 2973. 2906. 2830. 2831. 2900. 2854.
        2816. 2833. 2955. 2925. 2841. 2894. 2843. 2816. 2816. 2823.
        2938. 2968. 2968. 2825. 2816. 2816. 2827. 2836. 2902. 2904.
