<?xml version="1.0"?>
<opencv_storage>
<opencv_ml_ann_mlp>
  <format>3</format>
  <layer_sizes>
    64 64 64 26</layer_sizes>
  <activation_function>SIGMOID_SYM</activation_function>
  <f_param1>2.</f_param1>
  <f_param2>1.</f_param2>
  <min_val>-9.4999999999999996e-01</min_val>
  <max_val>9.4999999999999996e-01</max_val>
  <min_val1>-9.7999999999999998e-01</min_val1>
  <max_val1>9.7999999999999998e-01</max_val1>
  <training_params>
    <train_method>RPROP</train_method>
    <dw0>1.0000000000000001e-01</dw0>
    <dw_plus>1.2000000000000000e+00</dw_plus>
    <dw_minus>5.0000000000000000e-01</dw_minus>
    <dw_min>1.1920928955078125e-07</dw_min>
    <dw_max>50.</dw_max>
    <term_criteria>
      <iterations>1400</iterations></term_criteria></training_params>
  <input_scale>
    3.2280794331756202e-01 -5.6655454557259477e-01
    3.5724999531691343e-01 -6.4077628509841800e-01
    3.4661119973304205e-01 -7.1285417849858290e-01
    3.3277913782577018e-01 -8.3933785746943912e-01
    3.3337925464265061e-01 -8.5712355894869385e-01
    3.5045523444870696e-01 -7.3147902300111289e-01
    3.6477480737864609e-01 -6.3610112358130666e-01
    3.0236301368336371e-01 -6.1484632787050675e-01
    3.2740003877650226e-01 -7.0154152997540076e-01
    3.8610177285685082e-01 -7.9361239401634109e-01
    4.0030842543081852e-01 -6.2619675120963758e-01
    4.2929085500982145e-01 -4.8352224095176732e-01
    4.4260528942920874e-01 -4.5170463809925060e-01
    4.2212483792860012e-01 -5.5486995637611047e-01
    3.9759726183473676e-01 -7.0833845516152805e-01
    3.5290105252697013e-01 -5.7790779045911567e-01
    3.3953199894569608e-01 -6.6746643052813714e-01
    3.9029987602216321e-01 -8.3340818307205045e-01
    4.2619327887573411e-01 -5.1677886498109848e-01
    4.5257791053913321e-01 -4.1761916809043736e-01
    4.4165288993552643e-01 -4.3754778294574109e-01
    4.1895616964273408e-01 -5.3929097056621722e-01
    4.0957091134279339e-01 -6.2167013328816856e-01
    3.5327429467189497e-01 -5.1051694203936249e-01
    3.3634987315099113e-01 -6.9045667870780159e-01
    3.8420337621827760e-01 -7.9088898296800925e-01
    4.1215350477627782e-01 -5.7471258399527314e-01
    3.9753177382715993e-01 -6.5308791414461986e-01
    3.9700134263304959e-01 -6.4401834103234035e-01
    4.0957618826518538e-01 -6.0316844977899076e-01
    4.0872072416875088e-01 -6.2984911596261361e-01
    3.5910082960917605e-01 -4.9368142898422668e-01
    3.2446354276703321e-01 -7.1940579647210701e-01
    3.7629480919902880e-01 -7.4873018445755479e-01
    3.9529876766540778e-01 -6.0985332773435208e-01
    3.8737911335647601e-01 -7.0109588890299579e-01
    4.0246992272694443e-01 -6.4994101211797639e-01
    4.1584568549729534e-01 -5.5516541447090839e-01
    3.9840069512409665e-01 -6.5218047857494066e-01
    3.6970967219101536e-01 -4.8483767038566261e-01
    3.3323996250744831e-01 -7.0578515136192899e-01
    3.9154858558607009e-01 -7.9258110898235223e-01
    4.1872188842638797e-01 -5.1155391149234819e-01
    4.3348275479734044e-01 -4.7480652290576825e-01
    4.1904248623303342e-01 -5.2783236246660936e-01
    4.1425669457936637e-01 -5.4587424053569522e-01
    4.0354316665037437e-01 -6.3157092395954428e-01
    3.7536116190786262e-01 -4.4091187031063683e-01
    3.3656836069517698e-01 -6.8264508579277727e-01
    3.8979257243315707e-01 -8.9227517702487424e-01
    4.1519682774214556e-01 -5.6595281876756742e-01
    4.3234041055336708e-01 -5.0701019208300546e-01
    4.1089212483833165e-01 -6.2249028088488456e-01
    3.9674447512379279e-01 -7.3176103236889301e-01
    4.0402351388743912e-01 -7.1508832093951280e-01
    3.9388256079332457e-01 -4.7339850449926629e-01
    3.1786418028169605e-01 -5.6633383622350542e-01
    3.3310138974310183e-01 -7.5460276368725754e-01
    3.1616267120166591e-01 -8.4003147822757640e-01
    3.1599501960540916e-01 -8.1419357775893719e-01
    3.3572482037073365e-01 -7.0153267524080454e-01
    3.7707834460675488e-01 -5.2911826688729890e-01
    3.9374804512667161e-01 -4.8190866512069291e-01
    3.3000440076496457e-01 -5.0771418819155567e-01</input_scale>
  <output_scale>
    5.2631578947368418e-01 4.9999999999999994e-01 5.2631578947368418e-01
    4.9999999999999994e-01 5.2631578947368418e-01 4.9999999999999994e-01
    5.2631578947368418e-01 4.9999999999999994e-01 5.2631578947368418e-01
    4.9999999999999994e-01 5.2631578947368418e-01 4.9999999999999994e-01
    5.2631578947368418e-01 4.9999999999999994e-01 5.2631578947368418e-01
    4.9999999999999994e-01 5.2631578947368418e-01 4.9999999999999994e-01
    5.2631578947368418e-01 4.9999999999999994e-01 5.2631578947368418e-01
    4.9999999999999994e-01 5.2631578947368418e-01 4.9999999999999994e-01
    5.2631578947368418e-01 4.9999999999999994e-01 5.2631578947368418e-01
    4.9999999999999994e-01 5.2631578947368418e-01 4.9999999999999994e-01
    5.2631578947368418e-01 4.9999999999999994e-01 5.2631578947368418e-01
    4.9999999999999994e-01 5.2631578947368418e-01 4.9999999999999994e-01
    5.2631578947368418e-01 4.9999999999999994e-01 5.2631578947368418e-01
    4.9999999999999994e-01 5.2631578947368418e-01 4.9999999999999994e-01
    5.2631578947368418e-01 4.9999999999999994e-01 5.2631578947368418e-01
    4.9999999999999994e-01 5.2631578947368418e-01 4.9999999999999994e-01
    5.2631578947368418e-01 4.9999999999999994e-01 5.2631578947368418e-01
    4.9999999999999994e-01</output_scale>
  <inv_output_scale>
    1.8999999999999999e+00 -9.4999999999999996e-01
    1.8999999999999999e+00 -9.4999999999999996e-01
    1.8999999999999999e+00 -9.4999999999999996e-01
    1.8999999999999999e+00 -9.4999999999999996e-01
    1.8999999999999999e+00 -9.4999999999999996e-01
    1.8999999999999999e+00 -9.4999999999999996e-01
    1.8999999999999999e+00 -9.4999999999999996e-01
    1.8999999999999999e+00 -9.4999999999999996e-01
    1.8999999999999999e+00 -9.4999999999999996e-01
    1.8999999999999999e+00 -9.4999999999999996e-01
    1.8999999999999999e+00 -9.4999999999999996e-01
    1.8999999999999999e+00 -9.4999999999999996e-01
    1.8999999999999999e+00 -9.4999999999999996e-01
    1.8999999999999999e+00 -9.4999999999999996e-01
    1.8999999999999999e+00 -9.4999999999999996e-01
    1.8999999999999999e+00 -9.4999999999999996e-01
    1.8999999999999999e+00 -9.4999999999999996e-01
    1.8999999999999999e+00 -9.4999999999999996e-01
    1.8999999999999999e+00 -9.4999999999999996e-01
    1.8999999999999999e+00 -9.4999999999999996e-01
    1.8999999999999999e+00 -9.4999999999999996e-01
    1.8999999999999999e+00 -9.4999999999999996e-01
    1.8999999999999999e+00 -9.4999999999999996e-01
    1.8999999999999999e+00 -9.4999999999999996e-01
    1.8999999999999999e+00 -9.4999999999999996e-01
    1.8999999999999999e+00 -9.4999999999999996e-01</inv_output_scale>
  <weights>
    <_>
      -2.8827393776193200e-01 -2.2432345644631990e-01
      4.6774812337010752e-02 -2.4933651834955040e-01
      -3.4512691379305255e-01 2.8510561890864683e-01
      -6.9147073209566423e-01 4.7873907691968892e-01
      9.8541600146164879e-02 3.4236806971805242e-02
      -2.2190081822496063e-01 1.1270419446318740e-01
      8.6196153140262188e-02 1.8862146448223713e-01
      -3.7271284351752831e-01 9.0984626776288616e-02
      -2.1486707271401584e-01 -3.0211287562807432e-02
      -1.5369094664730973e-01 -4.4935995101319370e-01
      6.8460603842036227e-02 -1.8268582978257414e-01
      -5.2190355649008617e-03 7.0225539810248061e-01
      3.7095960759581975e-01 -3.9083359503579906e-01
      2.9200183587019768e-01 -8.4839954423098618e-01
      1.6830002081548712e-01 -2.5314121085026764e-01
      -2.0125811025766152e-01 -5.5271607269789205e-02
      -2.0208396793623132e-01 -1.1210901872257100e-02
      5.8666132208677757e-01 -2.8963532306122508e-01
      -3.0884601733266903e-01 9.0102198111779788e-02
      2.3818728420040422e-01 -9.6581183450884150e-02
      -2.9523659661493507e-01 -1.6177601738814135e-01
      5.7045829917605884e-01 -1.0662632353835771e-01
      -3.2827102246392287e-01 3.3560330543699425e-02
      -6.9039233942735645e-01 8.6108617836606977e-02
      3.8422644318706414e-02 5.0713251820271055e-01
      -3.1756574006180172e-01 7.1981840556253940e-01
      2.2032421597690355e-01 2.2133870670874720e-02
      -1.5250128995100866e-02 -7.2620930622099719e-02
      -2.5067298974873631e-01 3.1729514043689205e-02
      2.0790331112139868e-01 -6.7484737120900640e-02
      -5.0564841806403138e-01 1.0846918554129473e-01
      -3.6641807226275108e-01 -1.6492365229988593e-01
      4.2773894601390450e-01 1.6785825196439150e-01
      1.5058658620014570e-01 -6.1068827007934014e-02
      -1.1445431498288902e-01 2.7900048142335881e-01
      -6.3758464253311609e-02 2.0826308540217314e-01
      -3.6319221854824731e-02 5.4575419531912750e-01
      4.8780618556268662e-01 3.9743456516048714e-01
      5.7879691040731131e-02 2.2284739720355471e-02
      1.9194423656091900e-01 1.0278402950378819e-01
      -1.3195860537142881e-01 3.4069481966864140e-01
      -1.3791698049713694e-01 1.5475803901218294e-01
      -3.8474841322979048e-01 -5.5559590459943228e-02
      -1.0976240993918895e-01 4.5243295643482556e-01
      8.8129297647438076e-01 -1.2303401753917477e-01
      2.4739407998508722e-01 -2.0146157415826732e-01
      1.5585149447919336e-01 1.0397161460268883e-01
      -3.6544609755782310e-02 -1.6742217474267099e-01
      -2.5717644471466777e-01 1.6586234100360944e-01
      -5.2607201168074186e-02 -3.2657856847723543e-01
      -1.4371622141196824e-01 9.7502403151130690e-01
      1.5222012206295985e-01 1.6845143625597189e-01
      -1.1812988825331160e-01 1.4285212323667598e-01
      3.5281689024182883e-01 -3.3797338723369863e-01
      -1.4870475813790132e-01 6.3752804610413645e-03
      -2.2479056820156154e-01 -2.5688855761621804e-01
      1.1510643241821629e-01 3.8045104142905234e-01
      -1.2809393718112516e-01 3.5230330813260857e-01
      1.3670909805143172e-01 -3.9553274569329122e-01
      -2.2945014944193345e-01 1.7115662785407046e-01
      1.0921580451182568e-01 2.7870328637791342e-01
      -5.1985521795021161e-01 3.8917707768819210e-01
      -1.0406297564229374e+00 -2.1587582278845399e-01
      -1.5272260105559099e-01 -1.8874266552718591e-01
      4.5545163546973738e-01 8.7537833199650072e-01
      -2.0086430023824292e-02 1.4341487644467185e-01
      2.0198358829092303e-01 3.1380094373167056e-01
      8.9031187375096619e-04 2.8456410754064915e-01
      7.2828650931639372e-02 6.2821654442188013e-02
      5.2426986272964896e-02 -2.0556539279090397e-01
      -3.1302731834740827e-01 -1.0751111273159944e-01
      1.6003922013848379e-01 3.8785846031846080e-02
      -2.1837427449317848e-01 4.6479709356299920e-01
      -1.1731829493079608e-01 -3.5852687425688801e-01
      -7.1692579036397175e-01 -3.2337159596240239e-01
      -9.4084988234396885e-02 3.5154738414180609e-01
      -8.6856221797322372e-02 -4.3047394760933883e-01
      -1.2670481775794609e-01 -2.0911054749069281e-02
      1.7749099617124317e-01 2.4791266261967976e-01
      -7.7903558641683581e-03 -6.5411722773850794e-02
      -5.8069660254336830e-01 -2.2523352059894855e-01
      4.5752107587290131e-01 5.9580650153358630e-02
      6.6187256114984524e-03 6.6623379483742406e-01
      2.7343356059936666e-02 3.2800785406033262e-01
      -2.7960105884343811e-01 -2.2577506046732582e-01
      -6.4334569585762238e-02 -2.0554826652360705e-01
      -1.9344459937747632e-01 -1.7526786486572452e-01
      1.2732407048790753e-01 -1.4271990805527002e-01
      -3.8789058543001426e-01 7.9657448812838116e-01
      -1.4890092381160755e-02 2.5284128703385583e-01
      1.7194598245352574e-01 -2.7678707801568680e-01
      -6.8029655432709321e-02 2.6838875864790357e-01
      -1.2126382796963270e-01 -7.6638399133879626e-02
      -4.5424101420121310e-01 4.1279941368189044e-01
      -1.7024640599026677e+00 -5.1254911331558253e-02
      1.0959035873283210e-01 1.6817312144809318e-01
      8.1932995311309909e-01 5.3942889570278330e-01
      -2.1432871319837046e-01 -4.0292417990033642e-02
      -4.2920814836388335e-02 2.1229709698278387e-01
      -2.8008574491670218e-01 -7.8705467315702368e-02
      3.3009270669275026e-01 1.9836247513882790e-01
      -9.2356564699181673e-02 2.6608086188889542e-02
      -1.3940404530368637e+00 -2.3255814021392299e-01
      2.9441381136504935e-01 3.5997421399996571e-01
      9.8333662973860064e-02 3.9265783719592823e-01
      2.8289649390566003e-02 4.5356422350440356e-01
      -2.9886378245132437e+00 -3.7538089042072170e-01
      -3.0366488651787610e-01 4.3833857760388673e-01
      2.1797625629509523e-01 1.2594672663697324e-02
      -2.3265489265584430e-01 -5.4062166642824233e-02
      1.8322369462008775e-01 2.4904468719807538e-01
      -4.1843705955732236e-01 -1.0823028117411722e-01
      -7.3820765278019588e-03 -7.3628808676467972e-01
      -3.7885227950127559e-01 5.9115929328471775e-02
      -1.6411574927895045e-01 -4.2037752956544196e-02
      2.2698054812038282e-01 -2.1224370173548491e-02
      -1.5250282096851941e-01 -2.2802514150577552e-01
      -7.0277669104421114e-01 -3.8811318615342710e-01
      -3.7986916805941429e-01 1.1272916584870692e-01
      -3.1233537574067305e-01 4.0995469850563432e-02
      1.9298023039393975e-02 3.3989386887065143e-01
      3.4423662923521302e-02 3.2618078899267675e-03
      4.0689669479537505e-02 -2.0302952887137496e-01
      -4.2322972394318442e-01 -1.6539219981444028e-01
      -5.7606503314046487e-01 -1.8074993601477427e-01
      -3.2112687599318968e-01 1.3788355038462119e-01
      -5.2496654452620906e-01 4.2598223428311849e-01
      2.0422647380545061e-01 9.8197153950357358e-02
      7.9907521175360985e-01 -5.3205172292032810e-01
      -2.7787229676583436e-01 1.4899473639497082e-01
      -4.7485503308426014e-01 2.1588527610577482e-01
      7.4522024446883806e-01 -3.2527670212216392e-02
      1.8328620222047590e-01 9.6266160555917676e-02
      -1.7058631944911404e-01 1.7249538774672116e-01
      -8.1823484227765564e-01 -4.6435925059688465e-01
      2.3562545313080951e-01 6.2133257754540228e-01
      -1.1598432238852693e-01 1.9039045816420672e-01
      4.2237706661968279e-02 1.0801023224583373e+00
      -6.5344588872548381e-01 -9.9150084103811528e-02
      1.8792084892862552e-02 -7.9540081621040329e-02
      -3.9858808504697812e-01 -1.1264897881171838e-01
      -3.0910720084351282e-02 -5.1861647256015153e-01
      4.9083699268961993e-02 1.2247544786071765e-01
      2.7178810976456647e-01 -7.4525092004854132e-02
      -2.1073803614638978e-01 -1.0960317689558061e+00
      -1.8800578898404291e-01 1.1101638392723585e-02
      -6.7070948483355028e-02 -1.9486442610934993e-01
      -4.1111647792047845e-02 6.8991581578516969e-01
      -1.3445876668791767e-01 4.4102991348708698e-01
      -3.8812978573199236e-01 -9.6628549590198531e-01
      -5.6518346153505206e-01 9.7372184656217442e-02
      8.0540907027560810e-02 -1.5130465066761245e-01
      2.1767325095741946e-01 -1.6858293351648601e-01
      4.8875643801774976e-02 1.7774417709879784e-02
      8.4731927144149982e-02 -7.4901853131881885e-02
      -3.9195515342815618e-01 -5.5228906238381581e-01
      -3.2374033385209894e-01 -2.6375173924735434e-01
      -9.2273610867804501e-02 1.5395636527955195e-01
      -1.6513795054697517e-01 4.8481574091927876e-01
      -1.1461017387363225e-01 2.2450486020796229e-01
      -1.9077621501148331e-01 -4.4198060456022742e-01
      -2.5448822158406461e-02 2.2985278903354428e-01
      -3.9991437688262271e-01 4.8520392467196100e-01
      -2.3928351547545859e-01 1.8121036940855800e-01
      2.8066961596567697e-01 5.2917354285660556e-01
      3.3066602691717711e-01 1.0487093591629842e-01
      -3.1758304901572609e-01 1.4920942506622806e-01
      6.4880067708582068e-01 1.8981777766272284e-01
      -4.1947872428323381e-02 -1.5163896431300761e-01
      1.4428047914722544e-01 7.0932377891435316e-01
      2.6870968307970128e-01 2.6798463377730231e-01
      1.6346496484522799e-01 7.7115406598825831e-01
      -2.3408133477403686e-01 -2.5112498439160302e-02
      5.1301182751646468e-01 -2.1324614186959030e-03
      -6.2670685258900891e-02 2.4702057143895059e-01
      -5.3549073101106993e-02 -8.6857624454632243e-02
      -1.9558246426969550e-01 -1.0055732665908694e+00
      -4.2081994400002425e-02 -5.9115215425418233e-01
      5.1588365526122865e-02 4.0656818694077063e-01
      -1.1809210582109710e-01 2.6766880963647620e-02
      2.1242725905790980e-01 1.9969924688288493e-01
      -4.2714803806743395e-01 -5.9485349373890728e-01
      -6.0477306822646437e-01 1.9367479211145358e-01
      -2.0245170863247947e-01 -1.3405909700760643e-01
      3.4428296817008924e-01 -2.4658038148976069e-01
      1.1650646247395942e-01 -2.4742428258283437e-02
      1.8898957900105434e-01 -4.4445547518074985e-01
      -1.0761298292710282e+00 -2.2452055420248240e-01
      2.6434180370670957e-01 -5.1543948259924241e-02
      -1.8283214803054650e-02 3.2280403845245381e-01
      3.5070721739540606e-01 3.5254753918009052e-01
      -7.5516242584258070e-02 2.3254433786600051e-01
      -3.5234896865432375e-01 -6.2815583045104018e-01
      -1.4874489174798003e-01 4.5028776231051859e-01
      -1.3105438972291902e-02 9.6494034801031081e-02
      -3.9210935193722818e-02 1.8274485241453370e-01
      2.2621949442893241e-01 -6.2587605142575345e-02
      6.8072813653605890e-01 5.2888307614754138e-01
      -1.7067370100250023e-01 -1.6678344871093967e-01
      2.9105109808151414e-01 2.6632745417928949e-01
      3.6945493642819377e-01 -1.6231222045826477e-01
      8.8372242909083923e-02 2.6467744288716738e-01
      -1.6884492968503692e-01 4.6043084307309981e-02
      2.0443246765219046e-02 3.1985859568163294e-01
      1.9201650721998639e-01 1.8401223744580800e-01
      4.0102294668991172e-02 -3.2932648452636298e-02
      3.2567083346557585e-01 2.8624021924667131e-01
      3.3945028749455125e-01 1.2582127039950228e-01
      1.0624805600666745e-01 2.2268492628037279e-01
      -1.0242508611502346e-01 -5.9744963878602189e-02
      -6.7862180588351320e-02 2.9244288767354787e-01
      2.5136324944710592e-01 -3.0318921292256623e-01
      -8.8820646278635382e-02 -8.3181786117469680e-02
      -2.3672132342973737e-01 1.6070235289850179e-01
      -1.9031844847720400e-01 3.8257532357724744e-01
      -3.1266083616238521e-01 -3.7682929413715793e-01
      -1.6776543452584079e-02 7.3286723014436661e-01
      -9.6929354343725349e-02 -1.4347149795329783e-01
      -3.2245471422802380e-01 -1.2694690979760478e-01
      -8.6465296790507698e-02 -1.4972714231945811e-01
      -5.0103795747504530e-02 -3.9758197323735797e-02
      1.3061481923225057e-01 3.0669933002501609e-01
      4.7594778929734116e-01 1.7648565225756627e-01
      1.1169098636586215e-01 -2.2463606925296583e-02
      -7.3766803010063775e-01 -1.8772107081087569e-01
      6.4800661175675811e-01 6.6321851894448960e-02
      -1.4824233904565728e-01 7.5037373752255804e-02
      -4.4497817954315921e-01 6.5288594532398395e-02
      -6.9975412797310191e-02 1.1018853633570207e-01
      -3.7359596121126060e-01 3.7939148439899478e-01
      -1.5228387743681102e-01 3.5615060223688366e-01
      1.1271101248617124e-01 -3.8247922964882317e-02
      9.0604221665616450e-02 2.6521170171829922e-01
      -7.0443228463621776e-02 2.9644195956707153e-01
      9.1025686214272850e-01 2.4025583565248085e-01
      -1.6865084519551896e-01 2.8627247526209187e-01
      -2.2831859914035871e-01 -4.0487325202065649e-01
      2.7503567992788525e-01 1.4985900462050289e-01
      -6.2894973499625362e-01 6.2201959085469140e-02
      -3.4567601842508083e-01 5.1552392854343522e-02
      2.9086555465271929e-01 1.4884503820957476e-01
      3.7236013420476288e-01 4.3122462473051110e-01
      -2.4892884348665437e-01 -1.3011702529250954e-01
      -1.8988325373640516e-01 -2.5684973363064179e-01
      3.9114950889477883e-02 -5.5577124509881309e-02
      8.7167568753123537e-01 2.6703406361828391e-01
      4.1106798159388398e-02 -2.7418774364154164e-01
      -1.7205404202500785e-01 -1.1768084305197601e-02
      -6.2751672072620640e-02 -8.1379767160590111e-01
      -2.8699916635347079e-02 1.0489014535465425e-01
      4.1266612829638498e-02 5.1560513952638676e-01
      -1.2367998512831466e-01 -7.0165541470027043e-02
      -1.5938929652441913e-01 5.6832659535927665e-01
      1.5485452697717605e-01 -9.6145800016237748e-01
      1.1300056926523788e-02 5.1807612285011273e-01
      -3.1471276884909144e-01 -1.0666422536546388e-01
      -5.0907370257995588e-01 -3.4724626589241742e-01
      -8.8543896933613794e-02 -3.1788865754458323e-01
      -2.9539394058253254e-01 1.9180697664870561e-01
      1.0282710962675896e-02 -3.4148598552201292e-03
      1.1284223505114925e-01 -1.9890298438408460e-01
      -4.4620989125029775e-01 -1.1609109519273642e-01
      -7.1622404868699197e-02 8.8799671140195102e-02
      2.2578939851957025e-02 1.7608002231671527e-01
      -7.7778687679005781e-02 5.3914031656126093e-01
      -1.2094081210624746e-01 -5.8537149263638166e-01
      1.7175233119073294e-01 1.2296379444874370e-01
      -2.6864030236426006e-01 4.2039759558765183e-01
      -1.8194678641043194e-01 2.3001070126000334e-01
      4.8308590301189286e-01 -2.1824992571715088e-01
      1.5708615141331003e-01 3.9739082037455846e-02
      -1.0924191741400560e+00 -3.2526072154395397e-01
      -3.4543995957078333e-01 1.2464270420995895e-01
      2.0343252224837398e-02 -3.0500939247444114e-01
      -1.6310532656662177e-01 3.9109777835613030e-01
      -1.5906882194103647e-01 -9.9879154827920119e-02
      4.4259846914761614e-01 -3.4354049766597272e-01
      2.9498695262793064e+00 -2.2097014027761799e-01
      3.1588773365860001e-01 -2.1461719470128074e-01
      9.5672243151259093e-02 -1.5234650378316492e-01
      6.1857438014348412e-02 1.8675877430217108e-01
      -1.3579459202795235e-01 4.6620815927612175e-01
      6.5662688833672336e-02 2.1679147862603057e-01
      5.1841695275927369e-01 -4.0144349815987773e-01
      -2.0852903626220298e-01 2.8118261873268290e-02
      6.7824003551686871e-02 -3.1586832551282654e-02
      -5.7948911172945505e-01 3.9219285029148587e-01
      -2.3677641887767895e-01 -2.4356697043079259e-01
      1.5752004010871515e-01 1.1287212461405943e-01
      4.4262500477043762e-02 2.5321768933651890e-02
      6.9469298779160471e-02 9.2034891204927929e-02
      8.5908197043470003e-01 2.9511898064292169e-01
      2.5087606612233943e-01 -2.6987974327964435e-02
      6.7036013230867653e-01 6.3097781002422948e-01
      8.1843226988815784e-02 -2.4846890297341637e-01
      4.2252248907763079e-02 2.8958435569346425e-01
      -1.1059794695871202e-01 2.8589610048879610e-01
      -1.5956216248902549e-01 -1.0998286784972384e-01
      -1.3478666326396174e-01 2.5828565168074726e-02
      -4.0094673639059032e-02 4.9732617008826474e-01
      -2.4008727843802768e-01 -5.1069847899123288e-01
      5.5948459301261400e-01 -3.8291712618005735e-01
      2.3394728114966709e-01 4.3967023779669095e-01
      3.2152640004816430e-01 7.9007723157984280e-02
      3.0003304770383954e-01 -2.2493085023172731e-03
      -5.1480967707882519e-01 -3.8588495421324143e-01
      -2.7353570790753701e-01 7.0769603772549072e-01
      -9.3477875969235347e-02 -1.5731455333592614e-01
      6.9611529495748600e-02 2.2001890048966563e-01
      -3.1298795074125513e-01 -1.3281721251307529e-01
      2.1170513669183211e-01 -1.4220263449858336e-01
      6.9009023871396113e-01 -3.0329278045053056e-02
      -2.5749632458860294e-01 1.3789882437717443e-01
      -8.0843227492897018e-02 2.0971944975600496e-01
      4.4638722396134041e-02 -5.9527197138982046e-01
      -3.8649507780114989e-01 -3.2300567724547974e-01
      2.5377840721625963e-02 -1.1825801870720033e-01
      -2.3135187484835246e-01 -5.8303626302591771e-01
      -1.1719183286508059e+00 -1.5347661792817302e-01
      8.2425340269633163e-02 8.3462551335478467e-03
      8.1702259334052407e-01 1.1523560175117262e+00
      -2.0510992007552131e-01 2.0150139126658119e-02
      3.4824422439131475e-01 1.4342277638166698e-01
      2.7382727742719470e-01 3.9720055801351317e-01
      -1.7996511184856862e-01 2.1241923241063795e-01
      1.5020389829364333e-01 -3.3640755252393728e-01
      2.5815819003451401e-01 -1.2887874188618101e-01
      9.8640476224142182e-02 -1.6750916303892381e-02
      -2.9302193069568794e-01 4.5080093783963593e-01
      -3.4492819179253273e-02 -3.1507658418298673e-01
      -6.5531612716045107e-01 -3.9524975453607358e-01
      -2.3013614184536946e-01 5.0406896191291195e-01
      -6.5202813500664342e-02 -5.4878158472354588e-01
      4.3588192102692901e-02 4.7296093835088132e-01
      5.1985504558175821e-01 1.1849223330232772e-01
      -6.6987459632135071e-01 -1.4490541676433269e-01
      -1.0388665928451879e-01 -2.9016774261033180e-02
      -3.4628656939274742e-02 3.2181222313787128e-01
      -5.1404338111092285e-01 2.5860332275471620e-01
      -2.0027525219285419e-01 3.3346650767910997e-02
      -6.7212096673145993e-01 3.6979778259818635e-01
      -7.4467410388212207e-01 -3.7242093371937551e-01
      -8.1937447974357525e-01 -1.4542557798198813e-01
      1.0914518964098473e-02 4.1861603235505132e-03
      -7.2091127614966832e-02 2.8240435888466739e-02
      8.5805570300818118e-02 2.9741277089313456e-01
      -1.4267463983728898e-02 -4.4175826782448961e-02
      -3.3844162406783168e-01 4.8479251494862347e-02
      1.5509444070993587e-02 -6.4155667223076904e-02
      -2.0245784430109942e-01 5.2530397834173514e-01
      -9.9543914589331151e-01 -2.6446506455294776e-02
      1.9001423970087997e-01 -1.6989551295077375e-03
      8.4257070947906354e-01 2.4192602356724069e-01
      -1.4750557807454057e-01 -7.2264731090146817e-01
      2.8749672904647347e-03 1.4206796293867270e+00
      9.6612581702202149e-01 7.3201314348456420e-02
      -6.4335259651815260e-02 -1.8893850972519882e-01
      -3.6074332949899435e-01 -1.1946338678185928e+00
      1.1641639750301348e-01 -1.8624099418768199e-02
      -1.1118196534133104e-01 5.3416118181114669e-01
      2.0908736489481766e-01 3.9358155000195391e-02
      -5.5943084463168709e-02 -2.1143761186248025e-01
      -2.8349649590045800e+00 -4.2866190581445862e-01
      -2.2147005594624672e-01 1.1285255007959663e-01
      -3.1125698359107133e-02 -1.5547208649044986e-01
      -3.0230886981224597e-01 -1.8226334952525552e-01
      -1.5797529903793094e-02 3.0822954660390933e-01
      -5.6015020321390531e-02 1.1864778211737771e-02
      8.4748291649353560e-02 -2.0596964695685427e-01
      3.3736667681633964e-01 2.2245736190301862e-01
      -7.4271480150447933e-01 5.1403545470727341e-01
      6.6686218005162584e-02 5.0218315886682086e-01
      3.3780392607528381e-01 -2.8023703204332295e-01
      -1.5722491895544918e-01 -2.9483684142215527e-01
      -5.5022282544418899e-01 5.4361689939086986e-02
      -8.9117746863713587e-01 3.7749837932587521e-01
      6.2516505888764992e-02 2.7537180625428503e-01
      9.3481838588344662e-02 2.9861941023850098e-02
      4.8919697902718939e-02 -4.8817590203379929e-01
      -4.1940676656542147e-01 -4.3200748434029212e-01
      -4.7248187271243497e-01 -1.2104934541151006e-01
      -9.2876669920768851e-01 3.5094223925958895e-01
      1.5944911103974085e-01 1.4115231513308071e-01
      -5.3909758139229269e-02 4.4520741817502943e-02
      5.8297586915416144e-01 -2.1376260471645242e-01
      -1.5111998604540705e-01 1.4227813465600063e-02
      2.1478667167593885e-01 -2.7999999670212561e-01
      5.4690176102692800e-01 -4.0879232626773443e-01
      5.9276115397525908e-01 7.8106549616101861e-02
      -4.2036391021845981e-01 -5.5257381191185639e-01
      -4.1091745179737738e-01 -2.1602450025593248e-01
      4.0821938189040885e-01 7.6286779546860839e-01
      -4.5937356638195798e-01 2.8382732365092905e-01
      -1.2122026894937880e-01 1.3274854648686349e-01
      -3.4454974774931779e-01 -5.6904114039177695e-02
      1.6234001857002794e-01 1.9493435527283226e-01
      -6.2496453271369878e-01 3.6276640595634077e-03
      4.8907345205135916e-01 -2.0384987020266998e-01
      -1.9851440641711193e-01 -1.3410204285141714e-02
      -2.7046461122680365e-01 -2.7167068222675977e-01
      -3.0540668848039193e-01 -1.9106570527764846e+00
      9.5262271604350635e-02 -4.1610417095312507e-01
      -2.6154365784015304e-01 -4.9462711432010426e-01
      1.8442773379934099e-01 3.8502245897621495e-01
      5.4326116780714168e-02 3.2753553460463786e-01
      -6.5419211739920671e-02 -6.6505566648459435e-01
      -2.3677387473555206e-01 4.5788188896817900e-01
      2.7500586087599405e-01 2.6867251428804029e-01
      2.0900097036048462e-01 -7.9282553951926182e-01
      -8.6586678923565391e-02 9.3927491241862296e-02
      1.2814570436495443e-01 2.5909034036129869e-01
      -9.7113743870558411e-01 -6.9448678002772357e-01
      -3.1280191271409397e-01 -3.4992991221139552e-01
      -2.8475620851344041e-01 -6.3059528359080819e-01
      3.3867787706612990e-01 3.2373112409792743e-01
      -2.8625379570409193e-01 6.6187070038021045e-01
      3.0453477497855869e-01 -2.1498333074428094e-01
      -3.6798279842650888e-01 3.3238708116821020e-01
      -3.8315696401981514e-01 -4.1997318092458624e-01
      3.3862662220432210e-01 -1.3540105161084692e-01
      4.7305340684252151e-01 1.7947130115217652e-01
      2.4324312864021944e-01 -2.2871882560491072e-01
      -5.1517193825913887e-01 -1.4289138091247666e-01
      3.3136500747542219e-01 1.1613185878337064e-02
      -1.0679358450563680e-02 1.9655853723786462e-01
      -1.8083779525716343e-01 5.4605906061025677e-01
      4.4361294194755173e-02 -4.3151367682328468e-01
      2.0943294377379251e-02 1.3481084048046692e+00
      -5.2507746389431731e-02 2.8933186396926369e-01
      4.0013064808266036e-01 4.2788135886366579e-03
      5.3954435013524066e-02 -1.9884626535496025e-01
      -4.6563831136285921e-01 -5.0554668263691693e-01
      -2.5841636188428208e-01 -8.8395971544902718e-01
      -1.7281039894258260e-01 -1.1041249695211428e+00
      4.7237926791422524e-01 1.5130868351972962e-01
      2.3869302056230374e-01 5.9653224090816970e-01
      -1.2154598564736697e-01 -1.3698191773869697e-01
      6.8050250744363841e-02 -5.3528438384401140e-02
      1.0524419430945445e-01 -4.1887565411370800e-02
      -3.4412720913758599e-01 -1.6477027844453068e-01
      -4.8496681282479540e-02 -1.6174081231287671e-01
      -1.3443801813214012e-01 -2.6004588777687998e-01
      -7.9318885717507628e-02 -2.0570029936440948e-01
      -3.7280365474653865e-01 -4.4394553441068109e-02
      1.4224344385042016e-02 -1.1928319611023487e-01
      -1.5628811286626332e-01 -1.2229121840352175e-01
      -3.8307868127471306e-01 -5.8914610302245131e-02
      -7.8971965233577537e-02 6.6540280141578090e-01
      -6.8200800635736414e-02 -4.3651063801769147e-01
      -1.3944403937367028e-01 6.5110566044242679e-01
      -2.7294492353497513e-01 8.3085484166356166e-02
      1.1710075718537766e-01 3.8439777265640312e-01
      -2.6408285592463488e-02 -4.8824324143887732e-01
      3.2512769796274305e-01 2.1906875913885088e-01
      2.2059363235542714e-01 -2.4728482424268003e-01
      1.2904516959399064e+00 1.7055367289306489e-01
      -2.9160276003853952e-01 -5.0864305662570546e-02
      -1.0641208049169752e-01 3.2532230188671701e-01
      -1.7647725062820602e-01 2.9324860040036893e-01
      5.5866218171311481e-02 9.2807198775689848e-01
      -1.1601470395483118e+00 3.3944036246166143e-01
      -1.8985054199037718e-01 -2.2460301648234451e-01
      1.4373898788704434e-01 -3.8860260091202464e-01
      -5.8087948316509386e-01 1.4118788916076305e-01
      9.6425766544763328e-02 9.1899201129529684e-01
      4.1950435925409715e-02 2.1014865275082950e-02
      4.5059565114024741e-01 -8.1886271546945466e-01
      1.3069595808893678e-01 -3.1620574407012969e-01
      6.9912750247421440e-01 -3.8932705445794058e-01
      -6.8593457423790039e-01 2.4311936827110345e-01
      2.0699557891595610e-01 -1.8726582431807007e-01
      -3.3764009222975533e-01 9.4985621071809620e-02
      -1.0562893619010724e-01 3.2529547769335443e-01
      6.5686872874389582e-02 -6.0684518396640415e-02
      -2.0020085759969289e-02 -9.4000289787844013e-02
      3.7779623627148234e-01 1.3327401330049565e-01
      7.2819727662053427e-02 5.1248275808672146e-02
      8.1863856863962170e-01 1.0748903343539533e-02
      -1.5058166266461953e-01 -1.4856440885204530e-01
      6.6524282258008410e-02 -3.5276730298810877e-01
      -6.9905967336428154e-01 -1.0167429516574158e+00
      -2.0358944198431794e-01 3.6979739076839535e-01
      -2.1738536938746736e-02 2.6096489450349830e-01
      -1.6948067128832167e-01 -1.9250627938219281e-01
      -6.3371247697305663e-02 3.2088121428312877e-01
      -2.4922719003030014e-01 -2.7547511910687328e-01
      -1.7124265762681265e-01 3.0523622238356474e-01
      5.6326059969022868e-01 -2.7349442838535931e-01
      -1.3971524810196334e-01 -8.4613367703200312e-02
      -4.6684405908830821e-02 -6.9720119518819082e-02
      -4.8005446481767435e-03 -2.6594320762084211e-01
      8.3884288616166244e-02 3.6923258712858187e-01
      -7.2008532174414264e-01 -6.3063811373505974e-02
      1.1190036734519014e-01 3.4947400958083180e-01
      -4.4287609107208714e-01 7.9943623727826887e-02
      -4.2251377928604966e-01 1.5846443543611738e-01
      -5.0448437563993836e-02 7.4489602261608348e-02
      4.0407734696724606e-01 7.0208255725938096e-01
      1.4213133037115486e-01 -6.4952080977743287e-01
      -9.9285127509254278e-02 -4.6645903461859156e-01
      -3.7035671354419736e-01 -2.3144700342193952e-01
      -2.1495826084750472e-01 3.8343263974168068e-02
      3.6726093102826718e-01 -2.8766598803669408e-01
      3.6567060525544587e-01 1.3907363207937637e-02
      -2.8783333684380985e-01 -3.2516528094502917e-01
      -1.5678347669270956e-01 -3.9772437292156133e-02
      1.3692044771126183e-01 1.0952518758921306e+00
      1.2010537930385333e-01 -1.2266456743941613e-01
      -1.1379646730764290e-01 9.3814912386808125e-01
      1.3761646063793798e-01 -1.7040178216227228e-01
      -3.8507784668758699e-01 -1.5607764374036645e-01
      1.6216265801531477e-02 9.6732808628890912e-03
      -1.4806193248848026e-01 4.8111035699993962e-02
      -3.4502149115583428e-02 5.3456096137630360e-02
      1.3924393983195482e-01 -7.7308019502226266e-02
      -1.7119543759425343e-01 2.3497933785852708e-02
      -7.9355680544091867e-02 4.2209502752705408e-01
      6.3055171862271142e-01 -5.5199782200501846e-01
      -1.5517036361370520e-01 -2.7337634674727757e-01
      7.5297133505541058e-01 -2.9315282125165382e-01
      -6.2066540456623992e-02 5.3251776564363174e-01
      -2.0739876407073632e-01 6.8323693481893288e-01
      -5.7766618405090751e-02 -1.6439754418460306e-01
      6.6026330320312562e-02 1.8875045186089609e-01
      1.7534958339664990e-02 -3.1167768756283881e-01
      4.2019009616252329e-01 -4.4859412824824962e-01
      3.4375107485176426e-01 -3.1449644769755002e-02
      -5.3057240396082606e-01 1.4158791536653514e-01
      1.4826974961969985e-01 -8.4625042744089177e-02
      -5.8459222809386535e-01 5.8884056133584911e-02
      6.6800860291332653e-01 3.2899848021990497e-01
      -4.1234850952493673e-01 8.7326252006260083e-02
      2.5009385517998672e-01 -3.5156898871116843e-01
      7.9786742865065852e-01 -1.5810236345270554e-01
      1.3159371110572546e-01 -5.3566123210145378e-01
      2.1025821067546260e-01 -1.1416500802601032e-01
      -1.2847447993692007e-01 8.4962726671632083e-01
      -1.0288760862344738e-01 -1.7933516535673097e-01
      2.1110805210419267e-01 -1.2567689625522458e-02
      -3.1000511474425729e-01 -6.5811466118359574e-01
      -6.4146182517873490e-02 2.1959689265297641e-01
      3.6169871435405815e-01 -1.9709037055093773e-01
      -1.0699733345178011e+00 -6.4582189152875635e-01
      3.9730871257787133e-02 -6.6286561469190486e-02
      -2.7737428560139382e-01 6.5100967448526792e-01
      -3.5980835841445880e-01 -5.3838263777977083e-02
      -4.5763906637093477e-01 2.1113859484836680e-02
      3.4215160078235091e-01 2.5492882173470338e-01
      -2.3801426559381587e-02 5.5577621810835698e-01
      4.5329828023630991e-01 1.3906972276206883e-01
      -1.4742576653638148e-01 -3.3622155090441830e-01
      6.2145895097388337e-01 -2.8564809817251419e-01
      3.5668714029861331e-01 2.2082134123839761e-01
      -1.7155638871340979e-02 4.0829733879402252e-01
      1.0123709254005582e-01 -3.2322262577358224e-01
      -4.0208439894301351e-01 -7.3875221841980421e-01
      -4.1248921355144330e-01 -8.1170401403390235e-01
      1.0780019563494032e+00 3.1863242925881835e-01
      3.8920619726399364e-01 1.2774755291096695e-01
      6.3966060520513701e-01 2.8621349347075470e-01
      -3.1324977775908464e-01 4.0869890015570551e-02
      -6.1974524220254890e-01 -1.1898955866058065e-01
      -4.9640952092510765e-02 3.6276988036192376e-01
      -3.2543647570894429e-01 -1.7852806207523397e-01
      2.4745661637062064e-01 -6.6476086807604851e-01
      -5.4997583378963055e-01 -3.0634756789843753e-01
      3.6565386458346999e-01 -1.8612358473779834e-02
      1.0736264969250291e+00 1.9381855071667142e-01
      -9.0616421395961752e-02 2.4848622588316712e-02
      3.2096251901232069e-04 -5.2696251403248406e-01
      -9.9618859376697413e-02 -2.0278439925423258e-01
      -3.7209904776185254e-01 -3.3771156246450318e-01
      3.4347883070655350e-01 -2.9641305403543441e-02
      9.8744737017464640e-02 2.1409291244597867e-01
      -2.2885098030181197e-01 -7.6635498363281174e-01
      1.8535722540633703e-01 7.2408329952981840e-02
      -7.2227630428594836e-01 9.2708708518272442e-01
      -2.8787341066781708e-01 1.9191283513168819e-01
      1.5612223683202042e-01 -8.6972858747369153e-02
      1.8815935652120833e-01 7.6061008190183022e-01
      3.4044930741330576e-01 -3.2930464406669846e-01
      -4.8843508579636735e-01 -4.9080513800020398e-01
      4.9349360710089729e-01 -2.6011529022616475e-01
      4.0983975870620609e-01 -1.2050842953397579e-02
      5.5413390562065179e-01 1.7252924851716786e-01
      -4.0403957540294411e-02 3.6863670785468206e-01
      1.5456859272698584e-01 -1.0798774186130769e-01
      -6.9657855315988670e-02 -4.7011222622969506e-01
      -6.2230097278610186e-01 -2.7096801567455725e-01
      4.2064116846914679e-01 8.9001651381817892e-01
      1.2154886321319320e+00 6.6415776492779383e-02
      -5.0921701906038674e-01 1.6260443619387090e-02
      -5.3346675392981224e-01 2.2529250291750957e-01
      2.7918353871148133e-01 -3.7748168933027132e-01
      -3.1111504890361985e-01 1.1397005202184356e-01
      -1.4140855766671881e-01 -5.8412824643479699e-01
      2.0924096070089909e-01 -2.1411056444818602e-01
      1.3628683279184825e-01 -1.1271675225046159e-01
      -7.2016780386212453e-01 1.8422535790621952e-01
      5.3270286259120780e-01 -3.4210719935865658e-03
      -4.3133053683910882e-01 2.4816209614770274e-01
      1.4599291549372675e-01 -1.0148683942994561e+00
      -2.9502354433076794e-01 -8.7426384522029177e-01
      -4.5633703173471885e-01 8.3537587088512357e-03
      1.5858764938203310e-01 8.5918724233622026e-02
      -4.2481803694931736e-01 7.6399243132806127e-01
      -5.6344040301342568e-01 -2.2802367928592346e+00
      3.9912326270069193e-01 -4.6507449900421177e-01
      -1.7473509373259513e+00 -3.4805366579587671e-01
      -1.0082259248211470e-01 -2.2925472990655362e-02
      4.5774943186189015e-01 8.5431603967159397e-01
      -7.0917680660041593e-01 4.1100336953120581e-01
      2.3191654334203487e-02 6.4024367925845052e-02
      -5.4347647073804983e-01 3.6882597680221196e-01
      4.9263773538269690e-01 1.2849089525950466e-01
      -3.8267759440320389e-03 -2.3516178662969406e-01
      3.8382300750087017e-01 5.1409997389025991e-03
      9.2568447188261641e-02 4.1559046124944132e-01
      3.4306658466082002e-01 2.0971566702528491e-01
      -4.8103191297545096e-02 4.4909414399012720e-01
      -6.9967574599889726e-01 -1.3272553960643351e-02
      8.2534546711178478e-02 6.1941827020834894e-01
      -1.4357432301196149e+00 2.9499270906794228e-01
      -3.0917845380182957e-01 -3.1592639755431591e-02
      -1.3531995730640833e-01 1.8236821257540392e-01
      5.3152872659571186e-02 -7.2276880535678281e-02
      -1.3920948040721598e-01 -2.3394868159616924e-01
      2.1212345787694295e-01 -4.0603022295107660e-01
      -1.0582574202419484e+00 -1.9784868530852823e-01
      4.4559721300586524e-01 -4.4881907967058321e-02
      -8.6517504362970599e-01 1.2471569977616687e-01
      -1.3419221364206477e-01 -4.8891396732997361e-01
      3.0367011589369441e-01 -4.0481518560806723e-01
      2.0901238903492012e-01 -5.9889668158576181e-01
      -1.3085785870012473e-01 -1.8159831844215016e-01
      3.9455476261620798e-01 -6.5484936210752864e-01
      -6.6174373001230802e-01 -2.4499747985905918e-01
      -6.1082258116448196e-01 2.2143543451313624e-01
      8.7435953601366939e-02 -2.7511917719315244e+00
      -2.0775535447528790e-01 -5.6262137759476716e-01
      -2.7754517062834050e-01 2.5793600777371238e-03
      -1.0495043308773994e-01 1.1476618199918988e-01
      9.6967655356118392e-03 1.7997224114596222e-01
      -8.2246441646143043e-01 2.4636020835666411e-01
      2.3848874508106985e-01 8.0851456393853893e-01
      -3.0780525649687207e-01 -2.2416828765937311e-01
      -1.6407535682542992e-01 -1.3207116375672373e-02
      -7.7572799768440004e-02 2.0509759648311368e-01
      -7.1425308656143016e-01 -5.8212030441814744e-01
      -2.5103104528729125e-01 -1.8816031943697631e-01
      -4.4632266305639712e-01 -2.7905272725472152e-01
      2.4982713206622276e-01 2.5995488582119343e-02
      -6.1381110001781897e-02 2.4749313603902829e-02
      5.0729244239110116e-01 -2.1840860348304825e-01
      -1.2081549148020725e+00 7.0307545606406086e-01
      2.8144560638404775e-01 -6.1104897287581741e-02
      -6.2982429529491257e-01 -1.0638994601363691e-01
      -5.8947166698948883e-01 -1.7146904362162807e+00
      6.4143790810018564e-01 2.6309125500212671e-01
      5.7315953436274791e-01 -3.6584106072999323e-01
      7.8147731268429277e-02 1.1749706271153657e-01
      -2.7880127208470057e-01 4.1152767302973742e-01
      -5.8806061548790223e-01 -3.4222156238778012e-01
      -7.3158021893924896e-01 4.5447327137311033e-02
      3.5495046350837258e-03 4.3611328985113001e-01
      1.9917880537384439e-01 -7.6633908436475784e-01
      -1.0765526073456594e-01 -1.2915971162661513e+00
      4.3623740547155387e-01 2.1940258605045941e-02
      -8.8196299974442449e-02 -2.1351030158364437e-01
      -4.2338726661081200e-01 -6.3332277158669970e-01
      1.5497985861364713e-01 4.1955691205842033e-01
      -8.9578074997328477e-02 4.6505962602541494e-02
      -7.1735070214715049e-02 -4.0700949560079733e-02
      -2.8872249359318514e-01 -2.0104173718585092e-01
      -2.8412113114052694e-03 1.3668659797095936e-01
      4.0100718943414704e-01 -5.2654561063008858e-02
      3.9004014773578499e-01 2.5077338842870700e-01
      -5.5543069620713419e-02 3.6680171878831624e-01
      6.3611115330434079e-02 -2.1021066721812931e-01
      3.9756817748134626e-01 2.5590049449924002e-01
      -8.7671884126612099e-01 -3.7479259879400795e-01
      -2.2235980154935886e-01 3.2347214903965832e-01
      -5.9202424894818431e-02 -2.2353703265830849e-01
      -2.1954698906549083e-01 2.0089380794645051e-01
      -4.3753659187076488e-01 2.0986842945849235e-01
      3.3847823964248197e-01 -4.2028355364736536e-01
      -1.1380228961503174e+00 1.1352525505339200e-01
      -1.6425397444105169e-01 -4.2751218278199110e-01
      -2.6315673951677709e-01 -4.8419088563545248e-01
      -1.7755590854136960e-01 -1.3021019637791609e+00
      1.1765387615117933e+00 -1.4321179796360220e-01
      9.5176835727664655e-01 4.1602244441357933e-02
      3.9281946222113312e-01 -7.0291166630626567e-02
      -1.9141014587450683e-01 4.2029097508756652e-01
      2.7263890546818764e-01 -2.5900960563233599e-01
      1.8693757165444461e-01 -8.9614023683321109e-02
      1.2250476693435969e-01 1.2292602426281776e+00
      1.5334559832647029e-01 -1.3975280182618366e-01
      2.4995207167821620e-01 -5.2172257383284837e-01
      2.2821022605527377e-01 6.2233643683002637e-01
      1.6404192600949674e-01 1.0469270200866521e-01
      -2.5152950758358367e-01 -1.0783710390774948e-01
      -1.2383787251866571e-01 -4.2575264374601712e-01
      1.1316725905245295e-01 3.1356039720064099e-01
      -1.3813309251759451e-01 -3.0939558150477708e-01
      1.6229070265497125e-01 1.1881530786898427e-01
      4.3071872254037757e-01 -2.0779088920586611e-01
      -7.4565276093388400e-01 5.1805612149242908e-01
      -1.9533317093407129e-01 -2.2875356030640154e-01
      7.7640283826468126e-01 1.0080812949849078e+00
      1.2574399748823692e-01 -1.3461327871786213e-01
      2.0734213071416008e+00 -3.2763729532848451e-01
      -2.7416737115907835e-01 -1.9476550215952249e-01
      -1.2645934516399099e-01 6.2589465112826703e-01
      4.5471483456329520e-01 -9.6501575335746748e-01
      -3.6632827217366293e-01 1.7838292476173676e-01
      -1.3623817170872747e+00 6.1920588579560627e-02
      6.5204930267648997e-01 4.8496673592643075e-01
      -3.9239346706083783e-01 1.6341304129987277e-01
      1.5672652344908444e-01 -1.3178168309192673e-01
      -5.7434590137294916e-01 7.4286700429516017e-01
      6.5338882465829207e-01 7.6502670527274289e-02
      1.0950993391146448e-01 -8.7009867738050028e-01
      8.5703446479203016e-01 -2.1808455058770601e-01
      -2.8978588910231712e-01 -3.0997231565608896e-01
      -1.2814756348478890e-02 4.5443060733907453e-01
      3.7825007984989029e-01 -4.1915177062297548e-01
      -3.2920967888295521e-01 -2.5785101467481258e-01
      -4.1326356079607812e-01 -5.8528400163130534e-01
      2.6392631710897069e-01 3.4489824843214304e-03
      3.5530787612541082e-03 1.0396367194254090e+00
      2.0602222373534685e-03 2.4859546636114457e-01
      -2.9916198030835900e-01 5.6647424233927801e-01
      7.8465293232782363e-01 1.2650603567354171e-01
      -1.4577230711577197e-01 -5.9996185781277178e-01
      1.3441972596909496e-01 -4.1874131971242479e-01
      1.0150500471342854e+00 -5.3990403047561186e-01
      8.7014230727674152e-03 -1.4640796839496431e-01
      7.2106969195863457e-01 3.6360678586975809e-01
      -6.9846205126491245e-01 6.2879958382522105e-01
      1.7466679891357456e-01 -3.3944691064168692e-01
      4.3469071703510519e-02 -5.5541550484902202e-01
      -6.6277441001604195e-02 -2.4398374544081181e-01
      1.7539135497834861e+00 1.2663562294345893e-01
      -1.5424596390703341e-01 -1.5664553223964116e-02
      -1.4862419468182136e-01 9.1108209227233089e-02
      1.3605750617187168e-01 -4.3749542567495253e-01
      2.2620157549950234e-01 1.7538814068376332e-01
      -1.8554697731817105e+00 -4.6463289236070993e-01
      1.0729120347656189e-01 5.8947362850652940e-01
      -6.3873924094381626e-02 6.1841297818492347e-03
      -4.9398211398718217e-01 -3.2396528269962299e-01
      -8.5836651145318299e-02 -4.7652109336961844e-03
      3.0436694805286929e-01 1.2013464705223242e+00
      -6.0235527666127456e-02 -1.2373696707460133e-01
      1.2408751337893569e+00 -8.7466823405850241e-02
      8.9624542371521745e-02 -7.1494287598623285e-01
      1.9277089952858709e-01 4.0452927061932341e-02
      4.4792830350405627e-02 1.5845931128081731e-01
      4.9515074431737571e-01 -1.8308508515204208e-01
      -4.4648493119173188e-01 -2.5766140785777980e-01
      5.7168417243947986e-02 1.9750620900068086e-02
      1.6849997584772639e-01 3.1922705331399531e-01
      -2.2389326216663502e-01 4.4862488781555604e-02
      -7.8132115199863383e-01 2.5552998171704877e-01
      -1.4100599715767165e-01 2.7936191351395284e-01
      -1.3489620284703346e-01 -4.5872050494842914e-01
      -1.3547000313102409e-01 -2.3150180867871892e-01
      8.8949882148860196e-02 -1.2651261803062103e-01
      -4.5829141686566666e-01 -1.0185942276935026e-01
      -1.5590893644510223e-01 -1.3637866487338449e-01
      2.4809333540969103e-01 5.0734653929887696e-01
      1.7831274416326520e-01 -4.7823064465139425e-02
      -2.7828533907724240e-01 6.4788462048593953e-02
      8.9010621688410910e-02 -4.7045797831400765e-01
      5.5721982250110724e-01 1.6233251366744070e-01
      4.9861381911156871e-01 1.6183839897243866e+00
      -7.2722988554161552e-02 -2.9734928849606101e-01
      2.7612315303811075e-01 -2.6066956302569577e-01
      1.2420791881468064e-01 -6.7172174041591570e-01
      -3.6637361770348620e-01 -8.1175307091457949e-01
      3.1985336744422826e-01 -2.4437419216424300e-01
      3.1386571349590930e-01 6.7721520343010488e-01
      -3.6671384418575209e-01 1.1236235750190883e-01
      2.7861236031063163e-01 1.7903494205286150e-01
      -5.9561781721929352e-01 2.2705840273585162e-01
      -3.6569101644607860e-01 -4.0017447075936310e-02
      2.9392577199453018e-01 4.8291765701697054e-01
      -5.4438872294199836e-01 -5.2990658445729288e-01
      -6.5635593757877853e-01 7.6615716031975881e-02
      4.9315063896120359e-01 1.2628349843728978e-01
      6.0577013088616027e-01 -1.5822524127212450e-02
      1.1992390696763539e-01 5.2022852070722314e-01
      4.0797854557850814e-03 -1.1187959016420232e+00
      2.0469188401196842e-01 3.7836715750346311e-01
      -1.2988648137737699e-01 -8.1679514194960209e-02
      9.7350837113945307e-02 4.3014590180579015e-01
      3.9585578509329977e-01 3.4359829206700404e-01
      -8.3247401091307272e-01 -4.5083731812676398e-01
      2.3487743357951349e-01 -2.7538165419786464e-01
      1.4605173830045501e-01 3.4284295240897622e-01
      -5.8826958700569432e-01 -1.7067063197354684e-01
      2.9992222948259312e-01 -3.5214315418720571e-01
      -1.4754612178121573e-01 -5.1137494519835645e-02
      -4.4941476226960056e-02 -2.6977824710930848e-01
      2.0602195283040251e-02 5.0718234299518061e-01
      2.8627629965945600e-01 -1.6903487321233265e-01
      1.1029094110537053e-02 9.7093423641147286e-02
      2.2056383591872267e-01 1.6287902061135000e+00
      -6.8838938109471212e-02 -1.9142153060862044e-01
      -3.2335039514370167e-01 -5.5172895964326077e-02
      -1.9613947605171436e-01 -8.1272766404283259e-01
      -8.2779218914792951e-01 -8.2791424861908558e-01
      2.5487655645387891e-01 -5.3475327598624556e-01
      6.5286857475256665e-01 2.8507031998355709e-01
      -4.7705613602615116e-01 1.3563845598979579e-01
      -6.3578898636200377e-03 -7.6887311656943236e-03
      3.1054494310586001e-01 -3.8595786836966339e-01
      -2.4960559489623518e-01 4.6345848115520483e-01
      -1.6310952836304016e-01 8.3521640107530146e-02
      -8.2215658651362419e-02 -2.2372551529946791e-01
      -7.7718952761158122e-01 2.4383333440147103e-02
      4.8864899256180272e-01 8.3521397534262784e-02
      1.0517022261709355e+00 -2.4177252943932434e-01
      -3.6700325047067633e-02 9.1298534152988164e-01
      -2.6477937343164341e-02 -6.4816811327843193e-01
      7.6124095232492237e-02 5.0078492055209922e-01
      -4.4350530685735315e-02 -3.0460972830027421e-03
      3.0903019822084189e-02 3.8469932149325264e-01
      3.5375010348872349e-01 3.4786762402381383e-01
      -6.8987947173123010e-01 -1.9510311784395779e-01
      6.0040346950672074e-01 -3.5203072955477632e-01
      -1.4966006583030207e+00 4.0699292442086582e-01
      -1.9020179970701900e-01 -1.8825242829380653e-01
      -3.0753363809060480e-01 7.1274003697843272e-02
      -5.5551781904604869e-01 2.1544161509460144e-01
      -2.8547879282214861e-01 -7.1419124974041137e-01
      -4.0990991130206211e-01 -3.3385136437045698e-01
      2.3452351362361668e-01 -4.9978648576723111e-01
      1.1515809039297414e-01 2.3337521501496467e-01
      -3.3526874712620884e-02 7.0759865309271852e-01
      2.4762422856143187e-02 5.6478849758792270e-02
      -1.7805255250541333e-01 4.3481947465850068e-01
      -5.2970221067188972e-01 4.9146122364316758e-01
      -2.5016462833099867e-01 5.3257620253521709e-01
      1.6075577742175667e-01 4.6144522117099390e-01
      2.8786279452338409e-01 -1.0054571906692660e-02
      4.2796599778887440e-01 2.2455723904459474e-01
      -1.5330757735430919e-01 5.2399672638420930e-03
      -6.0960351709215099e-01 -1.3257641973839202e-01
      4.2280819806468878e-01 -3.8554521125444961e-02
      -2.8679769617049725e-02 -5.0252455944027996e-01
      -3.0599713295824371e-01 -1.5626526707134722e-01
      -4.4393061758014751e-01 5.2526623476356104e-03
      1.3570231389198645e-01 1.3823315726384222e-01
      1.2894640467595682e+00 1.7072461367416969e-01
      3.2211659054435637e-01 1.5094345164576495e-01
      7.9088125543550311e-02 -3.2620138090385148e-01
      -1.8134190010091525e-01 1.0873075710247501e-02
      -5.4065592233607396e-01 -3.3457379172652540e-01
      6.0701293199806983e-01 -9.2165187618219457e-02
      -4.2252479524907516e-01 -6.5566774881425302e-02
      -4.5734192570695736e-01 2.2169250063020485e-01
      3.6881220648217244e-01 -9.0673613368905670e-02
      -2.8067811421743660e-01 -3.1438484327821069e-03
      4.4752518509901834e-02 6.6790187400957457e-01
      6.7343980819098218e-02 7.8320895921443134e-01
      -1.3881719489413131e+00 -3.5071911067026307e-01
      -2.2639613842756207e-01 2.9684490688959569e-01
      -7.5451471362221550e-02 -2.4355078610070921e-01
      1.3314615257628978e-01 -4.3225414382195332e-01
      3.8390934718402442e-01 -6.0863947729124257e-01
      2.9645559376964792e-01 -1.3550703617886872e-01
      -2.3419371786755672e-01 3.1102856487165742e-01
      1.0007404274956336e-01 -7.1130830495314157e-02
      5.4614975467942384e-01 5.0444850518691930e-01
      -4.0047010067419692e-01 -7.9754717445144174e-02
      2.5609866079008176e-01 7.4810425461566549e-02
      -8.8691232000774306e-02 2.3428265048558497e-01
      -2.3318754031527389e-01 -3.7498307566546263e-01
      -5.7545173987977871e-01 3.9171735378964434e-01
      8.8495646915077275e-02 -8.0143972274241571e-01
      6.5315379406014540e-01 6.5550797862505145e-02
      -3.0999433282684036e-01 -2.3996223133563174e-01
      -7.0064752879181091e-01 3.6598918053500745e-01
      1.6769203929454782e-01 3.1711042894607039e-01
      7.8433251429174372e-02 -1.5569704087048686e-01
      7.0110260761035892e-01 -6.2873341810497335e-02
      9.0251382928311322e-02 5.7454596016746562e-01
      2.9714392488474001e-01 -2.7104524346573722e-01
      -1.8557346509183142e-01 -1.6544706281056462e-01
      -1.4818411053156899e-01 -9.2744731860354024e-01
      -5.9763795035457545e-01 -2.6765649195402419e-01
      5.6194302423629527e-01 3.0343471068639036e-02
      -4.2000130336915154e-01 2.6993022714104743e-02
      -1.6881266720299751e-01 -5.0495865295201767e-02
      -3.7024205795248333e-01 1.0824455422519162e-01
      -2.1475128383154349e-01 1.7561804187258692e-01
      -3.8384404286929674e-01 -1.3875009865457080e-01
      -2.1965787036347634e-01 1.5913104093411637e-01
      -1.3359346257132385e-01 1.7476141734061396e-01
      -2.9602571079727052e-01 2.5236852687915695e-01
      -4.6661150006205881e-02 -1.4380606241259161e-01
      -1.0154303744729283e+00 3.3327057812379934e-01
      -2.0354199609379134e-01 -6.3225183013500396e-03
      -3.4652702153005838e-01 2.9453453669004280e-02
      -9.7903161202818667e-02 -6.8067144878264418e-01
      5.3393945261103861e-03 6.2349241350698081e-02
      -3.8319165911877051e-01 -8.7033973568123271e-02
      1.8123438664189567e-01 5.5279441195537360e-01
      5.9042978179904206e-02 3.4352427048024603e-01
      -8.4817243613036202e-03 -4.8908084313764345e-02
      3.8471776938200625e-01 -2.0414912267891380e-01
      -2.5236720309451016e-01 -7.2300590482722049e-01
      -2.2642261857282089e-01 -2.7734859172502635e-01
      -1.7628774196751024e-01 -9.1587554166512131e-01
      -7.6004928544255623e-01 -2.3813909384458429e-01
      1.3251253806886840e-01 1.5009314023431508e-01
      -3.1926988209121621e-01 -5.5060843501069023e-01
      4.7882908164869648e-02 -7.6324392806284269e-01
      4.2133047538983287e-01 2.4164766552132472e-01
      2.5631231844097058e-01 -3.4627785581034243e-01
      -5.8587572945186006e-01 -5.6623047425264983e-01
      1.4693476309987665e+00 2.0251487436256799e-01
      -4.3862645157060492e-01 -2.4990344933595579e-01
      -3.0665235140497094e-01 7.2608728079467144e-01
      -1.0872707619936425e-01 1.1525600422391360e+00
      3.1603218395603934e-02 2.6665023171507157e-01
      2.1178966316327433e-01 -2.4698000775112885e-03
      -4.1390339625113814e-01 2.8101531703864879e-01
      -8.6573585356395988e-01 3.0770757780360114e-01
      -2.1381169220005689e-01 4.6899413167431397e-01
      3.7267817499085719e-02 7.1884584392573481e-01
      3.0543963770182558e-01 2.4864537156151917e-01
      -4.3219233248966305e-03 3.7568059135052823e-01
      -3.2186892896768232e-01 -7.5521232439773645e-01
      -7.1919874439421982e-01 -3.2060522429461247e-01
      1.3891030653697357e-02 -3.0107778866194496e-01
      -5.8730017529583090e-01 6.1275304516560061e-02
      -5.5211338396491472e-01 7.4781184097724288e-02
      5.4228157320709425e-01 -2.4513663410008352e-01
      4.9768295468365159e-01 -2.9557237114913687e-01
      -1.0986880426613506e+00 3.0982358853990272e-01
      2.1058603260705550e-01 -1.0362063180062625e-01
      -2.0666130003843469e-01 1.4950361442104884e-01
      -1.5040120922422437e+00 -7.2220004758144551e-01
      1.4513214468177389e+00 -6.8869324620373082e-02
      3.7579987624134600e-02 -9.1512677704949541e-01
      -1.6880070545903647e-01 2.5915433769920271e-01
      6.2158867108770242e-02 3.8391715745684002e-01
      3.6962375213736874e-02 -8.9503683803363931e-02
      -1.3629516295117688e-01 7.0315454066926603e-02
      3.7491172997045119e-01 8.8757608026951873e-01
      3.0156372245812008e-01 -1.2413089706836139e-01
      -2.2826238258858575e-01 8.2005756419024661e-02
      -5.3881786599335546e-01 1.0189058704632268e-02
      -5.5215208703935405e-02 1.6893145392567213e-01
      -3.5723519124957004e-01 1.9876145844876120e-01
      -1.6174970090288318e-01 1.9434028719687486e+00
      -2.0988492546113866e-01 -5.3800500409475198e-02
      3.5916552673666230e-01 7.6546834237300687e-02
      -4.6204463828412223e-01 4.4664831744101807e-01
      8.6093050800327942e-01 -9.2848002796218094e-04
      -2.5776360764042527e-01 9.9509479368816789e-01
      1.2315383706310513e-01 -3.1441720743732422e-02
      -1.0574637111781211e-02 1.6012518222373792e-01
      -4.2468367588531414e-01 -2.4388050740153953e-02
      -1.5780733208963527e-01 -4.8851509009304500e-01
      -2.9070953452175596e-01 -1.1985271890342848e-01
      1.8016234800693753e-01 2.1994212842730464e-02
      -1.7013399515645670e-02 -1.0505687385865568e-01
      -1.5169250129625475e-01 2.8331543264039166e-01
      3.5242727979973376e-01 2.7333500579057790e-01
      1.0208487446082314e-01 1.2496998570664994e-01
      -3.4737113290446583e-02 3.4266921131470374e-01
      -4.4269961472737240e-01 6.0662206909969565e-03
      -7.1516787662881387e-02 2.3193139458282133e-01
      3.7131390683357432e-03 9.4110847328815000e-02
      1.3414089644458579e-02 -6.3059707038714594e-02
      1.7368226081839302e-01 -1.4466165176900031e-01
      -7.3515030306152709e-02 -5.0788780200319079e-02
      -4.2339238020665981e-01 1.2134885083532961e-01
      1.9624928593150348e-01 1.0075065321138180e-01
      7.1831613541277273e-01 -1.5077534207168691e-01
      1.9088938941038366e-01 4.0374435402492681e-01
      -1.3712529471338936e-01 7.6809003689030011e-03
      3.1578888219658072e-03 1.0786571902735729e+00
      -8.2509434331262332e-01 -5.3963405648209941e-03
      -1.0308300396654502e+00 6.3010207807117722e-03
      -6.9034683149379761e-03 -1.3832291725459001e-01
      -9.8537252798017907e-02 2.9797083572008642e-01
      -2.6733418405794951e-01 3.5131745287205390e-02
      -2.9495250781841331e-01 -5.8343570817953716e-01
      -7.8256790916905050e-01 -1.6525769789738961e-02
      1.1700264733287353e+00 4.3009007621888209e-02
      2.9200912197525947e-01 1.0527360163646834e-01
      -1.0981087473791556e-01 3.9262763604312556e-01
      2.1511583044429985e-01 -4.0924377030109271e-01
      -2.9841053222029634e-01 -1.5260495482406994e-01
      8.5498539869979662e-01 -6.4978085006687691e-01
      2.5868869647972476e-01 8.5083369941350309e-02
      -6.4559094329786904e-02 2.9125218165847788e-01
      -6.0301179893355289e-02 1.2078172950628585e-01
      -2.7783946019433292e-01 8.7307081385747132e-01
      -8.2905412798758160e-01 -2.5763655664103595e-02
      -7.5746171457110141e-03 -4.5741633645274241e-02
      1.6331379016923261e-01 7.5989443015287192e-02
      -3.8603284552594919e-01 -7.4047702894523171e-02
      -4.1486233234602676e-01 -2.2548439058178510e-01
      -6.5672187724288358e-02 -1.4590903452479894e-02
      -3.0640247206206972e-01 1.8083089689743852e-02
      3.9407290345232421e-01 2.0355166094259108e-04
      -1.3942302412576146e-01 -7.4366388627925339e-01
      4.8717946208031083e-02 4.1181773665815970e-02
      1.4986470955504178e-01 2.4540741859605428e-01
      -2.9554397306831692e-01 -4.0364089949584320e-01
      -2.4980023840685253e-01 -1.4963018317897278e-01
      3.5916270473519540e-03 1.6362920975434558e-01
      4.0737080014230570e-01 6.4113922963538694e-01
      -3.1768854017845383e-01 -9.6862092836612929e-02
      -4.9561615982133034e-01 1.0403182782772723e-01
      -1.5634048276677395e-01 -4.4431913181524318e-01
      9.4570841080556578e-02 -8.5166746009471481e-02
      -3.7535806886414294e-02 -3.4278392005590068e-02
      -2.3247526333113864e-02 5.4142632964215426e-02
      -6.0947533532059217e-01 -2.1943090094562615e-01
      4.5898452876770524e-01 -2.4938134920497054e-01
      1.3796630157580536e-01 5.8939168873425409e-02
      -1.2692099108040023e-01 -7.8663539068144939e-02
      -2.3529924550416201e-01 6.7944561741666898e-01
      -3.3530922505871291e-01 -2.0542712662842524e-01
      4.3015923840007120e-01 -1.4152722794862974e-02
      3.8923404556157601e-02 7.8192351862610546e-02
      -2.3007123168818114e-01 2.9725652331485475e-01
      -1.5447606309222603e-01 -7.5555854297704408e-02
      3.0598192172475808e-01 -6.9710204757632621e-01
      -3.2232342679797948e-01 -4.2212635504551510e-02
      2.8293469039269631e-01 -2.0452494766719187e-01
      7.9750669919661987e-01 -4.1830743206143058e-02
      -2.6625259128695383e-01 -5.7179293501506051e-02
      3.9297397119465214e+00 2.8404003256876820e-01
      -1.3576024114547136e-01 2.7600262229974687e-01
      -1.8052097909035161e-01 -1.7243861390718690e-01
      1.0155055021066033e-01 -7.8660924189607309e-02
      -1.3975296815980762e-01 -4.8834525982616853e-02
      -8.3420061185548666e-01 -1.7894030162111879e-01
      -8.7668645475490817e-02 3.0258578576030534e-02
      -2.2520098802234222e-02 9.9230698687034158e-02
      -2.9759037186054355e-01 2.0771918830460495e-01
      -1.8554877277169515e-01 -1.6851559152494527e-01
      3.3150532703447799e-01 -2.1835574186339071e-01
      -2.8966845302524574e-01 -3.7240440595621628e-02
      5.6162189752641789e-01 -2.8061180103968542e-01
      -4.2867320386687008e-01 4.8273553080733683e-01
      4.6481701075209592e-01 -1.1665712709928375e-02
      4.1210623886792697e-01 -1.9274475016265100e-01
      6.1225005102960139e-01 1.5736543126785349e-01
      -6.8322337144845213e-01 -2.6884142773759090e-01
      -2.9313757202952428e-01 -3.4600369513802892e-01
      -3.3210066782021021e-02 5.4553632883739578e-01
      1.3601920160720868e-01 -2.4917826562375012e-01
      9.2821442509501917e-02 5.1930123685221705e+00
      2.9788605149175102e-02 -4.8314109702552432e-01
      -1.7568524864620674e-01 4.3062126052591376e-01
      -2.4571401165572271e-01 1.8288729434798306e-01
      9.5770418094068999e-02 2.7187630089590942e-01
      8.0437919219475656e-02 -3.2980633702231443e-01
      2.9823650266024307e-02 3.0282867080032722e-01
      -3.4380520738832787e-01 4.3464693813914802e-02
      1.0451044849704338e+00 -1.5300797689518331e-01
      4.2562341765116513e-01 3.5632949361816113e-01
      -1.4804655291325899e-01 -2.2316088642300093e-02
      1.8067347887803538e+00 1.1409400056311644e-01
      -4.3194294924805637e-01 -1.8357862234552991e-01
      -1.4961187690085598e-01 4.6018075552763144e-01
      5.3345935234050429e-02 4.0101173743966205e-02
      -4.4555304698039748e-02 -1.4773084033571948e-01
      1.8110428001548501e-01 -5.0510947902770664e-02
      1.9149339609970898e-02 2.8640469082921527e-01
      1.5541245476006813e+00 -7.3819269837532994e-02
      -3.8101097661064143e-01 2.9417536591367383e-01
      -2.2499444001588750e-01 1.4999146011195194e-01
      3.0679512712934864e-01 -4.7058306492769292e-02
      -2.5381880630785369e-01 1.4855217904499265e-01
      2.3379606424771299e-01 -3.1096440079539350e-01
      3.5627748409890631e-01 -1.4530879561017843e-01
      -2.7854982922992205e-01 1.0846689735488363e-01
      1.3239023596122753e-02 -2.1827109403463835e-01
      -4.2686529472463258e-01 9.2294663705406774e-02
      -4.5046670765370345e-01 2.5220141708290256e-01
      -5.4983952817855042e-01 -1.2828226069346636e-02
      1.1152503773599250e-01 -5.8232369085515823e-01
      -3.5339792233130340e-01 -2.3005645062328334e-01
      4.9601021852520591e-02 1.3687390241683735e+00
      2.1515688352905783e-02 -1.4424289633569218e-01
      3.5188936264188293e-02 -9.5689281908427321e-02
      -2.2085072293425018e-01 -5.7107360382163005e-02
      -8.1099224550928023e-02 -6.8562272409377609e-02
      2.5508433522740565e-01 -2.2708174645955195e-01
      -1.5298752338076524e-01 7.0315376589311174e-01
      8.3658796796146140e-01 2.8112035979783201e-01
      -1.7884508686408285e-02 -3.1416244981938574e-01
      2.1853916143497296e-01 2.0222000936977405e-01
      -2.3162341958212551e-01 -3.0353775306449093e-01
      -9.1115135452697837e-01 3.1470122324573868e-01
      -4.0728525041455521e-01 -3.5154613554632091e-01
      5.0496893710234836e-01 -2.2064103969732812e-01
      -1.6132830120001701e-01 -8.9106421882882800e-02
      -9.0848570900642300e-01 -2.0168302946113009e-01
      -5.5065654508575412e-01 9.8612762209347921e-02
      1.8566209074812948e-01 2.4127512651451336e-01
      1.5457585705069552e+00 -2.5505241770421534e-02
      2.1362955278519585e-01 5.5208084056181683e-01
      -2.5204575690200869e-02 1.7549791173758905e-01
      -2.7366317641065807e-01 1.0576475044652339e-01
      2.8840794855775742e-01 1.5008376649484731e-01
      4.0900547758967709e-01 1.8513979614634513e-01
      -1.0348120098730629e+00 -4.4694352783248414e-01
      -4.5787486616832890e-01 1.1355732696208656e+00
      3.1910569981673903e-01 -1.9192316365719272e-01
      -7.7569800993657501e-01 -7.1642122663151276e-03
      7.3930799039541487e-02 7.0761047494324247e-01
      -4.4003685763884443e-02 2.6519739092937877e-01
      2.2915633761802362e-01 -2.2100806702931269e-01
      -3.0789556281981745e-01 2.1734485277277829e-01
      7.5008170513936739e-02 3.5385261062853351e-01
      3.1405652121280110e-02 -3.4262286819626320e-01
      -2.0664858709329948e-03 -3.4816584719661042e-01
      1.9333236798687226e-01 8.4812708877084531e-02
      -1.9073726246899375e-01 -2.8295569075108568e-01
      1.5969092806411289e-01 -2.2884746248086577e-01
      1.7750377779428819e-01 4.4548638067779228e-02
      3.5045335666995853e-01 -1.1913433932673027e-01
      6.4641000059226827e-01 -1.6247333777823761e-01
      -7.0768859859199035e-02 3.4735372046629347e-02
      2.0705000099043050e-01 -5.4584704181475896e-01
      -5.9035391382547042e-01 3.4561491194651867e-01
      4.5843782552393203e-01 6.7346321806658352e-02
      4.0531553309369223e-01 2.8758047017876637e-01
      -2.4489558247328785e-01 -2.7644703576770985e-01
      -1.3648894225265554e-01 1.2032918509881252e-01
      5.2150592038970177e-02 4.3041327195884882e-02
      2.7844166756094239e-02 -1.3036003671896210e-01
      4.8710899644230116e-01 1.7069307867506234e-01
      7.0791001532068099e-01 2.1859492232249422e-01
      3.1898140704325695e-01 1.0658872892085300e-02
      -3.2109151917739565e-01 -1.7927259308980503e-01
      -3.1232473410245820e-01 -5.7082866440884883e-01
      -2.6284256254704957e-01 -1.7326097853658820e-01
      -7.2879374867806135e-01 1.3697135540724151e-01
      6.6721853793372338e-02 2.8237594575663071e-02
      3.7077560168555251e-01 9.0738388474455561e-02
      -4.8269315550387204e-01 3.7434424183922663e-02
      -4.3523228811428732e-01 -4.5664623207911936e-01
      7.0613477379081163e-02 4.5347256041455342e-01
      4.5824402801751307e-01 -1.2313514069003408e-01
      1.3656021761564587e-02 3.3288768185686418e-01
      -2.2889305810873051e-01 6.4418432160553474e-01
      3.2189505033805216e-02 -1.1153650158122523e+00
      -3.0188084025253054e-01 4.4075703259166138e-01
      -1.9338882114852060e-01 -4.2043232145050929e-01
      -1.2104824029301693e-01 2.3505219959871404e-01
      -4.4145066477090994e-01 2.2051128953330729e-01
      2.6651012014990327e-01 -1.5662338409279489e-01
      -1.1544857689692976e+00 -1.8243318315178111e-01
      7.0040884216503263e-01 2.7087993357112466e-01
      2.9685962986941933e-01 -2.6083126866285694e-01
      2.1418918882405702e-01 3.9562230022836264e-01
      1.6181938619182970e-01 -5.9229034537546354e-01
      2.6553457125722474e-01 -6.7147871937607833e-03
      3.9276296282877854e-01 -4.5936812653834808e-01
      -1.1911629875663805e-01 -1.5127433311176952e-01
      -1.0841252014037520e-01 1.1995870549358406e-02
      1.1242709612376736e-01 3.7296722165276325e-01
      5.7637164883113867e-01 -5.1099025745016380e-01
      -9.5834489648819243e-02 -4.8109565408834315e-01
      4.9863425500877323e-01 -4.9490179200574941e-02
      -1.4010299501905343e-01 9.8584853554031168e-02
      -3.0259792239656799e-02 4.6941329344914229e-01
      5.7784126394626012e-01 -7.9314902170945056e-01
      -4.9747542950542512e-01 4.1132615571034864e-01
      -1.5432543215358983e+00 5.8159985524750275e-02
      1.4726268387477195e-01 4.3026005408627305e-01
      1.1560022716853459e-01 3.5041114694307718e-01
      2.0874610704106025e-01 -2.2998361994629551e-01
      -3.6825262004492587e-01 6.8308425804980155e-01
      5.0348256076183151e-01 3.3041529832725000e-02
      1.2070410105653358e-01 1.4178868453076079e-01
      -2.6402421957305255e-01 1.1573695637992856e+00
      6.0097287790560849e-01 1.7076338410711728e-02
      -7.6229692581384345e-01 9.4959729730198439e-01
      -7.9657924448971795e-01 -1.7444076414189055e-01
      8.0446974420251768e-02 -4.7961373765637742e-02
      -7.8617469726305622e-02 9.3755938948878778e-02
      -6.7962524438775609e-02 2.9037652563631011e-01
      2.7242222073486755e-01 -2.9227253807863840e-01
      -5.7313460052302562e-02 -3.6171204128321349e-01
      -4.6046237644011140e-01 5.1322419897423155e-01
      -4.6306535243830521e-01 8.0362518965395302e-01
      3.2848291009160840e-01 8.5537118956142300e-02
      7.1362757622866771e-02 1.2353930418732254e-01
      -4.8138781421579530e-01 -5.8457336160631013e-01
      2.6436394823607084e-01 1.9232076251455418e-01
      -3.4915522543395489e-01 -5.3705281520890036e-01
      -9.6575504981873242e-02 -3.5493307438255584e-01
      -1.3507757760766355e+00 6.5517817785828858e-01
      8.7134977551953000e-02 -2.7078843348431109e-01
      9.3711694769967990e-02 -5.9246270172078608e-01
      3.6379772119714665e-01 -1.7552931219003332e-01
      -1.2743514730232886e-01 1.8513712755386877e-01
      -8.3621654870973450e-02 8.1154470608098306e-01
      -5.0577507241767450e-01 -8.4798697215881547e-01
      -7.6475282072375395e-01 -4.3837510607231948e-02
      -8.9362048166393049e-01 -6.5598194252059372e-01
      -2.2619379120229360e-01 2.0758221803902082e+00
      -8.0564333281186229e-01 7.9861635126687053e-03
      1.4647585196886106e-01 -3.8739516446459599e-01
      -3.0501555737919495e-01 9.1402567181548211e-02
      1.1184677465605080e+00 -1.1220868269735705e-01
      5.9296314229912517e-01 8.3983759757623333e-01
      1.3732918961904261e-01 6.1334190873161165e-01
      -8.6846714172587394e-02 -3.0877042926289544e-01
      -9.1583061552022504e-02 4.4364743540599327e-01
      -5.4737929622817171e-02 -1.3704458897100689e+00
      1.0445721187873923e-01 -1.2138029142394782e-01
      -8.3965534142731890e-02 8.0893482300265152e-01
      -2.1758936959243813e-01 4.8143131605890022e-01
      -3.9192065082205335e-01 1.6581420969316440e-01
      6.7000277624548799e-01 2.2210929181557743e-01
      -9.4821261919017606e-03 6.3420092314084697e-01
      -6.3844355185564883e-01 4.8488872989980791e-01
      -1.8032261997702015e-01 1.0031581406064416e-01
      -5.5145569799790260e-02 1.9123677286046292e-01
      -6.1981247563918085e-01 -1.8552557397924258e-01
      8.2338577332213850e-02 4.2468348842040632e-01
      3.8410850754397186e-01 -1.0343693824032621e-01
      2.6134708927408312e-01 -6.3718556876064258e-01
      -4.3516039927331279e-01 2.5412803213044033e-01
      -2.7492372243305870e-02 8.3155427830481396e-02
      1.6843843459207095e-01 -7.6128709589330756e-01
      -2.6292212811329596e-01 -2.5845844783267313e-01
      8.8905761679264741e-02 2.0516067532682072e-01
      -1.0684148908672984e-01 1.9245290296099909e-01
      -3.1359479602558843e-01 -3.5715148975762823e-01
      -8.2652355055626914e-01 -9.0185943628396117e-02
      -1.1905850593092115e-01 -1.9123930280681642e-02
      -1.1268814704548730e-01 5.9593173418232481e-01
      -1.0965957203198559e-01 -1.1131869831512717e-01
      -4.9657784084103829e-01 3.4709562775131991e-01
      -4.1565358072088132e-01 -3.1359172628177119e-02
      4.2132312163331620e-01 -4.8918321241350794e-02
      -3.6433767136874035e-01 9.9635479011394812e-01
      -8.0657964088162407e-02 3.9900088375823012e-02
      -1.7920197853655379e-01 2.4180792983410582e-01
      -2.9972272220068608e-01 -5.0835739571165113e-02
      -1.7416411650288416e-01 -1.4638571845344162e+00
      4.6728777566033963e-01 -7.3610271969872493e-02
      -2.6786954808320371e-02 3.9251559788424828e-01
      -1.8296037507206411e-01 2.8915209281800757e-02
      -2.2319270218444262e-01 -4.5397909415918986e-01
      2.6273218405290399e-01 3.9481356932122469e-01
      -9.0830045747540125e-02 -6.6563750676337250e-03
      9.8241976217744151e-02 4.0115505010038000e-01
      -6.9033612773701503e-01 -7.4555283567354941e-02
      -9.4487350353396379e-02 4.2679180613155655e-02
      -1.9276869524889009e-01 1.3346063336060224e-01
      2.3805744808010484e-01 5.0968050447497104e-01
      3.2976767244222611e-02 2.6452795498170567e-01
      1.8051491207480078e-01 -5.0047269753307699e-01
      4.1751519436882684e-01 2.6676502916526895e-01
      -4.3019769761290749e-01 8.7928991118757599e-02
      -6.2018327816910701e-01 -2.8898126521774214e-01
      -3.6349003030673033e-01 2.2455160229723531e-01
      -1.0500595689532610e-01 8.8657794775045554e-02
      -1.3991242598766768e-01 1.8292182936491225e-01
      -5.4152431650461227e-02 -2.4976242289804351e-01
      -4.6536396723783202e-01 -1.8870776669096956e-01
      5.2228454852929584e-01 -9.2603227505520178e-02
      -5.0045413091747148e-02 4.1380034645272379e-01
      -3.5398675535426977e-01 1.8995168070587609e-01
      2.4827260642183097e-01 1.4139009981908193e-01
      -4.4083009023136310e-01 -8.1488865538636532e-02
      6.6044438667382921e-01 6.8400095455262794e-02
      -6.8554581600300457e-03 -4.3448658103498616e-01
      -1.3300098916506625e-01 -4.0042855877606032e-01
      -6.1872723709793749e-02 1.2266150835010528e-02
      -1.1688964395685307e-02 -4.8573431936549900e-02
      5.3017943028729575e-01 7.9182748842036021e-03
      1.4919952652847956e-01 2.2822061150774790e-02
      -1.7269806614364733e-01 -4.8272154718278754e-02
      -1.5017967049962380e-01 -3.6283444918818986e-01
      3.5804145046147463e-02 -3.0399875515784358e-01
      -2.7067241250998830e-01 -1.2864709192689930e-01
      1.6609488959252561e-01 2.0248749482769668e-01
      6.7281505544055098e-02 1.3084866160682243e-01
      -9.0252142800259560e-02 -5.3166422456176171e-02
      3.4007455169498779e-01 5.7743117549301864e-02
      -2.8794767499949675e-01 1.5293196286465394e-01
      4.3733143208451945e-02 4.3869094778184486e-01
      -2.1902625048176530e-01 3.7286531344611885e-02
      -3.5143638988676951e-01 -1.3673522334923199e-01
      -5.9557033699743400e-01 9.4178362535441304e-02
      2.4665354207005513e-01 1.3364120372914973e-01
      -4.9513567412665715e-01 1.7767137327120563e-01
      -6.1199792322786890e-02 -3.5732938004733816e-01
      -6.8191773935165944e-03 1.0981683124091546e-01
      2.9965553029643555e-01 -9.3743472842417325e-02
      -1.7787157853166846e-01 -2.9648073077544573e-01
      3.5440872499040404e-01 6.3047375407818199e-02
      -1.7154299169897766e-01 3.3327600074321156e-01
      -1.5877011982911460e-01 3.4922836541573749e-01
      1.9128393774565655e-01 -1.4931095578675518e-01
      9.8292995489417279e-01 1.6073685283628708e-01
      -5.2967997534603788e-02 -1.8959540630241739e-01
      4.2560935993765969e-01 -5.5405223843481655e-01
      1.9056707964450792e-01 -4.4058030279325977e-01
      -5.6861467455138925e-02 -1.8045808726708576e-01
      -2.0466346395987323e-01 7.2118606279529707e-01
      -4.8061699106283218e-02 -4.0717509465315799e-01
      3.2569255403822434e-01 3.2024968317651231e-01
      -4.3675809112658698e-01 -2.6705668708274527e-01
      -1.5562009839168831e-01 9.7950972121862934e-02
      4.1062762054917261e-02 -7.2265321641353061e-02
      6.1914548342585396e-01 -9.7553579378309840e-01
      1.8393881064012404e-02 2.2079315807674091e-01
      3.4867977019904128e-01 -1.6447489425195205e-03
      9.6304447703952939e-02 -1.5358895404078354e-03
      -5.9700469693786472e-02 2.6231978441776410e-01
      4.5716501366489265e-01 2.7016886101606313e-01
      -3.3177231584078554e-01 7.9146547211746576e-01
      9.4089447476469901e-01 6.5432907827394637e-01
      2.3902752731926913e-01 7.1284354171769301e-02
      -5.5897993316720540e-01 -6.4753092932858150e-02
      -1.3409511897667403e-01 -3.4865077360551756e-02
      1.1245641856024306e-01 2.5137636145049647e-01
      2.2240494949306955e-01 1.5202636870654365e-01
      -4.3740956495861766e-02 -1.1488676847885804e+00
      -5.7339144729591944e-02 3.9352183549969577e-01
      9.5893498607257238e-02 1.2162656013149019e-01
      9.5603840809941845e-02 1.1157684984040524e-01
      -4.1745793839151973e-02 -4.9467657520388703e-02
      -6.7207201547490059e-01 1.1362905293568448e-01
      5.1549377875359341e-02 4.1006650040194031e-01
      2.4340115738922213e-01 -1.9714994704667413e-01
      -7.4495387851821349e-01 3.2651464082011007e-02
      -1.9768866285197628e-01 1.0878922904978629e-01
      4.9914637848262489e-01 -3.0392460450870412e-01
      5.3334398605408388e-02 -1.1973963590895559e-01
      5.0893299679572838e-02 -2.5962710640653580e-01
      -4.3514617438213304e-02 4.3403394046177285e-01
      3.7913770670442654e-01 -2.1702573266797318e-01
      -1.7973566641827804e-01 1.3747869738747392e-01
      -2.0686699389067043e-01 -1.7024893447441447e-01
      -2.9372779308943758e-01 3.7163616085993534e-01
      -1.8164409596322581e-01 4.2197272046367029e-02
      7.0270965065303903e-01 6.2578634292328539e-01
      -4.4654223850037117e-01 2.2381631727257992e-01
      4.7343370226816794e-01 -4.3614964388195393e-01
      -4.8225113506872730e-01 1.5180195064141622e-01
      5.2110130745144878e-01 -3.2937344902780835e-01
      1.6712061315255089e-01 -1.0849814428884355e-01
      -4.0807697503655932e-01 3.7647206382286730e-01
      7.3250348943316934e-01 5.0993423264647941e-01
      9.6252050255921295e-01 6.5080035824600602e-01
      4.0508196464920244e-02 -3.7090649243095736e-01
      -7.1843380934913681e-01 8.5809692683743055e-02
      1.2747295795632169e-01 -2.8521591776009531e-01
      3.1345130262280124e-01 1.0532651257035529e-01
      -2.8686225347756272e-01 -4.4886811313085057e-01
      4.1905283141054607e-02 4.4501055373129950e-01
      2.3768563633034132e-01 7.6549652993783421e-03
      -4.3347899303260239e-02 1.2370778421295781e-03
      3.1622668042399765e-01 4.1857891997149393e-01
      -1.4181635830843451e+00 -3.7803420550382583e-01
      8.8177835880405647e-02 3.4579176986597920e-01
      8.6379916324546469e-01 -7.6682086336437624e-02
      -1.3898845852178419e+00 -2.7400860427292029e-01
      -1.0381995349877672e-01 2.0992050577984617e-01
      8.3505477569926245e-01 3.2384287362366543e-01
      -2.9553942825240626e-01 -4.9290526835515863e-01
      -1.8042043831493462e-01 -2.4554907194271702e-01
      -3.5663325103264837e-02 3.6656532488793320e-01
      1.5569615076590951e-01 -1.7623409518233296e-01
      3.4750671311580827e-01 1.9517351381987330e-01
      4.4327681071200283e-02 -3.4260858095443303e-01
      -1.5675502512170822e-01 3.4169806939283165e-01
      1.3837201679000569e-01 -9.5618875962856842e-01
      1.2985652836159369e+00 -5.6706756800355612e-02
      1.0832372783772502e-01 5.5067833484731245e-02
      7.2602972899136908e-01 -1.3428108097800956e-01
      -2.5110800878073474e-02 9.0653195661835294e-03
      -7.1110980837944593e-01 4.2709038685026623e-01
      -2.4585343872623230e-01 -2.6246432631708139e-01
      2.8918100460048562e-01 -3.4094302815387129e-01
      4.9513888532349132e-01 -8.4901653042614628e-02
      5.9389949323452401e-02 7.2928840178326182e-02
      1.6797670705147722e-02 -8.6422465447289909e-01
      -2.6840098508762655e-01 2.8407551262336567e-01
      1.2084735203199157e-01 3.6079511500135408e-01
      -4.7275641099453014e-01 1.4048526693047442e-01
      -9.7688600137868384e-02 -5.2027495629072573e-01
      7.1753240404651447e-02 6.6960111474267822e-02
      9.8858324277763851e-02 3.5371592876252508e-02
      -3.3752428172576593e-02 9.7701354583628122e-02
      1.1657539609593302e-01 1.6473746081329824e-01
      -1.6824403914313586e+00 -1.6913875220494376e-01
      -1.9239183675200673e-02 1.4892103524348015e-02
      -4.2964290563340524e-01 1.3621981022691501e-01
      -6.5163929138247728e-02 -2.5372570641646852e-01
      -5.1866123960663646e-01 -1.9229821449629925e-01
      2.1202198249221551e+00 -1.6120670878808127e-01
      -1.3050181036265435e-01 -1.4997749152827922e-01
      3.3088754593503189e-01 3.3433487765957892e-01
      -1.1393942572515854e-01 4.8989836739556736e-01
      -4.0812176130224065e-01 -3.7872823192749039e-01
      -9.0371309070471184e-01 5.2840427114111732e-01
      -1.4094047409711541e-01 1.5161880980084218e-02
      -9.7727725238870217e-02 3.8842672359887842e-01
      -4.4960254676760174e-02 -1.1846032765145034e+00
      1.3221938500255717e+00 2.2580129214921107e-01
      3.8981826766226685e-01 -7.6185623329847041e-01
      1.6555896284434968e-01 -7.1853375722706481e-01
      -6.3786689749080272e-01 -7.8969104748813890e-01
      -5.2619695739226202e-01 5.9002520740044662e-01
      5.1548271787576927e-01 5.1037371836871537e-01
      -2.1721245921608127e-02 -3.8452950924093054e-01
      1.7182658263303380e-01 -4.2606888152324407e-01
      2.6336709352976684e-01 4.2039480355184206e-01
      -5.6945949855126535e-02 6.6396588389790553e-02
      -9.9593169163300188e-01 1.7123846173734808e-01
      4.7787132025893514e-01 3.1256752219031642e-01
      2.9838775178912154e-02 -1.2453706928515241e-02
      -5.3557740081504668e-01 -1.9848874283438839e-01
      -1.2722721528171024e-01 1.7173045315891364e-03
      2.1985015834895100e-01 1.4686613390654787e-01
      3.3101197415073697e-01 -1.3559069796332195e+00
      3.2903375480376751e-02 1.8532238905050138e-01
      -8.0906516948981155e-01 2.3969347389187801e-01
      -1.3888105274776913e-01 3.9169665358503419e-01
      -2.2476742720170548e-01 -9.4016067247358198e-02
      8.1231786135893450e-02 1.7600859708686970e-02
      1.3006270061823463e-02 -1.6481435885999576e-01
      2.3736754100245014e-01 -7.2192395298335887e-01
      2.0764708796858464e-02 5.3723493286463309e-01
      -4.7794541577436706e-01 1.5318276208409848e-01
      -2.8202222553705797e-01 5.3094164288618531e-03
      -5.0681956236569847e-01 3.2124097133813262e-01
      -1.1564225483991870e-01 8.3418163132384593e-01
      -1.7821950970255546e-01 1.2505161748076890e-01
      1.2080791381863581e-01 5.5605832010171119e-01
      3.7780878735047968e-01 2.9381482302137077e-03
      1.6927706755893952e+00 3.1752965429157026e-01
      5.9442993624205198e-01 2.5347107363095694e-01
      -1.6737161417716870e-01 -1.8505996115465992e+00
      -2.6427597546375980e-01 -1.8651194608041546e-01
      7.0317954487380696e-01 8.5880180623485813e-01
      3.7974635559066425e-02 -4.8511446778039718e-01
      -4.8356561641608031e-01 8.3175638018138889e-02
      -4.5428338808578222e-01 -1.0242918163529791e+00
      2.9012099749789294e-01 4.1019030022615077e-01
      -4.0812832020027029e-01 -2.0968973710447306e-01
      -3.3870311474218989e-01 1.3736940388794211e-01
      3.2458286807347281e-01 -1.4270500846336323e-01
      1.1474779698145185e-01 -6.4068949213459236e-01
      -3.8606231542103392e-01 5.6682857100547002e-01
      8.0703187642449548e-02 3.7989375487170310e-02
      1.7720237023636201e-01 -4.4080713070925086e-02
      -2.3400814605213213e-01 -1.7566809134393835e-01
      -4.1160582154276182e-01 9.5834705840728798e-02
      -5.3830949291190533e-01 7.6717275515314387e-01
      -2.5632862845650028e-01 1.3643815149599120e-01
      2.4112846650251687e-01 -2.5172612769054892e-01
      4.8348834736973434e-01 2.5209354395014836e-03
      -4.3320476010281717e-01 -1.4689208914083413e-01
      4.5036011318073860e-01 -5.1340954943862471e-01
      -4.4021277970761408e-01 1.9036134521368417e+00
      -1.6692137343408064e-01 8.1046544766066397e-01
      -2.5705126798158051e-01 -5.2636935147213315e-01
      -2.4484758833596448e-01 3.6969767029300327e-01
      -6.9026694071650352e-01 1.2495297458300206e-01
      1.1152294029046843e-01 -4.3665853186188314e-01
      7.7563897941741899e-02 2.0998445064798185e-01
      -5.7899802595228186e-02 3.8489551031382477e-02
      9.5745540905359638e-01 -3.2591293632628310e-01
      -2.6783025730994181e-01 1.5928167891236927e-01
      -1.7824454782614407e-01 -5.0036445805419105e-01
      -4.5150392800168931e-01 2.2373653812511041e-01
      9.3511788578735489e-02 -8.6198689903328130e-02
      1.9607889112046106e-01 -3.8085347081528609e-01
      -6.5730182678531246e-01 -2.7414012411699673e-01
      -1.0395502817189642e-02 5.7018252310725610e-02
      3.2797200905413254e-01 -6.7272651367254810e-01
      -1.7959129364750417e-01 2.4028495763731472e-01
      1.8998707782011881e-01 -9.4332872279050475e-02
      -2.0049115744033499e-01 -2.4221808908333059e-01
      1.9321265713595676e-01 -9.3131310444629889e-01
      -2.3918854494843941e-01 -1.9734955031016416e-01
      -5.6830896996536893e-02 8.3388973117966808e-02
      -9.4499023035595694e-02 -7.7919785158096028e-02
      -1.0428300364212278e-01 -1.8749763205667369e-01
      -1.0346637847535940e+00 -2.2199839370494101e-01
      4.5794114036401867e-01 -3.5242772132823541e-01
      -3.6307739320682969e-01 5.2114778283851237e-01
      3.9649165860105799e-02 -2.3957246906504215e-01
      -7.1934029455898230e-01 2.4621855028484607e-01
      -1.6069994423063810e-01 1.0497751704008046e-01
      4.0943460935669029e-01 -4.2948628541723224e-02
      -1.3225561232607622e-01 1.4242452216327055e+00
      -2.4467024485274311e-01 7.2960177939934701e-01
      3.2747639239790527e-01 -6.2692254001166869e-01
      3.0764072355474473e-02 2.4993330686101362e-01
      2.3692430143219922e-01 9.7753171616275697e-02
      1.4194527677519889e-01 2.8440983001305209e-01
      -1.2921303370224443e-02 -3.2896804405133445e-01
      4.2511706489577272e-01 6.2403615606937834e-01
      -6.1523380519771145e-02 1.1379258208104133e-01
      -4.6525730277989355e-02 -1.6705310774678736e-01
      8.1178327934615185e-02 1.6904586407171487e-01
      -5.3101973559363864e-02 6.9987681883440656e-01
      1.1806480252011263e-01 -1.2693754662596651e-01
      -9.4842963989135137e-02 -1.6858995592814015e-02
      -3.4992655184054983e-01 5.1721849749686344e-01
      -1.8020654805375705e-01 8.6087578979124979e-01
      -4.5721382154795140e-02 -2.8174870638830718e-01
      -1.6940936915375276e-01 -4.0803385602229056e-02
      -1.4611583548699589e-01 -2.2005149636048521e-01
      -5.9705165879486721e-01 2.8088161270792746e-02
      3.4071639647630153e-01 -4.6035012679554560e-01
      -4.8841848900143625e-01 1.6695439386233909e-02
      1.0979519823646883e-02 2.1058359382694371e-02
      -1.0347420115657331e-01 6.2628867607625954e-02
      -1.0632434217354627e+00 7.0042075954714345e-02
      -8.8085229239211926e-01 -5.3929525737829831e-01
      3.6422372293206456e-01 -1.4974299416515174e-01
      2.8629581817371189e-02 5.4248596272582383e-01
      -6.9695414984940540e-01 -3.7529096110447202e-01
      6.6019008454363093e-02 2.8195856962075244e-01
      2.1852441959857777e-01 -2.4940547531488270e-02
      1.2363692395610038e-01 5.1171046987636448e-01
      -7.3340118857906242e-02 1.5826500037241939e-01
      4.4096309160331748e-02 -3.0474676748594698e-01
      8.4251753004694258e-02 2.9789357652302512e-01
      1.8733027595932103e-01 2.3066577366207772e-01
      -1.2316900858593988e-01 -1.1007216039531999e-01
      -1.0415183882257348e-01 -1.0936623583750171e+00
      -1.5423902731996258e-01 2.6676529503635127e-01
      -5.5267734781627919e-03 -2.6455887113684562e-01
      -9.7884285387964346e-03 -3.5920340939201562e-01
      2.5307351563438141e-01 1.5604735801877817e-01
      1.0357396519237472e+00 6.2472811473839851e-01
      1.6073723951500213e-01 4.0081768038339655e-02
      -6.0900306623632668e-02 1.5446199618886497e-01
      -1.0466309880558734e-01 -5.7398182807953821e-02
      3.7440409228117122e-01 -1.0374071987542557e-01
      6.5959948713620042e-01 2.1713313509974227e-01
      -5.9637171239789115e-02 -2.3939046174587747e-01
      -6.6227844632535959e-01 -2.4636063810185263e-01
      -2.4498799592367526e-01 1.4804513506903352e-01
      -3.5002659379287110e-01 8.1522112858486995e-01
      5.9099532477150218e-01 1.6788337544801463e-01
      1.6875260369556416e-01 -1.8227011842598534e-02
      4.0392125189426822e-02 2.4870059134849709e-01
      -4.1769421403954204e-02 -1.6244925803555194e-01
      2.8944475709692347e-01 1.6859422256931614e-01
      -1.7661762095924130e-01 -1.6435599887702362e-01
      -4.8153041161605620e-01 1.1207278971235880e-01
      -2.9035417751453108e-01 2.4825467633388588e-02
      -5.5259860910235648e-01 -2.6608581385465785e-01
      -1.4213514089843418e-01 7.5924608456719195e-02
      -2.2995699446317189e-01 6.2262154055987873e-01
      -3.4971267026769254e-01 -1.1738910927532242e-01
      7.0965046338860305e-01 -7.9802529655936053e-02
      2.9841877042513676e-02 -1.8002075764752046e-01
      1.6671181231232274e-01 1.0877466737838297e+00
      1.5506016653914867e-01 -4.4193056521800486e-02
      -6.7246313899995913e-02 -2.8770829385805563e-01
      1.7016845047000251e-01 -9.5959016307403833e-01
      -2.4721030951548269e-02 3.1905914984578565e-01
      -3.0728533819546999e-01 4.5502128465650199e-01
      1.2874985207496278e-01 -3.6175045418545937e-01
      -6.6612581035740900e-02 1.5225847121853212e-01
      6.7746914247194034e-01 -4.1423089220059023e-01
      -2.3487728875506589e-01 -7.2544659500225180e-03
      -7.4245173411154686e-01 -5.3929069072179911e-02
      -5.4868632638759594e-02 4.3816376279694307e-03
      9.2521015702935666e-02 -4.2095403023395173e-01
      1.9042966110671053e-01 -1.2670444491745600e-01
      -3.1887331222828474e-01 3.4368460142500473e-01
      -2.3497033911464157e-01 -6.5214481029068246e-03
      -1.5425398780247512e+00 5.2633393950630450e-02
      2.1343181806738787e-01 2.1062228079954341e-03
      2.4009759729070674e-02 2.2026913889061508e-01
      2.7477697900245696e-01 -1.9748184685791145e-02
      -8.9421163098524603e-02 1.9366064827205048e-01
      2.1765611015545022e-01 -8.3559814354404016e-01
      4.6680827590737595e-01 -9.2566452181006453e-02
      -3.5850116011471971e-02 -3.7314636592448019e-02
      7.3135671027907845e-01 -5.8770570757260510e-01
      9.4609887613845878e-01 -1.7151240201273993e-01
      6.0250231409781263e-01 -3.2419766664371608e-01
      2.0587172692295930e-01 1.0897988037114598e-01
      -1.3961965681721150e-01 3.5114457368144708e-01
      1.4726918357572441e-01 -5.4012452198861145e-02
      4.5287903766384946e-01 -1.0862889321721632e+00
      1.8985978339762591e-01 -8.2039616439173901e-02
      -6.3774028479155698e-01 5.5330502603910470e-01
      -2.7916250922204461e-01 -3.7590631990430295e-01
      -2.9613948333371259e-01 4.8002956035228911e-01
      1.4139043738666707e-01 -8.6635942272870459e-01
      -6.3551542573638764e-02 6.2945517029864478e-02
      -1.8442960517805509e-01 -9.0035239815545003e-03
      -2.3758918890882169e-01 1.4925596606129485e-01
      5.0426614543749948e-01 3.4521456146360580e-01
      1.1257240736552615e-01 -5.8055795488610162e-01
      2.1112317166183553e-01 -7.4825222968339877e-02
      7.1784679923655281e-02 2.6299634740093197e-01
      8.5307580807738292e-01 -6.8407991891614742e-02
      -5.7852568188228821e-02 1.8292324809048482e-01
      4.3796705398316607e-02 8.6140369161482255e-01
      -9.5110749198103683e-01 5.5437775516695642e-01
      3.1478415985842761e-01 -3.4186737974371030e-02
      -2.7727426975274239e-01 -1.1207438542636694e-01
      4.9159131304612463e-01 -2.7662487119687967e-01
      -3.5925740281402729e-01 1.1323340768833554e-01
      5.4259611256236961e-01 3.3377236171597224e-01
      2.1348912205873968e-01 2.9734963576361079e-01
      1.0631841763314309e-01 -3.4336273541642359e-01
      4.3896488807721418e-01 1.3862626678522430e-01
      -2.5750364221659033e-01 6.0074734008224251e-01
      2.8986060471688629e-01 9.0985353481737041e-01
      -8.4330001344481154e-01 -4.4730778601419069e-01
      4.6608317747512662e-01 2.3290425092384378e-02
      -1.0235571747044800e+00 -2.8414749874107925e-01
      1.2794155498913137e-01 7.4461967990911060e-01
      1.1946195066338476e-01 -1.5420729471387024e-01
      1.0164803931522928e-01 -5.5174038780221035e-01
      -2.0518668753175445e-01 -4.3381542612017721e-01
      -2.2291290216944190e-01 -6.8484894891199755e-01
      -3.9811034887667307e-01 4.1662749829129603e-01
      -6.9681709315567331e-01 4.3437083629828083e-01
      3.8325564257466310e-01 -4.1339223464802716e-01
      1.3831639087583092e-01 1.0100236504137691e-01
      -3.3989282186924691e-01 -2.0784103962840397e-01
      1.4789109299234518e-01 -5.8458863831833352e-01
      9.8713413950646123e-01 2.8610662017390953e-01
      2.0242475681734673e-01 -3.7803258917570376e-01
      1.9609475328125026e-01 -4.4696816292913083e-02
      -3.5884496087787415e-01 1.2907920228229808e-01
      -2.8771882439361590e-01 -2.2094297856920832e-02
      -9.8005853052002892e-02 -4.5619944225148062e-02
      -7.6985463636214968e-01 7.5401961218701063e-01
      -1.2307450558485186e-01 2.0401153109927142e-01
      -7.9416815669097951e-01 1.8332491116808575e-01
      -2.5026794665526986e-01 7.1257492141816800e-02
      3.2833794866010291e-01 -1.5427851820450933e-01
      -7.4538441544176381e-01 6.6613765476687159e-01
      6.1226203195758633e-01 2.2768408137935434e-01
      3.6732563566653338e-02 2.7537174437517960e-02
      3.3899624601138961e-01 1.2460801435132923e-01
      6.0171894777049106e-01 -4.3730291441529645e-01
      1.2397326719546711e-01 1.8641487641021981e-01
      -1.3267539826911251e-01 3.2694240441253503e-01
      -7.6448170441683625e-03 5.3947886108662725e-02
      -1.1325648506146075e+00 -3.5518004144408949e-01
      -4.2726610432669998e-01 -6.4201653689622228e-04
      -1.8334334061899693e-01 5.4179756450378147e-01
      5.9509762696321589e-01 -3.4761322469782008e-01
      -2.8255153233486298e-02 2.8919748515366622e-01
      -2.4187236477353324e-01 -4.1194680234419739e-01
      -1.6436470091937239e-01 -3.2827432913442323e-01
      -1.1063510491662400e-01 -7.9365112409095329e-01
      7.6345445534260281e-01 5.6194034262374637e-01
      -6.8059108252517736e-02 1.2586582953963910e-01
      -1.9543860275781941e-01 -2.7633054962978332e-01
      -3.4303829714173401e-01 -3.6656513781477940e-01
      3.6248763475121487e-01 -1.8872651706463520e-01
      -3.7217317817647227e-01 4.5419392294684563e-01
      1.0761322287342578e-01 -6.2363986309231545e-01
      4.0255690830707780e-01 -8.7691155809046029e-01
      2.3959866348744910e-01 7.0327894214317588e-01
      1.5026019449139713e-01 -1.9834615437540302e-03
      5.2919163539294500e-01 2.4532353052332320e-01
      -2.2045208160195529e-01 -3.0543174543493451e-01
      -4.6913387305917409e-01 9.0610893166816198e-02
      -1.2417175771043079e-01 -2.4363913991913136e-01
      -1.8866792431310242e-01 1.2753126735552317e-01
      -1.2313252082036229e-01 -4.8253801156917311e-03
      -3.6304381206082253e-01 4.2500954573431993e-01
      5.0286715151615013e-01 9.9094157522585702e-01
      1.1248876648379252e-01 2.0241320143323432e-01
      -2.5568602721139332e-02 -3.2944939580363408e-01
      1.3574162136090888e+00 -4.6919365454306960e-01
      -1.1031680619696804e-01 -1.7439481888128375e-01
      6.0106804842167585e-02 1.8983081831352297e-01
      2.4783664197365304e-01 -1.7805808777668941e-01
      -6.1142056111053089e-01 4.5435370416745016e-02
      3.2937199248195481e-01 2.1981205966344389e-01
      -8.1557737347875678e-02 -5.4926983940068633e-02
      -3.5406439457383404e-01 -3.8836825733097652e-01
      1.5661061550933345e-01 6.4657544964400449e-01
      -8.4545453154744088e-01 2.9683271888417420e-02
      -7.5097827471823989e-02 -7.4879253804221935e-01
      -4.3183328292354356e-01 8.8522143574824241e-02
      5.3322277087765202e-01 4.2788357736796684e-01
      1.5135542731912147e-01 3.8476243929016379e-01
      1.4293009701087420e-01 4.5410330573828386e-02
      -5.7978935727515321e-02 -5.2332734788142221e-01
      5.7457728626559190e-01 1.8659025672947685e-01
      3.1944566808356029e-01 -9.4714354948983920e-02
      3.4692724783799733e-01 1.8321425328913643e-01
      1.9786050060205684e-01 -3.3857366121231691e-01
      -5.5124434073756480e-02 -5.2746092288419644e-02
      8.2605253822220115e-01 -3.2035274328632674e-01
      -4.4576387622326430e-01 -4.2983994311679191e-01
      -5.3919408710438854e-01 -5.4542112678237309e-01
      -6.0602239870776946e-02 -9.1764412118732222e-02
      -2.5442132332628004e-01 2.1531724828851367e-01
      1.3428925889056095e-01 -1.2232219090238569e-01
      9.5277156250228326e-02 1.0225580332947146e-01
      -1.1725759213452037e-01 5.0198689517250306e-01
      5.1876232270169109e-01 8.3883997293320212e-01
      1.5170707254595345e-01 3.0804549310513030e-01
      1.1391079921552718e-02 9.9075280344533889e-02
      2.8560561897016828e-01 6.8273039032185165e-02
      -2.9333528974746111e-02 -2.1704997292397613e-01
      1.3128218820159982e-02 1.7114585501871515e-01
      -6.4530301727918782e-01 -9.7330537714090962e-02
      2.7075750915128306e-02 1.7414826982643097e-01
      7.0168521010154550e-01 1.0201134697868545e-01
      -4.1451054333763093e-01 -2.2730348242483364e-01
      -2.9729684625125159e-02 -3.4131351057234216e-01
      -1.4224864633242726e-01 2.0597846854094581e-01
      -3.3452768706596764e-01 3.1597422420226778e-01
      -2.7444748580612733e-03 3.5451114646793214e-01
      -1.9939344822776867e-01 -5.9055839923504522e-02
      -2.4043311987766583e-01 4.5689327822131187e-01
      -2.0650356274235177e-01 -7.7841230776304574e-02
      2.7494412597714041e-01 -4.3257854796458151e-01
      -4.5865152127942077e-01 -5.1119625830114213e-01
      4.9211103335406658e-01 3.5255510534670542e-01
      -2.8117696304261897e-01 4.9048515597262221e-01
      -5.6903791711756933e-02 4.2713624588676874e-01
      -8.7300528184514475e-02 -6.3156646096586266e-01
      -5.1384337064833785e-01 5.1423735995636148e-02
      6.3872714545132026e-01 -4.4842755223650943e-01
      -5.7455531058897491e-01 -6.8794753434637224e-01
      -2.9862811698288827e-01 -4.2152711813249188e-01
      6.3539887094654232e-02 -1.4593621071490928e-01
      7.2603102873428160e-01 1.2869680097028938e-01
      7.1346983188151997e-02 -4.1394046724998468e-01
      5.5932236409783154e-01 1.0910855478585004e-02
      3.8055304621320890e-01 4.2726685056471363e-02
      1.8886723401464151e-01 2.8603491620799393e-01
      1.5756171836487712e-01 1.8894904155825640e-01
      -4.4087729326893914e-02 -3.8410911812361759e-01
      -1.2050371587505372e-01 -2.6859449901253230e-01
      -5.3424079102513544e-01 -1.9392491653763866e-01
      1.1911653839591999e-01 3.3056734085323541e-01
